svm_type c_svc
kernel_type rbf
gamma 2.5731415485165839e-05
nr_class 2
total_sv 1753
rho -4.3941969482740184
label 0 1
nr_sv 874 879
SV
10 1:1 182:1 13368:1 13370:1 13374:1 13375:1 13378:1 13381:1 13383:1 13386:1 13389:1 13392:1 13394:1 13395:1 13397:1 13405:1 13406:1 13409:1 13410:1 13412:1 13416:1 13420:1 13421:1 13422:1 13427:1 13428:1 13429:1 13430:1 13431:1 13438:1 13441:1 13446:1 13448:1 13453:1 13458:1 13460:1 13461:1 13463:1 13464:1 13465:1 13466:1 13468:1 13469:1 13472:1 13474:1 13476:1 13480:1 13483:1 13486:1 13489:1 13494:1 13499:1 13501:1 13502:1 13509:1 13510:1 13511:1 13517:1 13520:1 13527:1 13528:1 13530:1 13534:1 13537:1 13540:1 13541:1 13542:1 13543:1 13544:1 13549:1 13556:1 13562:1 13566:1 13575:1 13580:1 13585:1 13588:1 13589:1 13591:1 13596:1 13597:1 13599:1 13603:1 13606:1 13608:1 13610:1 13611:1 13614:1 13620:1 13621:1 13622:1 13627:1 13628:1 13631:1 13633:1 13634:1 13636:1 13637:1 13639:1 13642:1 13644:1 13645:1 13646:1 13648:1 13650:1 13651:1 13655:1 13657:1 13658:1 13660:1 13672:1 13676:1 13677:1 13693:1 13694:1 13698:1 13703:1 13704:1 13707:1 13712:1 13718:1 13721:1 13728:1 13730:1 13731:1 13732:1 13735:1 13739:1 13749:1 13753:1 13755:1 13756:1 13757:1 13758:1 13764:1 13768:1 13777:1 13781:1 13782:1 13799:1 13802:1 13805:1 13806:1 13809:1 13810:1 13811:1 13815:1 13819:1 13820:1 13822:1 13823:1 13826:1 13833:1 13842:1 13843:1 13848:1 13851:1 13859:1 
10 1:1 2:1 3:1 4:1 5:1 6:1 7:1 8:1 10:1 11:1 12:1 13:1 14:1 15:1 16:1 17:1 18:1 19:1 20:1 21:1 23:1 24:1 25:1 26:1 27:1 30:1 31:1 32:1 33:1 34:1 36:1 38:1 39:1 40:1 44:1 48:1 52:1 54:1 56:1 60:1 63:1 67:1 69:1 71:1 74:1 77:1 78:1 82:1 84:1 87:1 88:1 90:1 92:1 96:1 104:1 105:1 108:1 109:1 112:1 115:1 117:1 119:1 123:1 125:1 126:1 131:1 137:1 140:1 141:1 145:1 149:1 151:1 155:1 156:1 160:1 165:1 171:1 175:1 179:1 187:1 194:1 195:1 197:1 198:1 200:1 201:1 202:1 206:1 214:1 217:1 219:1 221:1 227:1 235:1 237:1 251:1 283:1 295:1 310:1 314:1 324:1 329:1 331:1 338:1 346:1 352:1 355:1 356:1 397:1 401:1 405:1 409:1 419:1 424:1 427:1 431:1 433:1 440:1 457:1 459:1 473:1 480:1 491:1 495:1 504:1 561:1 579:1 632:1 680:1 688:1 697:1 769:1 783:1 834:1 866:1 887:1 893:1 914:1 935:1 952:1 982:1 1009:1 1022:1 1038:1 1040:1 1242:1 1278:1 1279:1 1294:1 1353:1 1408:1 1487:1 2084:1 2539:1 2677:1 2785:1 2884:1 2959:1 3057:1 3058:1 3193:1 4378:1 4934:1 5476:1 6096:1 13861:1 13863:1 13864:1 13866:1 13867:1 13868:1 
10 1:1 2:1 3:1 4:1 5:1 6:1 7:1 8:1 10:1 13:1 14:1 15:1 16:1 17:1 18:1 19:1 23:1 24:1 25:1 26:1 27:1 29:1 30:1 32:1 34:1 36:1 38:1 40:1 42:1 43:1 48:1 50:1 52:1 58:1 63:1 64:1 68:1 76:1 80:1 87:1 88:1 92:1 94:1 95:1 102:1 105:1 121:1 134:1 137:1 138:1 155:1 172:1 180:1 195:1 201:1 222:1 233:1 278:1 297:1 302:1 309:1 426:1 452:1 490:1 517:1 561:1 599:1 636:1 654:1 676:1 689:1 975:1 1040:1 1050:1 1357:1 1389:1 1491:1 1542:1 1839:1 1890:1 2148:1 2543:1 2785:1 2894:1 3457:1 3458:1 4385:1 5488:1 6096:1 8172:1 13886:1 13888:1 13889:1 
10 1:1 2:1 3:1 4:1 5:1 6:1 7:1 8:1 10:1 11:1 12:1 13:1 14:1 15:1 16:1 17:1 18:1 19:1 20:1 21:1 24:1 25:1 26:1 27:1 28:1 29:1 30:1 31:1 32:1 33:1 34:1 36:1 38:1 40:1 42:1 45:1 52:1 55:1 56:1 63:1 64:1 65:1 66:1 68:1 69:1 71:1 74:1 77:1 78:1 84:1 90:1 92:1 95:1 104:1 105:1 106:1 108:1 120:1 126:1 127:1 131:1 137:1 140:1 145:1 149:1 151:1 153:1 157:1 159:1 166:1 167:1 169:1 179:1 190:1 197:1 198:1 200:1 201:1 202:1 204:1 210:1 214:1 232:1 242:1 245:1 251:1 255:1 262:1 268:1 275:1 277:1 283:1 302:1 312:1 315:1 321:1 324:1 328:1 334:1 347:1 363:1 369:1 381:1 383:1 386:1 407:1 435:1 486:1 495:1 503:1 504:1 509:1 524:1 531:1 536:1 539:1 561:1 588:1 608:1 609:1 613:1 623:1 629:1 630:1 637:1 684:1 685:1 686:1 708:1 715:1 716:1 725:1 817:1 847:1 956:1 957:1 958:1 987:1 1005:1 1006:1 1298:1 1357:1 1360:1 1375:1 1459:1 1460:1 1486:1 1565:1 1590:1 1654:1 1929:1 1930:1 2367:1 2368:1 2440:1 2785:1 2959:1 3105:1 3462:1 3463:1 4047:1 4048:1 4050:1 6615:1 6617:1 6618:1 6619:1 8178:1 13898:1 13899:1 13900:1 13901:1 13906:1 13907:1 13908:1 13910:1 13913:1 13915:1 13916:1 13917:1 13918:1 13920:1 13921:1 13922:1 13924:1 13925:1 13928:1 13932:1 13935:1 13936:1 13937:1 13938:1 13939:1 13940:1 13941:1 13947:1 13948:1 13949:1 13950:1 
10 1:1 2:1 3:1 4:1 5:1 6:1 7:1 8:1 10:1 11:1 12:1 13:1 14:1 15:1 16:1 17:1 18:1 19:1 20:1 21:1 24:1 26:1 29:1 32:1 37:1 38:1 48:1 60:1 63:1 68:1 74:1 77:1 80:1 87:1 89:1 90:1 95:1 97:1 100:1 104:1 106:1 108:1 109:1 115:1 120:1 122:1 125:1 149:1 171:1 197:1 200:1 201:1 210:1 242:1 271:1 371:1 408:1 434:1 441:1 495:1 708:1 716:1 771:1 872:1 873:1 1026:1 1518:1 1544:1 1931:1 2178:1 2291:1 2785:1 4946:1 6002:1 6621:1 6788:1 13957:1 13958:1 
10 1:1 3:1 5:1 6:1 7:1 8:1 11:1 12:1 13:1 14:1 15:1 18:1 20:1 24:1 25:1 34:1 37:1 39:1 40:1 43:1 45:1 48:1 50:1 52:1 55:1 56:1 58:1 65:1 68:1 74:1 77:1 80:1 84:1 85:1 105:1 122:1 132:1 154:1 175:1 180:1 188:1 238:1 257:1 264:1 298:1 318:1 363:1 459:1 460:1 496:1 541:1 565:1 580:1 699:1 982:1 1246:1 1249:1 2448:1 2449:1 2648:1 2763:1 2785:1 2901:1 2902:1 2959:1 3209:1 3746:1 3747:1 3748:1 3749:1 4061:1 
7.0423810903675985 1:1 2:1 3:1 4:1 5:1 6:1 7:1 8:1 10:1 11:1 12:1 13:1 14:1 15:1 16:1 17:1 18:1 19:1 21:1 24:1 25:1 26:1 27:1 29:1 30:1 31:1 33:1 34:1 36:1 38:1 40:1 42:1 45:1 48:1 50:1 52:1 54:1 55:1 56:1 68:1 71:1 74:1 77:1 85:1 89:1 105:1 112:1 116:1 117:1 119:1 122:1 129:1 131:1 142:1 145:1 147:1 155:1 157:1 159:1 162:1 164:1 167:1 177:1 180:1 194:1 206:1 212:1 227:1 253:1 260:1 268:1 269:1 283:1 310:1 312:1 355:1 400:1 408:1 411:1 419:1 459:1 487:1 517:1 567:1 572:1 579:1 597:1 659:1 690:1 699:1 777:1 849:1 955:1 988:1 1169:1 1934:1 2094:1 2450:1 2785:1 3750:1 6637:1 6638:1 6640:1 14040:1 14041:1 
10 1:1 2:1 3:1 4:1 6:1 7:1 8:1 10:1 11:1 12:1 13:1 14:1 15:1 16:1 18:1 20:1 21:1 32:1 34:1 38:1 39:1 54:1 56:1 60:1 74:1 77:1 80:1 82:1 90:1 95:1 103:1 104:1 108:1 109:1 114:1 120:1 121:1 137:1 139:1 149:1 172:1 179:1 197:1 201:1 215:1 246:1 335:1 351:1 363:1 408:1 433:1 439:1 467:1 491:1 495:1 561:1 593:1 697:1 784:1 791:1 792:1 800:1 887:1 1497:1 1801:1 2154:1 2219:1 2223:1 2371:1 2764:1 2785:1 2959:1 3751:1 6641:1 14044:1 
10 1:1 2:1 3:1 4:1 7:1 8:1 10:1 13:1 14:1 15:1 18:1 20:1 21:1 25:1 27:1 39:1 42:1 52:1 61:1 74:1 77:1 79:1 119:1 122:1 166:1 180:1 204:1 253:1 699:1 807:1 925:1 1120:1 1364:1 1365:1 1436:1 2446:1 2453:1 2785:1 3057:1 3472:1 5527:1 6650:1 8204:1 8210:1 8968:1 14080:1 14081:1 14082:1 14083:1 14084:1 14085:1 
10 1:1 2:1 4:1 5:1 8:1 12:1 13:1 15:1 18:1 20:1 24:1 25:1 27:1 28:1 29:1 42:1 45:1 47:1 48:1 50:1 63:1 65:1 68:1 71:1 73:1 74:1 77:1 79:1 84:1 90:1 95:1 97:1 100:1 104:1 108:1 149:1 168:1 195:1 199:1 200:1 257:1 297:1 339:1 374:1 450:1 468:1 561:1 637:1 1459:1 1714:1 1847:1 2785:1 2959:1 8211:1 8212:1 8213:1 8214:1 14086:1 14089:1 14091:1 
10 1:1 2:1 3:1 4:1 5:1 8:1 10:1 11:1 13:1 14:1 15:1 16:1 17:1 18:1 20:1 21:1 24:1 25:1 29:1 31:1 48:1 52:1 66:1 71:1 73:1 80:1 90:1 96:1 100:1 106:1 125:1 140:1 162:1 177:1 199:1 212:1 214:1 222:1 292:1 349:1 361:1 401:1 527:1 618:1 623:1 870:1 874:1 980:1 1417:1 1550:1 2785:1 3214:1 3754:1 6662:1 14104:1 14105:1 
10 1:1 2:1 3:1 4:1 5:1 6:1 8:1 10:1 11:1 12:1 13:1 14:1 15:1 17:1 18:1 20:1 21:1 26:1 27:1 32:1 39:1 43:1 44:1 63:1 68:1 71:1 74:1 77:1 110:1 113:1 117:1 122:1 125:1 126:1 134:1 142:1 148:1 155:1 160:1 177:1 179:1 180:1 184:1 195:1 204:1 212:1 220:1 275:1 342:1 356:1 408:1 699:1 704:1 2153:1 2227:1 2553:1 2785:1 2906:1 4067:1 14106:1 14107:1 
10 1:1 2:1 3:1 4:1 6:1 7:1 8:1 10:1 11:1 12:1 13:1 14:1 15:1 16:1 18:1 20:1 32:1 34:1 38:1 39:1 54:1 56:1 60:1 74:1 77:1 80:1 82:1 95:1 103:1 104:1 108:1 109:1 114:1 120:1 121:1 137:1 139:1 172:1 179:1 215:1 246:1 266:1 335:1 351:1 353:1 363:1 408:1 439:1 467:1 593:1 784:1 791:1 792:1 800:1 1497:1 1801:1 2154:1 2219:1 2223:1 2371:1 2764:1 2785:1 2959:1 3751:1 14109:1 
10 1:1 3:1 4:1 8:1 10:1 11:1 12:1 13:1 14:1 15:1 16:1 17:1 18:1 67:1 68:1 71:1 74:1 77:1 121:1 137:1 180:1 201:1 227:1 286:1 292:1 432:1 454:1 699:1 754:1 2368:1 2785:1 3069:1 3070:1 3215:1 6663:1 6664:1 6665:1 6667:1 6668:1 6670:1 6671:1 6672:1 8217:1 8218:1 8219:1 8220:1 8221:1 8222:1 8223:1 8225:1 8227:1 8228:1 8229:1 8234:1 8235:1 8238:1 8239:1 8241:1 8243:1 8244:1 14112:1 14115:1 14116:1 14118:1 14119:1 14120:1 14121:1 14122:1 14124:1 14125:1 14129:1 14131:1 14132:1 14133:1 14134:1 14135:1 14136:1 14137:1 14139:1 14140:1 14141:1 14142:1 14143:1 14144:1 14145:1 14147:1 14148:1 14149:1 14150:1 14151:1 14152:1 14153:1 14154:1 14155:1 14156:1 14157:1 14158:1 14159:1 14160:1 14162:1 14163:1 14164:1 14167:1 14168:1 14170:1 14171:1 14172:1 14173:1 14174:1 14175:1 14177:1 14181:1 14186:1 14188:1 14189:1 14191:1 14192:1 14193:1 14194:1 14195:1 14197:1 14198:1 14199:1 14200:1 14201:1 14202:1 14203:1 14204:1 14205:1 14206:1 14207:1 14208:1 14209:1 14211:1 14213:1 14214:1 14215:1 14216:1 14219:1 14220:1 14221:1 14223:1 14224:1 14225:1 14226:1 14229:1 14230:1 14231:1 14232:1 14233:1 14234:1 14235:1 14236:1 14237:1 14238:1 14239:1 14240:1 14241:1 14242:1 14243:1 14244:1 14245:1 14246:1 14247:1 14248:1 14249:1 14250:1 14251:1 14253:1 14254:1 14255:1 14256:1 14257:1 14258:1 14259:1 14260:1 14261:1 14262:1 14263:1 14265:1 14266:1 14267:1 14268:1 14269:1 14272:1 14273:1 14275:1 14277:1 14278:1 14279:1 14280:1 14281:1 14283:1 14284:1 14285:1 14287:1 14289:1 14290:1 14291:1 14293:1 14294:1 14296:1 14298:1 14299:1 14300:1 14301:1 14302:1 14303:1 14306:1 14308:1 14309:1 14311:1 14312:1 14313:1 14314:1 14315:1 14316:1 14318:1 14322:1 14323:1 14324:1 14328:1 14329:1 14330:1 14332:1 14333:1 14334:1 14336:1 14337:1 14338:1 14339:1 14343:1 14344:1 14345:1 14346:1 14347:1 14348:1 14349:1 14350:1 14352:1 14354:1 14355:1 14356:1 14357:1 14358:1 14361:1 14362:1 14363:1 14364:1 14365:1 14366:1 14367:1 14368:1 14370:1 14371:1 14372:1 14373:1 14374:1 14375:1 14376:1 14377:1 14378:1 14379:1 14381:1 14382:1 14383:1 14384:1 14385:1 14387:1 14388:1 14389:1 14390:1 14391:1 14392:1 14393:1 14394:1 14395:1 14396:1 14397:1 14399:1 14400:1 14402:1 14403:1 14404:1 14405:1 14407:1 14408:1 14410:1 14411:1 14412:1 14413:1 14414:1 14415:1 14416:1 14417:1 14418:1 14419:1 14420:1 14421:1 14422:1 14423:1 14424:1 14425:1 14426:1 14427:1 14428:1 14429:1 14430:1 14431:1 14433:1 14434:1 14435:1 14436:1 14437:1 14439:1 14441:1 14442:1 14443:1 14444:1 14445:1 14446:1 14448:1 14449:1 14452:1 14453:1 14455:1 14457:1 14458:1 14461:1 14462:1 14463:1 14464:1 14465:1 14466:1 14468:1 14469:1 14470:1 14472:1 14473:1 14474:1 14476:1 14477:1 14478:1 14479:1 14480:1 14482:1 14484:1 14485:1 14486:1 14488:1 14490:1 14491:1 14494:1 14495:1 14497:1 14499:1 14500:1 14501:1 14502:1 14504:1 14505:1 14506:1 14507:1 14508:1 14509:1 14510:1 14512:1 14513:1 14515:1 14516:1 14517:1 14521:1 14523:1 14525:1 14526:1 14527:1 14528:1 14529:1 14530:1 14532:1 14533:1 14534:1 14536:1 14537:1 14539:1 14540:1 14541:1 14542:1 14543:1 14544:1 14547:1 14548:1 14549:1 14550:1 14551:1 14552:1 14553:1 14554:1 14555:1 14557:1 14558:1 14559:1 14560:1 14561:1 14562:1 14563:1 14564:1 14565:1 14567:1 14568:1 14569:1 14570:1 14573:1 14574:1 14575:1 14577:1 14578:1 14579:1 14580:1 14581:1 14583:1 14584:1 14585:1 14586:1 14587:1 14589:1 14590:1 14592:1 14593:1 14596:1 14597:1 14598:1 14599:1 14601:1 14603:1 14604:1 14605:1 14606:1 14607:1 14608:1 14609:1 14611:1 14612:1 14613:1 14614:1 14615:1 14616:1 14617:1 14619:1 14620:1 14623:1 14624:1 14627:1 14631:1 14632:1 14634:1 14637:1 14638:1 14641:1 14642:1 14644:1 14646:1 14647:1 14649:1 14650:1 14651:1 14654:1 14656:1 14657:1 14659:1 14661:1 14663:1 14664:1 14665:1 14667:1 14668:1 14669:1 14670:1 14673:1 14674:1 14676:1 14677:1 14678:1 14680:1 14681:1 14682:1 14684:1 14685:1 14687:1 14688:1 14689:1 14690:1 14691:1 14692:1 14693:1 14694:1 14695:1 14696:1 
10 1:1 2:1 3:1 4:1 6:1 7:1 8:1 11:1 13:1 15:1 18:1 19:1 20:1 21:1 29:1 34:1 37:1 43:1 44:1 48:1 59:1 74:1 77:1 79:1 84:1 95:1 122:1 180:1 204:1 220:1 294:1 439:1 699:1 700:1 919:1 1716:1 2228:1 2229:1 2363:1 2785:1 2907:1 8968:1 14698:1 
6.7611921322602004 1:1 2:1 3:1 4:1 5:1 8:1 10:1 11:1 12:1 13:1 14:1 15:1 18:1 20:1 24:1 27:1 30:1 34:1 42:1 43:1 44:1 47:1 64:1 68:1 71:1 74:1 77:1 79:1 118:1 123:1 141:1 159:1 164:1 166:1 167:1 180:1 187:1 226:1 227:1 240:1 281:1 285:1 286:1 287:1 312:1 393:1 398:1 440:1 551:1 552:1 558:1 591:1 625:1 661:1 665:1 773:1 794:1 827:1 932:1 1044:1 1050:1 1231:1 1394:1 1437:1 1632:1 1717:1 1984:1 2785:1 3747:1 4964:1 8245:1 8246:1 14701:1 14702:1 
10 1:1 2:1 3:1 4:1 5:1 6:1 7:1 8:1 10:1 11:1 12:1 13:1 14:1 15:1 18:1 20:1 21:1 25:1 27:1 29:1 31:1 36:1 38:1 50:1 55:1 58:1 61:1 68:1 74:1 77:1 79:1 84:1 125:1 128:1 138:1 141:1 144:1 158:1 166:1 180:1 187:1 211:1 219:1 224:1 227:1 255:1 262:1 280:1 286:1 386:1 480:1 567:1 699:1 702:1 761:1 767:1 813:1 1306:1 2293:1 2374:1 2554:1 2785:1 2959:1 3474:1 4412:1 4492:1 6096:1 8180:1 8247:1 8248:1 8249:1 8250:1 14704:1 14705:1 
10 1:1 2:1 3:1 4:1 5:1 6:1 7:1 8:1 10:1 11:1 12:1 13:1 14:1 15:1 16:1 17:1 18:1 19:1 20:1 23:1 25:1 27:1 29:1 30:1 31:1 38:1 39:1 42:1 50:1 52:1 54:1 55:1 56:1 63:1 64:1 66:1 68:1 69:1 74:1 77:1 80:1 83:1 89:1 92:1 105:1 114:1 117:1 127:1 130:1 131:1 160:1 163:1 180:1 214:1 218:1 227:1 292:1 309:1 314:1 331:1 342:1 346:1 401:1 411:1 506:1 567:1 580:1 606:1 680:1 699:1 721:1 761:1 771:1 812:1 915:1 952:1 1343:1 1469:1 2041:1 2445:1 2648:1 2763:1 2771:1 2785:1 2901:1 2959:1 3075:1 3209:1 3219:1 14714:1 14716:1 
7.920108680713577 1:1 2:1 3:1 4:1 5:1 6:1 7:1 8:1 10:1 11:1 12:1 13:1 14:1 15:1 16:1 17:1 18:1 19:1 20:1 21:1 23:1 24:1 25:1 26:1 27:1 29:1 30:1 33:1 34:1 36:1 38:1 39:1 40:1 42:1 43:1 45:1 47:1 48:1 50:1 52:1 54:1 55:1 56:1 58:1 61:1 63:1 64:1 66:1 67:1 68:1 69:1 74:1 77:1 78:1 80:1 83:1 84:1 85:1 87:1 88:1 89:1 92:1 94:1 96:1 97:1 102:1 105:1 106:1 110:1 112:1 114:1 116:1 117:1 118:1 125:1 126:1 127:1 128:1 130:1 131:1 138:1 139:1 140:1 142:1 145:1 147:1 148:1 151:1 153:1 155:1 156:1 157:1 158:1 159:1 160:1 162:1 163:1 164:1 165:1 166:1 168:1 169:1 171:1 179:1 180:1 187:1 190:1 194:1 197:1 198:1 204:1 206:1 210:1 213:1 214:1 217:1 219:1 221:1 222:1 226:1 229:1 235:1 237:1 238:1 246:1 251:1 253:1 260:1 262:1 264:1 268:1 269:1 275:1 276:1 279:1 281:1 283:1 284:1 287:1 289:1 295:1 298:1 302:1 306:1 308:1 310:1 314:1 321:1 328:1 329:1 331:1 334:1 335:1 339:1 340:1 341:1 348:1 349:1 356:1 361:1 363:1 367:1 369:1 375:1 384:1 391:1 397:1 398:1 400:1 402:1 405:1 407:1 411:1 413:1 425:1 427:1 428:1 435:1 443:1 450:1 459:1 470:1 473:1 480:1 481:1 486:1 490:1 500:1 510:1 516:1 525:1 527:1 529:1 530:1 534:1 536:1 547:1 567:1 570:1 571:1 572:1 585:1 588:1 590:1 597:1 608:1 633:1 634:1 638:1 645:1 650:1 665:1 668:1 690:1 692:1 696:1 699:1 701:1 702:1 717:1 722:1 731:1 732:1 738:1 754:1 760:1 772:1 783:1 829:1 834:1 867:1 892:1 894:1 920:1 935:1 938:1 955:1 975:1 989:1 995:1 997:1 1011:1 1013:1 1044:1 1087:1 1104:1 1141:1 1142:1 1160:1 1163:1 1197:1 1202:1 1203:1 1204:1 1217:1 1229:1 1233:1 1297:1 1306:1 1327:1 1343:1 1375:1 1377:1 1389:1 1408:1 1414:1 1439:1 1469:1 1470:1 1471:1 1501:1 1566:1 1568:1 1599:1 1601:1 1632:1 1633:1 1635:1 1636:1 1684:1 1714:1 1718:1 1752:1 1753:1 1758:1 1759:1 1803:1 1804:1 1836:1 1853:1 1899:1 1900:1 1935:1 1975:1 1985:1 1986:1 1988:1 1989:1 2098:1 2233:1 2234:1 2299:1 2366:1 2375:1 2380:1 2381:1 2456:1 2457:1 2557:1 2651:1 2772:1 2773:1 2774:1 2785:1 2911:1 2959:1 3077:1 3078:1 3105:1 3214:1 3221:1 3222:1 3224:1 3227:1 3477:1 3478:1 3480:1 3481:1 3728:1 3760:1 4070:1 4072:1 4073:1 4074:1 4236:1 4415:1 4416:1 4968:1 4970:1 5533:1 6096:1 6788:1 8261:1 8262:1 8263:1 8265:1 8568:1 14717:1 14718:1 14720:1 14722:1 14724:1 14725:1 14726:1 14727:1 14729:1 14730:1 14731:1 14732:1 14733:1 22035:1 
10 1:1 2:1 3:1 4:1 8:1 10:1 12:1 13:1 15:1 16:1 17:1 18:1 24:1 30:1 34:1 38:1 42:1 68:1 74:1 77:1 79:1 80:1 105:1 122:1 147:1 180:1 287:1 336:1 413:1 428:1 571:1 619:1 690:1 821:1 1088:1 1235:1 1416:1 1442:1 1765:1 1981:1 2034:1 2221:1 2310:1 2375:1 2386:1 2785:1 2959:1 4431:1 4432:1 4433:1 4982:1 5585:1 5589:1 5590:1 5591:1 5593:1 5594:1 5596:1 5597:1 5598:1 8303:1 8305:1 8306:1 8307:1 8309:1 8310:1 8314:1 8321:1 8323:1 8324:1 8325:1 8326:1 8327:1 8328:1 8329:1 8330:1 8331:1 8333:1 8334:1 8336:1 8340:1 8341:1 8345:1 8349:1 8351:1 8352:1 8357:1 8360:1 8369:1 8372:1 8375:1 8378:1 8381:1 8386:1 8387:1 8389:1 8392:1 8394:1 8396:1 8398:1 8399:1 8400:1 8402:1 8403:1 8410:1 8412:1 
10 1:1 2:1 3:1 4:1 8:1 10:1 12:1 13:1 15:1 16:1 17:1 18:1 20:1 24:1 30:1 34:1 38:1 42:1 74:1 77:1 79:1 105:1 122:1 147:1 180:1 287:1 336:1 413:1 428:1 571:1 619:1 690:1 699:1 821:1 1088:1 1235:1 1416:1 1442:1 1765:1 1981:1 2034:1 2221:1 2310:1 2375:1 2386:1 2785:1 2959:1 4431:1 4432:1 4433:1 4982:1 5585:1 5589:1 5590:1 5591:1 5593:1 5594:1 5596:1 5597:1 5598:1 8303:1 8305:1 8306:1 8307:1 8309:1 8310:1 8314:1 8321:1 8323:1 8324:1 8325:1 8326:1 8327:1 8328:1 8329:1 8330:1 8331:1 8333:1 8334:1 8336:1 8340:1 8341:1 8345:1 8349:1 8351:1 8352:1 8357:1 8360:1 8369:1 8372:1 8375:1 8378:1 8381:1 8386:1 8387:1 8389:1 8392:1 8394:1 8396:1 8398:1 8399:1 8400:1 8402:1 8403:1 8410:1 8412:1 
9.4997713499606675 1:1 2:1 3:1 4:1 5:1 6:1 7:1 8:1 11:1 12:1 13:1 15:1 18:1 37:1 39:1 42:1 43:1 44:1 52:1 58:1 67:1 68:1 74:1 77:1 95:1 120:1 122:1 142:1 180:1 186:1 212:1 242:1 255:1 346:1 578:1 630:1 699:1 1219:1 2785:1 5599:1 5600:1 5601:1 8419:1 8420:1 8421:1 14991:1 
10 1:1 2:1 3:1 4:1 5:1 6:1 7:1 8:1 11:1 13:1 15:1 18:1 20:1 37:1 39:1 42:1 43:1 44:1 52:1 58:1 67:1 74:1 77:1 142:1 180:1 186:1 201:1 212:1 346:1 578:1 630:1 699:1 1219:1 2785:1 5599:1 5600:1 5601:1 8419:1 8420:1 8421:1 14826:1 
10 1:1 2:1 3:1 4:1 6:1 7:1 8:1 12:1 13:1 14:1 15:1 16:1 18:1 20:1 21:1 32:1 33:1 38:1 39:1 54:1 56:1 60:1 74:1 77:1 80:1 82:1 90:1 95:1 103:1 104:1 108:1 109:1 120:1 121:1 137:1 139:1 149:1 151:1 166:1 172:1 197:1 201:1 215:1 246:1 335:1 351:1 363:1 408:1 433:1 439:1 467:1 491:1 495:1 526:1 561:1 697:1 791:1 792:1 800:1 887:1 1001:1 1161:1 1269:1 1497:1 1801:1 2219:1 2223:1 2371:1 2785:1 2892:1 2959:1 6641:1 14828:1 
10 1:1 3:1 4:1 8:1 11:1 13:1 14:1 15:1 18:1 20:1 34:1 36:1 42:1 43:1 44:1 55:1 56:1 64:1 74:1 77:1 84:1 95:1 120:1 122:1 132:1 135:1 180:1 186:1 242:1 271:1 277:1 315:1 374:1 619:1 838:1 853:1 2785:1 2959:1 6738:1 8565:1 
10 1:1 2:1 3:1 4:1 7:1 8:1 10:1 11:1 12:1 13:1 14:1 15:1 18:1 19:1 20:1 21:1 30:1 32:1 54:1 63:1 71:1 74:1 77:1 79:1 84:1 88:1 95:1 117:1 120:1 121:1 139:1 180:1 193:1 201:1 215:1 227:1 233:1 242:1 255:1 275:1 312:1 699:1 999:1 1069:1 1475:1 1564:1 2664:1 2785:1 3089:1 4492:1 5657:1 8566:1 8567:1 
10 1:1 3:1 4:1 6:1 8:1 11:1 13:1 15:1 16:1 18:1 20:1 21:1 26:1 28:1 29:1 34:1 47:1 65:1 66:1 68:1 74:1 77:1 90:1 95:1 97:1 119:1 121:1 122:1 156:1 297:1 401:1 590:1 699:1 1906:1 2785:1 3789:1 14860:1 14861:1 14863:1 14864:1 14990:1 
10 1:1 2:1 3:1 4:1 5:1 6:1 7:1 8:1 10:1 12:1 13:1 14:1 15:1 16:1 17:1 18:1 21:1 23:1 24:1 25:1 26:1 28:1 30:1 32:1 33:1 34:1 36:1 38:1 39:1 43:1 44:1 50:1 55:1 66:1 68:1 71:1 74:1 77:1 78:1 96:1 102:1 119:1 128:1 131:1 145:1 146:1 151:1 152:1 155:1 156:1 159:1 169:1 195:1 215:1 275:1 295:1 338:1 356:1 431:1 453:1 459:1 699:1 948:1 2785:1 4093:1 5502:1 6740:1 6742:1 
1.5341771332977421 1:1 2:1 3:1 4:1 5:1 7:1 8:1 10:1 11:1 12:1 13:1 14:1 15:1 16:1 17:1 18:1 21:1 23:1 24:1 25:1 26:1 28:1 30:1 36:1 37:1 43:1 44:1 45:1 58:1 61:1 67:1 68:1 74:1 77:1 79:1 80:1 95:1 120:1 122:1 131:1 132:1 139:1 141:1 188:1 201:1 227:1 242:1 255:1 269:1 286:1 295:1 346:1 352:1 411:1 462:1 623:1 699:1 907:1 943:1 1156:1 1242:1 1266:1 1808:1 2391:1 2762:1 2785:1 3247:1 3507:1 5009:1 5010:1 5502:1 6744:1 6745:1 14869:1 14873:1 14874:1 14876:1 14877:1 14878:1 14879:1 14880:1 14881:1 14882:1 14883:1 14884:1 14885:1 
10 1:1 2:1 3:1 4:1 5:1 6:1 7:1 8:1 10:1 11:1 12:1 13:1 14:1 15:1 16:1 17:1 18:1 19:1 20:1 21:1 23:1 25:1 26:1 27:1 28:1 29:1 30:1 33:1 34:1 36:1 38:1 48:1 55:1 64:1 66:1 71:1 74:1 77:1 83:1 87:1 88:1 89:1 90:1 92:1 94:1 95:1 106:1 112:1 116:1 117:1 121:1 122:1 125:1 130:1 138:1 140:1 154:1 159:1 162:1 163:1 168:1 175:1 177:1 202:1 204:1 235:1 250:1 253:1 268:1 295:1 310:1 312:1 315:1 328:1 339:1 341:1 348:1 349:1 407:1 420:1 422:1 439:1 453:1 459:1 480:1 504:1 525:1 590:1 609:1 645:1 652:1 688:1 690:1 699:1 701:1 727:1 757:1 761:1 769:1 776:1 952:1 1001:1 1269:1 1345:1 1392:1 1441:1 1565:1 1947:1 2244:1 2463:1 2539:1 2785:1 4331:1 5011:1 5661:1 5662:1 14886:1 
10 1:1 2:1 3:1 4:1 5:1 6:1 7:1 8:1 10:1 13:1 14:1 15:1 16:1 17:1 18:1 21:1 23:1 24:1 25:1 26:1 28:1 30:1 32:1 33:1 34:1 36:1 38:1 39:1 43:1 44:1 50:1 55:1 66:1 68:1 71:1 74:1 77:1 78:1 96:1 102:1 119:1 128:1 131:1 145:1 146:1 151:1 152:1 155:1 156:1 159:1 169:1 195:1 215:1 275:1 295:1 338:1 356:1 431:1 453:1 459:1 615:1 699:1 948:1 2785:1 4093:1 6740:1 6742:1 14888:1 
10 1:1 2:1 3:1 4:1 5:1 6:1 7:1 8:1 10:1 11:1 12:1 13:1 14:1 15:1 16:1 17:1 18:1 19:1 20:1 21:1 23:1 25:1 26:1 27:1 28:1 29:1 30:1 33:1 34:1 36:1 38:1 48:1 55:1 64:1 66:1 74:1 77:1 79:1 83:1 87:1 88:1 89:1 90:1 92:1 94:1 95:1 106:1 112:1 116:1 117:1 121:1 122:1 125:1 130:1 138:1 140:1 154:1 159:1 162:1 163:1 168:1 175:1 177:1 202:1 204:1 235:1 250:1 253:1 268:1 295:1 310:1 312:1 315:1 328:1 339:1 341:1 348:1 349:1 407:1 420:1 422:1 439:1 453:1 459:1 480:1 504:1 525:1 590:1 609:1 645:1 652:1 688:1 690:1 699:1 701:1 727:1 757:1 761:1 769:1 776:1 952:1 1001:1 1269:1 1345:1 1392:1 1441:1 1565:1 1947:1 2244:1 2463:1 2539:1 2785:1 4331:1 5011:1 5661:1 5662:1 8578:1 14889:1 
2.2925698012054032 1:1 2:1 3:1 4:1 5:1 6:1 7:1 8:1 10:1 11:1 12:1 13:1 14:1 15:1 16:1 17:1 18:1 19:1 20:1 21:1 23:1 25:1 26:1 27:1 28:1 29:1 30:1 33:1 34:1 36:1 38:1 48:1 55:1 64:1 66:1 68:1 74:1 77:1 79:1 83:1 87:1 88:1 89:1 92:1 94:1 106:1 112:1 116:1 117:1 121:1 122:1 125:1 130:1 138:1 140:1 154:1 159:1 162:1 163:1 168:1 175:1 177:1 202:1 204:1 235:1 250:1 253:1 268:1 295:1 310:1 312:1 315:1 328:1 339:1 341:1 348:1 349:1 407:1 420:1 422:1 453:1 459:1 480:1 504:1 525:1 590:1 609:1 645:1 652:1 688:1 690:1 699:1 701:1 727:1 757:1 761:1 769:1 776:1 952:1 1001:1 1269:1 1345:1 1392:1 1441:1 1488:1 1565:1 1623:1 1947:1 2244:1 2463:1 2539:1 2785:1 2959:1 4331:1 5011:1 5661:1 5662:1 8561:1 
10 1:1 2:1 3:1 4:1 5:1 6:1 7:1 8:1 10:1 12:1 13:1 15:1 16:1 17:1 18:1 20:1 21:1 25:1 26:1 27:1 29:1 30:1 31:1 32:1 38:1 44:1 50:1 52:1 60:1 63:1 64:1 68:1 74:1 77:1 80:1 83:1 87:1 95:1 104:1 106:1 108:1 109:1 112:1 116:1 118:1 120:1 121:1 122:1 125:1 126:1 135:1 137:1 140:1 141:1 147:1 152:1 165:1 206:1 210:1 215:1 231:1 242:1 255:1 266:1 353:1 467:1 486:1 646:1 899:1 1259:1 1262:1 1265:1 2000:1 2785:1 2959:1 22012:1 
10 1:1 2:1 3:1 4:1 5:1 6:1 7:1 8:1 10:1 12:1 13:1 14:1 15:1 16:1 17:1 18:1 19:1 20:1 21:1 28:1 29:1 31:1 32:1 38:1 39:1 42:1 47:1 50:1 52:1 63:1 68:1 69:1 74:1 77:1 79:1 80:1 84:1 87:1 88:1 92:1 126:1 128:1 131:1 132:1 133:1 175:1 221:1 226:1 233:1 235:1 254:1 264:1 283:1 287:1 370:1 553:1 623:1 699:1 921:1 989:1 2785:1 3251:1 3509:1 5016:1 14905:1 
10 1:1 2:1 3:1 4:1 5:1 6:1 7:1 8:1 10:1 11:1 12:1 13:1 14:1 15:1 16:1 17:1 18:1 19:1 20:1 21:1 23:1 24:1 25:1 27:1 29:1 32:1 34:1 37:1 39:1 42:1 43:1 44:1 45:1 52:1 55:1 58:1 60:1 63:1 74:1 77:1 80:1 92:1 94:1 100:1 104:1 105:1 108:1 109:1 117:1 118:1 123:1 125:1 131:1 155:1 160:1 163:1 164:1 165:1 187:1 226:1 227:1 266:1 282:1 292:1 321:1 324:1 339:1 349:1 399:1 407:1 409:1 453:1 467:1 507:1 538:1 541:1 599:1 660:1 673:1 689:1 794:1 900:1 909:1 961:1 1015:1 1343:1 1436:1 1550:1 1636:1 1640:1 1717:1 1758:1 1810:1 2002:1 2053:1 2170:1 2249:1 2475:1 2476:1 2577:1 2579:1 2640:1 2785:1 2789:1 2797:1 2798:1 2799:1 2928:1 2959:1 3068:1 3101:1 3202:1 3207:1 3255:1 3256:1 3257:1 3258:1 3261:1 3515:1 3516:1 3518:1 3519:1 3740:1 4102:1 4103:1 4105:1 4107:1 4108:1 4109:1 4110:1 4111:1 4471:1 8262:1 8568:1 8619:1 14950:1 14951:1 
10 1:1 2:1 3:1 4:1 5:1 6:1 7:1 8:1 10:1 11:1 12:1 13:1 15:1 16:1 18:1 24:1 25:1 28:1 32:1 34:1 36:1 38:1 44:1 55:1 65:1 68:1 71:1 74:1 95:1 120:1 122:1 124:1 139:1 145:1 156:1 201:1 210:1 215:1 217:1 227:1 242:1 255:1 321:1 332:1 573:1 699:1 905:1 970:1 979:1 1236:1 1412:1 1488:1 1568:1 1623:1 1867:1 2785:1 2959:1 5031:1 6806:1 
10 1:1 2:1 3:1 4:1 5:1 6:1 8:1 11:1 13:1 15:1 16:1 17:1 18:1 19:1 20:1 21:1 23:1 26:1 27:1 28:1 30:1 31:1 39:1 40:1 42:1 45:1 50:1 54:1 55:1 60:1 61:1 63:1 66:1 71:1 74:1 79:1 82:1 84:1 95:1 102:1 105:1 117:1 122:1 138:1 160:1 188:1 222:1 250:1 332:1 352:1 370:1 434:1 439:1 699:1 701:1 739:1 1602:1 2055:1 2785:1 2959:1 3526:1 4385:1 6811:1 6812:1 6813:1 15056:1 15057:1 15058:1 28307:1 
10 1:1 2:1 3:1 4:1 5:1 6:1 7:1 8:1 10:1 12:1 14:1 15:1 16:1 17:1 18:1 19:1 20:1 21:1 23:1 24:1 25:1 26:1 27:1 29:1 30:1 37:1 40:1 43:1 45:1 60:1 64:1 68:1 74:1 79:1 83:1 95:1 100:1 120:1 122:1 125:1 126:1 138:1 142:1 144:1 160:1 163:1 165:1 166:1 179:1 218:1 220:1 242:1 255:1 257:1 262:1 310:1 314:1 420:1 427:1 430:1 451:1 543:1 590:1 606:1 645:1 680:1 689:1 699:1 751:1 771:1 799:1 818:1 827:1 941:1 1031:1 1173:1 1403:1 1519:1 1563:1 1606:1 1979:1 2244:1 2481:1 2785:1 2808:1 2894:1 3111:1 3272:1 3496:1 4123:1 4490:1 4993:1 5692:1 6809:1 6816:1 8666:1 8667:1 15074:1 15076:1 15078:1 15081:1 19922:1 28329:1 
10 1:1 2:1 3:1 4:1 5:1 6:1 7:1 8:1 10:1 12:1 14:1 15:1 16:1 17:1 18:1 20:1 21:1 23:1 24:1 25:1 26:1 27:1 29:1 30:1 40:1 45:1 60:1 64:1 74:1 79:1 83:1 95:1 105:1 113:1 120:1 122:1 125:1 137:1 138:1 142:1 144:1 160:1 163:1 165:1 166:1 169:1 179:1 218:1 220:1 242:1 255:1 257:1 262:1 310:1 314:1 370:1 420:1 427:1 430:1 439:1 451:1 543:1 590:1 606:1 645:1 680:1 689:1 699:1 771:1 799:1 818:1 1031:1 1173:1 1341:1 1563:1 1606:1 1979:1 2244:1 2785:1 2808:1 2894:1 3272:1 4490:1 5692:1 8666:1 
10 1:1 3:1 4:1 5:1 6:1 8:1 10:1 11:1 12:1 13:1 15:1 18:1 20:1 21:1 25:1 32:1 34:1 38:1 39:1 40:1 42:1 44:1 50:1 60:1 66:1 68:1 74:1 77:1 80:1 88:1 95:1 104:1 108:1 109:1 114:1 115:1 117:1 119:1 120:1 121:1 122:1 137:1 139:1 154:1 242:1 249:1 255:1 257:1 266:1 280:1 353:1 467:1 582:1 847:1 1059:1 1976:1 2036:1 2785:1 2899:1 2959:1 3529:1 4399:1 4492:1 5506:1 5507:1 5508:1 5509:1 5510:1 5511:1 5512:1 6818:1 15090:1 15091:1 
10 1:1 3:1 4:1 8:1 10:1 11:1 12:1 13:1 14:1 15:1 16:1 17:1 18:1 60:1 67:1 68:1 74:1 80:1 121:1 137:1 201:1 212:1 227:1 286:1 292:1 432:1 454:1 528:1 699:1 754:1 2368:1 2672:1 2785:1 8678:1 15123:1 15124:1 15128:1 15129:1 15130:1 15131:1 15133:1 15135:1 15136:1 15137:1 15138:1 15139:1 15140:1 15141:1 15142:1 15143:1 15144:1 15145:1 15146:1 15147:1 15148:1 15150:1 15151:1 15153:1 15154:1 15156:1 15157:1 15158:1 15159:1 15160:1 15163:1 15164:1 15166:1 15167:1 15168:1 15169:1 15171:1 15172:1 15173:1 15174:1 15175:1 15176:1 15177:1 15179:1 15180:1 15182:1 15183:1 15185:1 15186:1 15187:1 15188:1 15190:1 15191:1 15192:1 15193:1 15194:1 15196:1 15199:1 15200:1 15202:1 15203:1 15205:1 15206:1 15207:1 15208:1 15209:1 15211:1 15212:1 15213:1 15215:1 15216:1 15217:1 15218:1 15219:1 15220:1 15221:1 15223:1 15224:1 15225:1 15226:1 15228:1 15230:1 15232:1 15233:1 15234:1 15235:1 15236:1 15239:1 15242:1 15243:1 15244:1 15246:1 15249:1 15251:1 15252:1 15253:1 15254:1 15256:1 15257:1 15258:1 15259:1 15261:1 15262:1 15263:1 15266:1 15267:1 15268:1 15269:1 15270:1 15271:1 15272:1 15273:1 15274:1 15276:1 15278:1 15279:1 15280:1 15281:1 15282:1 15283:1 15284:1 15285:1 15286:1 15287:1 15288:1 15289:1 15291:1 15294:1 15295:1 15297:1 15298:1 15299:1 15300:1 15301:1 15302:1 15305:1 15306:1 15307:1 15308:1 15309:1 15310:1 15311:1 15312:1 15313:1 15314:1 15315:1 15316:1 15318:1 15319:1 15320:1 15321:1 15322:1 15323:1 15325:1 15326:1 15328:1 15329:1 15330:1 15331:1 15332:1 15333:1 15334:1 15335:1 15336:1 15338:1 15339:1 15340:1 15341:1 15342:1 15343:1 15344:1 15345:1 15346:1 15348:1 
10 1:1 2:1 3:1 4:1 5:1 6:1 7:1 8:1 10:1 11:1 12:1 13:1 14:1 15:1 16:1 17:1 18:1 19:1 20:1 21:1 23:1 24:1 26:1 27:1 30:1 31:1 36:1 38:1 47:1 52:1 56:1 58:1 60:1 63:1 66:1 67:1 74:1 80:1 83:1 85:1 87:1 88:1 89:1 94:1 105:1 106:1 112:1 119:1 125:1 129:1 152:1 154:1 160:1 162:1 188:1 210:1 217:1 227:1 245:1 249:1 250:1 251:1 255:1 257:1 264:1 271:1 310:1 380:1 452:1 496:1 553:1 601:1 602:1 618:1 699:1 715:1 868:1 966:1 983:1 1009:1 1107:1 1219:1 1232:1 1493:1 2785:1 3757:1 6375:1 8680:1 28329:1 
10 1:1 2:1 3:1 4:1 5:1 8:1 12:1 13:1 15:1 18:1 20:1 21:1 39:1 43:1 44:1 60:1 68:1 74:1 77:1 80:1 84:1 89:1 96:1 100:1 104:1 108:1 109:1 115:1 151:1 204:1 266:1 328:1 353:1 467:1 1106:1 1179:1 1349:1 1397:1 1564:1 1602:1 2239:1 2318:1 2785:1 3474:1 
10 1:1 3:1 4:1 8:1 11:1 12:1 13:1 14:1 15:1 18:1 20:1 28:1 34:1 36:1 42:1 43:1 44:1 55:1 56:1 64:1 65:1 68:1 74:1 84:1 122:1 132:1 135:1 315:1 318:1 699:1 838:1 853:1 2785:1 2959:1 3114:1 6738:1 8565:1 
10 1:1 2:1 3:1 4:1 5:1 6:1 8:1 11:1 13:1 15:1 16:1 17:1 18:1 19:1 21:1 23:1 26:1 27:1 30:1 31:1 39:1 40:1 42:1 45:1 54:1 55:1 60:1 61:1 63:1 66:1 68:1 74:1 82:1 84:1 102:1 105:1 115:1 117:1 122:1 138:1 160:1 188:1 222:1 250:1 332:1 352:1 370:1 699:1 701:1 739:1 1602:1 2055:1 2785:1 4385:1 6811:1 6812:1 6813:1 
10 1:1 2:1 3:1 4:1 5:1 6:1 8:1 11:1 13:1 15:1 16:1 17:1 18:1 19:1 21:1 23:1 26:1 27:1 30:1 31:1 39:1 40:1 42:1 45:1 54:1 55:1 60:1 61:1 63:1 66:1 68:1 74:1 82:1 84:1 102:1 105:1 115:1 117:1 122:1 138:1 160:1 188:1 222:1 250:1 287:1 332:1 352:1 370:1 699:1 701:1 739:1 1602:1 1868:1 2055:1 2785:1 3110:1 4385:1 6811:1 6812:1 6813:1 
10 1:1 2:1 3:1 4:1 5:1 6:1 7:1 8:1 10:1 11:1 12:1 13:1 15:1 16:1 18:1 20:1 24:1 25:1 32:1 34:1 36:1 38:1 44:1 50:1 55:1 60:1 68:1 74:1 95:1 120:1 122:1 124:1 139:1 143:1 145:1 156:1 159:1 186:1 201:1 210:1 215:1 217:1 242:1 255:1 321:1 332:1 573:1 580:1 699:1 721:1 905:1 970:1 979:1 1236:1 1412:1 1568:1 1867:1 2785:1 2901:1 2959:1 3209:1 4128:1 5031:1 5702:1 6806:1 
10 1:1 2:1 3:1 4:1 6:1 7:1 8:1 10:1 11:1 12:1 13:1 14:1 15:1 16:1 18:1 20:1 32:1 34:1 38:1 39:1 54:1 56:1 60:1 74:1 77:1 80:1 82:1 95:1 103:1 104:1 108:1 109:1 114:1 115:1 120:1 121:1 137:1 139:1 172:1 179:1 215:1 246:1 266:1 335:1 351:1 353:1 363:1 408:1 439:1 467:1 593:1 784:1 791:1 792:1 800:1 1497:1 1801:1 2154:1 2219:1 2223:1 2371:1 2764:1 2785:1 2959:1 3751:1 15380:1 
10 1:1 2:1 3:1 4:1 5:1 6:1 7:1 8:1 10:1 12:1 13:1 14:1 15:1 16:1 17:1 18:1 19:1 20:1 21:1 24:1 27:1 32:1 36:1 39:1 42:1 43:1 44:1 60:1 74:1 77:1 92:1 100:1 103:1 104:1 108:1 109:1 115:1 124:1 131:1 132:1 154:1 187:1 221:1 227:1 264:1 266:1 269:1 282:1 292:1 321:1 324:1 339:1 349:1 409:1 467:1 542:1 1392:1 1643:1 1810:1 1910:1 2052:1 2177:1 2476:1 2579:1 2785:1 2959:1 4399:1 6838:1 15412:1 
10 1:1 2:1 3:1 4:1 5:1 6:1 7:1 8:1 10:1 11:1 12:1 13:1 15:1 16:1 18:1 24:1 25:1 32:1 34:1 36:1 38:1 44:1 55:1 60:1 65:1 68:1 74:1 95:1 120:1 122:1 124:1 139:1 145:1 156:1 210:1 215:1 217:1 227:1 242:1 255:1 321:1 332:1 573:1 699:1 905:1 970:1 979:1 1236:1 1412:1 1568:1 1867:1 2785:1 5031:1 6806:1 
10 1:1 2:1 3:1 4:1 7:1 8:1 10:1 11:1 12:1 13:1 14:1 15:1 18:1 19:1 20:1 21:1 30:1 32:1 33:1 54:1 60:1 63:1 68:1 74:1 79:1 84:1 88:1 117:1 120:1 121:1 139:1 184:1 193:1 215:1 227:1 233:1 275:1 312:1 679:1 699:1 999:1 1069:1 1475:1 1564:1 2293:1 2664:1 2785:1 2959:1 3089:1 3246:1 5657:1 8566:1 8567:1 15438:1 
10 1:1 3:1 4:1 6:1 7:1 8:1 11:1 12:1 13:1 14:1 15:1 16:1 17:1 18:1 20:1 27:1 31:1 32:1 34:1 39:1 45:1 50:1 60:1 74:1 77:1 84:1 92:1 104:1 108:1 109:1 115:1 116:1 121:1 124:1 132:1 137:1 146:1 155:1 165:1 175:1 213:1 233:1 265:1 266:1 312:1 353:1 370:1 424:1 460:1 467:1 549:1 551:1 670:1 745:1 1033:1 1707:1 2785:1 
10 1:1 2:1 3:1 4:1 6:1 7:1 8:1 11:1 12:1 14:1 15:1 18:1 20:1 67:1 88:1 90:1 95:1 121:1 137:1 186:1 314:1 396:1 615:1 734:1 791:1 792:1 1700:1 2785:1 6861:1 6862:1 8712:1 15469:1 15471:1 15472:1 
10 1:1 3:1 4:1 5:1 6:1 7:1 8:1 10:1 11:1 12:1 13:1 15:1 16:1 18:1 20:1 21:1 23:1 25:1 26:1 27:1 28:1 30:1 31:1 32:1 36:1 42:1 54:1 61:1 64:1 65:1 68:1 69:1 71:1 74:1 77:1 87:1 92:1 95:1 104:1 108:1 109:1 112:1 118:1 119:1 120:1 121:1 122:1 137:1 149:1 163:1 169:1 188:1 197:1 200:1 201:1 219:1 222:1 242:1 269:1 271:1 278:1 283:1 292:1 408:1 413:1 434:1 486:1 495:1 708:1 716:1 853:1 872:1 873:1 1395:1 1514:1 1699:1 1709:1 1942:1 2593:1 2785:1 4136:1 5699:1 15473:1 
10 1:1 3:1 4:1 5:1 6:1 7:1 8:1 10:1 11:1 12:1 13:1 15:1 16:1 18:1 20:1 21:1 23:1 25:1 26:1 27:1 28:1 30:1 31:1 32:1 36:1 42:1 54:1 61:1 64:1 68:1 69:1 71:1 74:1 77:1 87:1 92:1 95:1 104:1 108:1 109:1 112:1 118:1 119:1 120:1 121:1 122:1 137:1 149:1 163:1 169:1 188:1 197:1 200:1 201:1 219:1 222:1 242:1 255:1 269:1 278:1 283:1 292:1 408:1 413:1 434:1 486:1 495:1 708:1 716:1 853:1 872:1 873:1 1395:1 1514:1 1699:1 1942:1 2593:1 2785:1 4136:1 15480:1 
10 1:1 3:1 4:1 5:1 6:1 7:1 8:1 10:1 11:1 12:1 13:1 15:1 16:1 18:1 20:1 21:1 23:1 25:1 26:1 27:1 30:1 31:1 32:1 36:1 42:1 54:1 60:1 61:1 64:1 68:1 69:1 73:1 74:1 77:1 80:1 87:1 92:1 95:1 104:1 108:1 109:1 112:1 118:1 119:1 120:1 121:1 122:1 137:1 149:1 163:1 169:1 188:1 197:1 200:1 201:1 219:1 222:1 242:1 255:1 269:1 278:1 283:1 292:1 408:1 413:1 434:1 486:1 495:1 708:1 716:1 853:1 872:1 873:1 1395:1 1514:1 1518:1 1699:1 1942:1 2593:1 2785:1 4136:1 6863:1 
10 1:1 3:1 4:1 5:1 6:1 7:1 8:1 10:1 11:1 12:1 13:1 15:1 16:1 18:1 20:1 21:1 23:1 25:1 26:1 27:1 28:1 30:1 31:1 32:1 36:1 42:1 54:1 60:1 61:1 64:1 68:1 69:1 73:1 74:1 77:1 79:1 80:1 87:1 92:1 95:1 104:1 108:1 109:1 112:1 118:1 119:1 120:1 121:1 122:1 137:1 149:1 163:1 169:1 188:1 197:1 200:1 201:1 219:1 222:1 242:1 269:1 271:1 278:1 283:1 292:1 408:1 413:1 434:1 486:1 495:1 708:1 716:1 853:1 872:1 873:1 1395:1 1514:1 1699:1 1709:1 1942:1 2593:1 2785:1 4136:1 15512:1 
10 1:1 2:1 3:1 4:1 5:1 6:1 7:1 8:1 10:1 11:1 12:1 13:1 14:1 15:1 16:1 17:1 18:1 19:1 20:1 21:1 25:1 26:1 27:1 29:1 30:1 31:1 34:1 36:1 38:1 44:1 45:1 47:1 50:1 52:1 56:1 63:1 64:1 68:1 69:1 74:1 83:1 89:1 90:1 96:1 121:1 131:1 141:1 143:1 145:1 151:1 160:1 171:1 206:1 221:1 227:1 229:1 231:1 235:1 250:1 255:1 262:1 274:1 284:1 315:1 408:1 421:1 433:1 615:1 620:1 699:1 734:1 739:1 1043:1 1220:1 1238:1 1329:1 1549:1 1700:1 1943:1 2785:1 4141:1 15518:1 
10 1:1 4:1 6:1 8:1 12:1 13:1 15:1 17:1 18:1 20:1 25:1 30:1 38:1 47:1 55:1 58:1 68:1 69:1 73:1 79:1 83:1 84:1 90:1 95:1 97:1 100:1 124:1 132:1 146:1 169:1 180:1 199:1 297:1 346:1 570:1 630:1 956:1 2785:1 2959:1 4142:1 6865:1 15522:1 15524:1 
10 1:1 2:1 3:1 4:1 5:1 6:1 7:1 8:1 10:1 11:1 12:1 13:1 14:1 15:1 16:1 17:1 18:1 19:1 20:1 21:1 23:1 24:1 25:1 26:1 27:1 29:1 30:1 31:1 33:1 34:1 36:1 38:1 40:1 42:1 45:1 47:1 48:1 50:1 55:1 63:1 65:1 67:1 69:1 78:1 83:1 85:1 88:1 90:1 94:1 97:1 116:1 117:1 119:1 120:1 125:1 128:1 129:1 131:1 137:1 138:1 141:1 142:1 143:1 151:1 152:1 155:1 158:1 164:1 167:1 171:1 172:1 190:1 193:1 195:1 202:1 212:1 214:1 219:1 222:1 224:1 227:1 260:1 262:1 269:1 279:1 280:1 292:1 295:1 298:1 302:1 315:1 341:1 352:1 353:1 355:1 369:1 376:1 399:1 400:1 409:1 410:1 411:1 424:1 427:1 432:1 465:1 480:1 481:1 500:1 525:1 536:1 565:1 572:1 576:1 577:1 590:1 615:1 646:1 717:1 734:1 760:1 769:1 955:1 972:1 1050:1 1081:1 1110:1 1125:1 1204:1 1655:1 1700:1 1775:1 1776:1 1803:1 1838:1 1860:1 1937:1 2177:1 2291:1 2437:1 2785:1 2959:1 3120:1 3506:1 3797:1 4331:1 8568:1 8720:1 8861:1 8888:1 15539:1 15542:1 15543:1 15544:1 15549:1 15550:1 15551:1 15552:1 15553:1 15554:1 15555:1 15556:1 
10 1:1 2:1 3:1 4:1 5:1 6:1 8:1 10:1 11:1 12:1 13:1 14:1 15:1 16:1 17:1 18:1 19:1 20:1 21:1 23:1 24:1 25:1 26:1 27:1 29:1 30:1 33:1 34:1 36:1 38:1 39:1 45:1 50:1 52:1 54:1 55:1 60:1 61:1 63:1 69:1 74:1 77:1 78:1 82:1 84:1 88:1 92:1 102:1 104:1 106:1 108:1 109:1 110:1 112:1 114:1 115:1 117:1 122:1 125:1 131:1 138:1 144:1 145:1 151:1 157:1 158:1 168:1 171:1 177:1 187:1 192:1 193:1 194:1 204:1 217:1 218:1 222:1 224:1 229:1 246:1 251:1 266:1 269:1 271:1 283:1 289:1 292:1 295:1 298:1 303:1 312:1 321:1 328:1 341:1 349:1 351:1 353:1 385:1 423:1 437:1 451:1 467:1 473:1 507:1 517:1 525:1 527:1 608:1 667:1 672:1 676:1 701:1 748:1 807:1 818:1 890:1 918:1 934:1 995:1 1023:1 1131:1 1174:1 1225:1 1267:1 1305:1 1322:1 1549:1 1640:1 1689:1 1804:1 2007:1 2456:1 2785:1 2934:1 3473:1 4410:1 4507:1 4962:1 4963:1 5026:1 5528:1 5704:1 6653:1 6656:1 6657:1 6659:1 15558:1 15559:1 
10 1:1 4:1 8:1 15:1 18:1 20:1 68:1 71:1 90:1 95:1 100:1 120:1 122:1 199:1 242:1 255:1 615:1 734:1 1428:1 1700:1 2785:1 15602:1 15603:1 15605:1 15606:1 15607:1 15608:1 15609:1 15611:1 15613:1 15614:1 15615:1 15616:1 15619:1 15620:1 15621:1 15622:1 15623:1 15624:1 15625:1 15627:1 15628:1 15629:1 15631:1 15634:1 15635:1 15636:1 15638:1 15639:1 15640:1 15641:1 15642:1 15644:1 15648:1 15650:1 15651:1 15652:1 15653:1 15654:1 15655:1 15656:1 15657:1 15658:1 15661:1 
10 1:1 2:1 3:1 4:1 5:1 6:1 7:1 8:1 10:1 11:1 13:1 14:1 15:1 16:1 17:1 18:1 20:1 21:1 23:1 24:1 26:1 27:1 29:1 30:1 32:1 33:1 34:1 36:1 38:1 40:1 42:1 43:1 45:1 48:1 50:1 54:1 55:1 58:1 63:1 67:1 78:1 79:1 84:1 85:1 94:1 96:1 112:1 114:1 117:1 121:1 125:1 126:1 127:1 130:1 137:1 138:1 140:1 145:1 146:1 155:1 157:1 159:1 165:1 168:1 169:1 187:1 193:1 195:1 206:1 210:1 218:1 221:1 228:1 229:1 238:1 249:1 250:1 257:1 310:1 314:1 315:1 324:1 352:1 370:1 397:1 400:1 402:1 410:1 411:1 419:1 420:1 425:1 428:1 443:1 446:1 459:1 468:1 480:1 481:1 534:1 572:1 586:1 598:1 608:1 614:1 615:1 623:1 636:1 638:1 660:1 707:1 734:1 819:1 892:1 948:1 952:1 962:1 982:1 1080:1 1180:1 1469:1 1700:1 1714:1 1947:1 2008:1 2126:1 2257:1 2482:1 2757:1 2785:1 2817:1 2888:1 3745:1 3825:1 3826:1 4087:1 4145:1 5052:1 6874:1 6875:1 8740:1 8741:1 8888:1 15663:1 15664:1 15666:1 15668:1 
10 1:1 2:1 3:1 4:1 5:1 6:1 7:1 8:1 10:1 11:1 12:1 15:1 16:1 17:1 18:1 19:1 20:1 21:1 27:1 29:1 30:1 38:1 45:1 54:1 63:1 64:1 68:1 71:1 79:1 90:1 94:1 96:1 97:1 102:1 116:1 120:1 137:1 151:1 152:1 157:1 168:1 171:1 198:1 201:1 221:1 250:1 312:1 363:1 423:1 528:1 615:1 725:1 734:1 875:1 1124:1 1132:1 1213:1 1273:1 1508:1 1509:1 1628:1 2158:1 2761:1 2785:1 2818:1 2959:1 3536:1 4146:1 5044:1 5053:1 5719:1 5720:1 8742:1 8743:1 
10 1:1 2:1 3:1 4:1 5:1 6:1 7:1 8:1 10:1 11:1 12:1 13:1 14:1 15:1 16:1 17:1 18:1 19:1 20:1 21:1 26:1 27:1 30:1 45:1 54:1 55:1 64:1 65:1 68:1 88:1 89:1 90:1 94:1 112:1 134:1 137:1 199:1 201:1 204:1 218:1 222:1 227:1 275:1 279:1 298:1 334:1 363:1 392:1 427:1 449:1 563:1 589:1 613:1 615:1 618:1 620:1 690:1 734:1 777:1 798:1 1010:1 1081:1 1103:1 1273:1 2121:1 2785:1 3497:1 3737:1 3828:1 15700:1 15701:1 15702:1 15703:1 15704:1 
10 1:1 2:1 3:1 4:1 5:1 6:1 7:1 8:1 10:1 12:1 13:1 15:1 16:1 17:1 18:1 20:1 21:1 25:1 26:1 27:1 29:1 30:1 31:1 32:1 38:1 44:1 50:1 52:1 60:1 63:1 64:1 68:1 74:1 77:1 83:1 87:1 95:1 104:1 106:1 108:1 109:1 112:1 115:1 116:1 118:1 120:1 121:1 122:1 125:1 126:1 135:1 137:1 140:1 141:1 147:1 152:1 165:1 206:1 210:1 215:1 231:1 242:1 266:1 271:1 353:1 467:1 486:1 646:1 899:1 1259:1 1262:1 1265:1 2000:1 2785:1 2959:1 8765:1 15709:1 
10 1:1 2:1 3:1 4:1 5:1 6:1 7:1 8:1 10:1 12:1 14:1 15:1 16:1 17:1 18:1 19:1 20:1 24:1 25:1 29:1 30:1 31:1 32:1 33:1 39:1 44:1 45:1 50:1 52:1 56:1 58:1 61:1 80:1 83:1 87:1 89:1 90:1 94:1 105:1 113:1 120:1 125:1 134:1 137:1 140:1 154:1 155:1 172:1 215:1 222:1 224:1 229:1 249:1 253:1 268:1 275:1 284:1 384:1 510:1 615:1 734:1 746:1 771:1 1061:1 1254:1 1273:1 1344:1 2785:1 2823:1 2824:1 3087:1 8766:1 13221:1 
10 1:1 2:1 3:1 4:1 5:1 6:1 7:1 8:1 10:1 12:1 14:1 15:1 16:1 17:1 18:1 19:1 20:1 24:1 25:1 29:1 30:1 31:1 32:1 33:1 39:1 44:1 45:1 50:1 52:1 56:1 58:1 61:1 80:1 83:1 87:1 89:1 90:1 94:1 105:1 113:1 120:1 125:1 134:1 137:1 140:1 154:1 155:1 172:1 215:1 222:1 224:1 229:1 249:1 253:1 268:1 275:1 284:1 384:1 510:1 615:1 734:1 746:1 771:1 1061:1 1254:1 1273:1 1344:1 2785:1 2823:1 2824:1 3087:1 8766:1 13221:1 
10 1:1 4:1 5:1 7:1 8:1 10:1 12:1 13:1 14:1 15:1 16:1 17:1 18:1 19:1 20:1 27:1 29:1 32:1 37:1 38:1 52:1 56:1 58:1 66:1 68:1 74:1 90:1 92:1 95:1 100:1 103:1 115:1 120:1 122:1 137:1 138:1 144:1 165:1 177:1 195:1 197:1 201:1 210:1 232:1 242:1 255:1 376:1 432:1 454:1 464:1 495:1 526:1 598:1 615:1 634:1 636:1 708:1 716:1 734:1 751:1 764:1 1000:1 1044:1 1273:1 1726:1 1728:1 1935:1 2010:1 2181:1 2182:1 2258:1 2485:1 2550:1 2785:1 2799:1 2825:1 2826:1 2959:1 3111:1 3120:1 3478:1 3542:1 3766:1 3767:1 3823:1 3830:1 4139:1 4407:1 4515:1 5059:1 5060:1 5061:1 5063:1 5064:1 5065:1 5728:1 5730:1 5733:1 5734:1 6881:1 6883:1 6884:1 6885:1 8208:1 8769:1 8775:1 8776:1 15716:1 15717:1 15719:1 15724:1 15725:1 15726:1 15727:1 15728:1 15731:1 15732:1 15734:1 15735:1 15736:1 15737:1 15739:1 15741:1 15744:1 15746:1 15748:1 15749:1 15750:1 15751:1 15752:1 15753:1 15754:1 15755:1 15756:1 15757:1 15761:1 15762:1 15763:1 15764:1 15765:1 15766:1 15767:1 15768:1 15769:1 15770:1 15771:1 15772:1 15773:1 15774:1 15776:1 15777:1 15779:1 15780:1 15781:1 15782:1 15783:1 15784:1 15786:1 15787:1 15790:1 15791:1 15793:1 15794:1 15795:1 15796:1 15798:1 15799:1 15800:1 15801:1 15802:1 15804:1 15805:1 15806:1 15807:1 15808:1 15809:1 15810:1 15811:1 15812:1 15813:1 15814:1 15815:1 15816:1 15817:1 15818:1 15819:1 15820:1 15821:1 15822:1 15823:1 15824:1 15825:1 15827:1 15828:1 15829:1 15830:1 15831:1 15832:1 15833:1 15834:1 15835:1 15836:1 15837:1 15838:1 15839:1 15840:1 15842:1 15843:1 15844:1 15846:1 15849:1 15850:1 15851:1 15853:1 15854:1 15855:1 15856:1 15858:1 15861:1 15862:1 15863:1 15864:1 15865:1 15867:1 15868:1 15869:1 15870:1 15871:1 15872:1 15873:1 15874:1 15875:1 15876:1 15877:1 15878:1 15879:1 15880:1 15881:1 15882:1 15883:1 15886:1 15887:1 15889:1 15891:1 15892:1 15893:1 15894:1 15895:1 15896:1 15897:1 15901:1 15902:1 15903:1 15904:1 15905:1 15906:1 15907:1 15908:1 15909:1 17607:1 19919:1 
10 1:1 2:1 3:1 4:1 5:1 6:1 7:1 8:1 10:1 11:1 12:1 14:1 15:1 16:1 17:1 18:1 20:1 21:1 24:1 25:1 27:1 30:1 32:1 33:1 34:1 38:1 39:1 42:1 44:1 50:1 52:1 56:1 58:1 66:1 82:1 83:1 89:1 90:1 102:1 105:1 112:1 115:1 117:1 119:1 120:1 125:1 131:1 134:1 137:1 139:1 146:1 151:1 154:1 155:1 157:1 160:1 165:1 171:1 198:1 210:1 211:1 212:1 214:1 217:1 233:1 250:1 275:1 278:1 283:1 338:1 339:1 349:1 407:1 413:1 443:1 483:1 509:1 539:1 542:1 570:1 586:1 614:1 615:1 652:1 673:1 734:1 790:1 915:1 957:1 1009:1 1021:1 1080:1 1273:1 1296:1 1325:1 1330:1 1398:1 1857:1 2307:1 2325:1 2785:1 2823:1 2824:1 2959:1 3393:1 3831:1 4517:1 4518:1 
10 1:1 2:1 3:1 4:1 5:1 6:1 7:1 8:1 10:1 11:1 12:1 14:1 15:1 16:1 17:1 18:1 20:1 21:1 24:1 25:1 27:1 30:1 32:1 33:1 34:1 38:1 39:1 42:1 44:1 50:1 52:1 56:1 58:1 66:1 82:1 83:1 89:1 90:1 102:1 105:1 112:1 115:1 117:1 119:1 120:1 125:1 131:1 134:1 137:1 139:1 146:1 151:1 154:1 155:1 157:1 160:1 165:1 171:1 198:1 210:1 211:1 212:1 214:1 217:1 233:1 250:1 275:1 278:1 283:1 338:1 339:1 349:1 407:1 413:1 443:1 483:1 509:1 539:1 542:1 570:1 586:1 614:1 615:1 652:1 673:1 734:1 790:1 915:1 957:1 1009:1 1021:1 1080:1 1273:1 1296:1 1325:1 1330:1 1398:1 1857:1 2307:1 2325:1 2785:1 2823:1 2824:1 2959:1 3393:1 3831:1 4517:1 4518:1 
10 1:1 2:1 3:1 4:1 5:1 6:1 7:1 8:1 10:1 11:1 12:1 14:1 15:1 16:1 17:1 18:1 20:1 21:1 24:1 25:1 27:1 30:1 32:1 33:1 34:1 38:1 39:1 42:1 44:1 50:1 52:1 56:1 58:1 66:1 82:1 83:1 89:1 90:1 102:1 105:1 112:1 115:1 117:1 119:1 120:1 125:1 131:1 134:1 137:1 139:1 146:1 151:1 154:1 155:1 157:1 160:1 165:1 171:1 198:1 199:1 210:1 211:1 212:1 214:1 217:1 233:1 250:1 275:1 278:1 283:1 338:1 339:1 349:1 407:1 413:1 443:1 483:1 509:1 539:1 542:1 570:1 586:1 614:1 615:1 652:1 673:1 734:1 790:1 915:1 957:1 1009:1 1021:1 1080:1 1273:1 1296:1 1325:1 1330:1 1398:1 1857:1 2307:1 2325:1 2785:1 2823:1 2824:1 2959:1 3393:1 3831:1 4517:1 4518:1 
10 1:1 3:1 4:1 6:1 8:1 10:1 11:1 12:1 13:1 15:1 16:1 18:1 19:1 20:1 21:1 24:1 30:1 31:1 32:1 33:1 36:1 38:1 39:1 50:1 54:1 55:1 56:1 90:1 96:1 106:1 115:1 120:1 137:1 154:1 222:1 233:1 367:1 437:1 490:1 570:1 615:1 734:1 1080:1 1273:1 2785:1 2823:1 2824:1 3087:1 
10 1:1 3:1 4:1 6:1 8:1 10:1 11:1 12:1 13:1 15:1 16:1 18:1 19:1 20:1 21:1 24:1 30:1 31:1 32:1 33:1 36:1 38:1 39:1 50:1 54:1 55:1 56:1 90:1 96:1 106:1 115:1 120:1 137:1 154:1 199:1 222:1 233:1 367:1 437:1 490:1 570:1 615:1 734:1 1080:1 1273:1 2785:1 2823:1 2824:1 3087:1 
10 1:1 2:1 3:1 4:1 5:1 6:1 7:1 8:1 10:1 11:1 12:1 14:1 15:1 16:1 17:1 18:1 20:1 21:1 24:1 25:1 27:1 30:1 32:1 33:1 34:1 38:1 39:1 42:1 44:1 50:1 52:1 56:1 58:1 66:1 82:1 83:1 85:1 89:1 90:1 102:1 105:1 112:1 117:1 119:1 120:1 125:1 131:1 134:1 137:1 139:1 143:1 146:1 151:1 154:1 155:1 157:1 160:1 165:1 171:1 198:1 210:1 211:1 212:1 214:1 217:1 233:1 250:1 275:1 278:1 283:1 338:1 339:1 349:1 407:1 413:1 443:1 483:1 509:1 539:1 542:1 570:1 586:1 614:1 652:1 673:1 734:1 790:1 915:1 957:1 1009:1 1021:1 1080:1 1273:1 1296:1 1325:1 1330:1 1398:1 1857:1 2307:1 2325:1 2785:1 2823:1 2824:1 2959:1 3393:1 3831:1 4517:1 4518:1 
10 1:1 2:1 3:1 4:1 5:1 6:1 7:1 8:1 10:1 11:1 12:1 14:1 15:1 16:1 17:1 18:1 20:1 21:1 24:1 25:1 27:1 30:1 32:1 33:1 34:1 38:1 39:1 42:1 44:1 50:1 52:1 56:1 58:1 66:1 82:1 83:1 85:1 89:1 90:1 102:1 105:1 112:1 117:1 119:1 120:1 125:1 131:1 134:1 137:1 139:1 143:1 146:1 151:1 154:1 155:1 157:1 160:1 165:1 171:1 198:1 210:1 211:1 212:1 214:1 217:1 233:1 250:1 275:1 278:1 283:1 338:1 339:1 349:1 407:1 413:1 443:1 483:1 509:1 539:1 542:1 570:1 586:1 614:1 652:1 673:1 734:1 790:1 915:1 957:1 1009:1 1021:1 1080:1 1273:1 1296:1 1325:1 1330:1 1398:1 1857:1 2307:1 2325:1 2785:1 2823:1 2824:1 2959:1 3393:1 3831:1 4517:1 4518:1 
10 1:1 2:1 3:1 4:1 5:1 6:1 7:1 8:1 10:1 11:1 12:1 13:1 14:1 15:1 16:1 17:1 18:1 20:1 21:1 25:1 26:1 27:1 29:1 30:1 31:1 33:1 34:1 36:1 38:1 40:1 42:1 45:1 48:1 50:1 55:1 60:1 64:1 66:1 68:1 69:1 74:1 77:1 78:1 84:1 87:1 92:1 95:1 104:1 106:1 108:1 109:1 115:1 120:1 121:1 123:1 125:1 126:1 127:1 128:1 130:1 137:1 140:1 151:1 153:1 157:1 158:1 159:1 162:1 175:1 187:1 195:1 198:1 210:1 211:1 214:1 232:1 242:1 255:1 257:1 262:1 266:1 274:1 279:1 286:1 294:1 324:1 329:1 341:1 347:1 348:1 361:1 383:1 402:1 411:1 435:1 451:1 457:1 467:1 504:1 529:1 535:1 600:1 606:1 637:1 670:1 672:1 715:1 760:1 763:1 817:1 822:1 834:1 948:1 962:1 967:1 1000:1 1011:1 1128:1 1130:1 1136:1 1156:1 1181:1 1245:1 1298:1 1309:1 1315:1 1497:1 1599:1 1762:1 1818:1 1872:1 1929:1 1955:1 2051:1 2128:1 2184:1 2750:1 2785:1 2827:1 2828:1 2952:1 3121:1 3462:1 3543:1 4149:1 4151:1 4152:1 4520:1 4523:1 5735:1 6887:1 6888:1 6890:1 6891:1 8780:1 8782:1 8785:1 8786:1 15972:1 
10 1:1 2:1 3:1 4:1 5:1 6:1 7:1 8:1 10:1 11:1 12:1 14:1 15:1 16:1 17:1 18:1 20:1 21:1 24:1 25:1 27:1 30:1 32:1 33:1 34:1 38:1 39:1 42:1 44:1 50:1 52:1 56:1 58:1 66:1 82:1 83:1 85:1 89:1 90:1 102:1 105:1 112:1 117:1 119:1 120:1 125:1 131:1 134:1 137:1 139:1 143:1 146:1 151:1 154:1 155:1 157:1 160:1 165:1 171:1 198:1 199:1 210:1 211:1 212:1 214:1 217:1 233:1 250:1 275:1 278:1 283:1 338:1 339:1 349:1 407:1 413:1 443:1 483:1 509:1 539:1 542:1 570:1 586:1 614:1 652:1 673:1 734:1 790:1 915:1 957:1 1009:1 1021:1 1080:1 1273:1 1296:1 1325:1 1330:1 1398:1 1857:1 2307:1 2325:1 2785:1 2823:1 2824:1 2959:1 3393:1 3831:1 4517:1 4518:1 
10 1:1 2:1 3:1 4:1 5:1 6:1 7:1 8:1 10:1 11:1 13:1 14:1 15:1 16:1 17:1 18:1 19:1 20:1 21:1 23:1 24:1 25:1 26:1 27:1 33:1 34:1 36:1 38:1 40:1 45:1 48:1 54:1 55:1 63:1 68:1 78:1 79:1 84:1 87:1 88:1 89:1 90:1 94:1 117:1 121:1 126:1 130:1 141:1 145:1 152:1 156:1 157:1 158:1 159:1 164:1 166:1 171:1 187:1 199:1 206:1 251:1 262:1 268:1 269:1 281:1 286:1 312:1 314:1 339:1 341:1 380:1 451:1 463:1 500:1 535:1 580:1 600:1 734:1 776:1 868:1 926:1 957:1 1191:1 1262:1 1950:1 2049:1 2088:1 2293:1 2647:1 2754:1 2762:1 2785:1 2959:1 4153:1 4154:1 5516:1 5725:1 6894:1 8788:1 15931:1 15933:1 15934:1 15936:1 15937:1 15938:1 15939:1 15942:1 
10 1:1 2:1 3:1 4:1 5:1 6:1 7:1 8:1 10:1 11:1 12:1 13:1 14:1 15:1 16:1 17:1 18:1 20:1 21:1 23:1 24:1 25:1 26:1 27:1 29:1 30:1 31:1 33:1 34:1 36:1 40:1 42:1 48:1 63:1 66:1 68:1 78:1 79:1 90:1 95:1 112:1 120:1 125:1 126:1 137:1 145:1 153:1 156:1 157:1 187:1 198:1 213:1 217:1 221:1 232:1 237:1 242:1 250:1 255:1 294:1 298:1 307:1 310:1 321:1 324:1 329:1 339:1 341:1 347:1 348:1 371:1 383:1 398:1 402:1 410:1 414:1 420:1 451:1 496:1 506:1 524:1 527:1 535:1 541:1 543:1 625:1 629:1 734:1 778:1 835:1 861:1 900:1 938:1 948:1 956:1 967:1 1000:1 1026:1 1031:1 1050:1 1136:1 1191:1 1202:1 1357:1 1371:1 1452:1 1470:1 1507:1 1601:1 2123:1 2262:1 2326:1 2785:1 2805:1 2959:1 4049:1 4155:1 4331:1 4400:1 4525:1 5736:1 6002:1 6896:1 6897:1 15944:1 15945:1 15947:1 15950:1 15972:1 
10 1:1 2:1 3:1 4:1 5:1 6:1 7:1 8:1 10:1 11:1 12:1 13:1 14:1 15:1 16:1 17:1 18:1 20:1 21:1 24:1 25:1 26:1 27:1 28:1 29:1 30:1 31:1 32:1 33:1 34:1 38:1 40:1 42:1 45:1 48:1 50:1 63:1 64:1 65:1 66:1 68:1 69:1 71:1 74:1 77:1 78:1 79:1 83:1 87:1 88:1 104:1 106:1 108:1 117:1 121:1 125:1 127:1 129:1 140:1 145:1 147:1 149:1 152:1 153:1 157:1 158:1 159:1 179:1 197:1 200:1 201:1 202:1 204:1 210:1 211:1 218:1 232:1 245:1 253:1 277:1 294:1 302:1 307:1 315:1 328:1 329:1 340:1 347:1 349:1 367:1 381:1 383:1 398:1 408:1 424:1 434:1 435:1 451:1 455:1 495:1 524:1 528:1 536:1 539:1 555:1 561:1 588:1 609:1 723:1 738:1 745:1 817:1 834:1 865:1 872:1 873:1 940:1 1011:1 1142:1 1221:1 1320:1 1342:1 1391:1 1422:1 1459:1 1470:1 1599:1 1701:1 1814:1 1841:1 1871:1 2291:1 2666:1 2691:1 2692:1 2785:1 2955:1 2959:1 3286:1 3545:1 5739:1 5742:1 8794:1 8795:1 8796:1 15092:1 15972:1 
10 1:1 2:1 3:1 4:1 5:1 6:1 7:1 8:1 10:1 11:1 12:1 13:1 14:1 15:1 16:1 17:1 18:1 20:1 21:1 24:1 25:1 26:1 27:1 28:1 29:1 30:1 31:1 33:1 34:1 38:1 40:1 42:1 45:1 48:1 50:1 63:1 64:1 66:1 68:1 69:1 71:1 74:1 77:1 78:1 79:1 83:1 87:1 88:1 104:1 106:1 108:1 117:1 121:1 125:1 127:1 129:1 140:1 145:1 147:1 149:1 152:1 153:1 157:1 158:1 159:1 179:1 200:1 202:1 204:1 210:1 211:1 218:1 232:1 245:1 253:1 277:1 294:1 302:1 307:1 315:1 328:1 329:1 340:1 347:1 349:1 367:1 381:1 383:1 398:1 408:1 424:1 435:1 451:1 455:1 524:1 528:1 536:1 539:1 555:1 561:1 588:1 609:1 723:1 738:1 745:1 817:1 834:1 865:1 940:1 1011:1 1142:1 1221:1 1320:1 1342:1 1391:1 1422:1 1459:1 1470:1 1599:1 1701:1 1814:1 1841:1 1871:1 2291:1 2666:1 2691:1 2692:1 2785:1 2955:1 2959:1 3286:1 3545:1 5739:1 5742:1 8794:1 8795:1 8796:1 15972:1 
10 1:1 2:1 4:1 6:1 8:1 15:1 18:1 20:1 21:1 23:1 26:1 27:1 29:1 30:1 33:1 34:1 55:1 64:1 68:1 73:1 90:1 115:1 119:1 120:1 137:1 145:1 192:1 199:1 201:1 220:1 297:1 321:1 328:1 386:1 453:1 570:1 734:1 1172:1 1191:1 1346:1 2036:1 2255:1 2753:1 2785:1 2959:1 3112:1 3287:1 6903:1 8798:1 15957:1 15958:1 
10 1:1 2:1 3:1 4:1 5:1 6:1 7:1 8:1 10:1 11:1 12:1 13:1 14:1 15:1 16:1 17:1 18:1 20:1 23:1 24:1 25:1 26:1 27:1 29:1 30:1 32:1 36:1 38:1 39:1 40:1 42:1 44:1 52:1 56:1 82:1 87:1 88:1 90:1 94:1 96:1 103:1 112:1 120:1 122:1 126:1 130:1 132:1 134:1 135:1 137:1 144:1 154:1 156:1 169:1 186:1 188:1 206:1 212:1 232:1 245:1 257:1 278:1 292:1 352:1 383:1 407:1 516:1 534:1 539:1 571:1 586:1 618:1 688:1 734:1 1179:1 1191:1 1226:1 1325:1 2040:1 2785:1 2823:1 2824:1 4218:1 
10 1:1 2:1 3:1 4:1 5:1 6:1 7:1 8:1 10:1 11:1 12:1 13:1 14:1 15:1 16:1 17:1 18:1 20:1 23:1 24:1 25:1 26:1 27:1 29:1 30:1 32:1 36:1 38:1 39:1 40:1 42:1 44:1 52:1 56:1 82:1 87:1 88:1 90:1 94:1 96:1 103:1 112:1 120:1 122:1 126:1 130:1 132:1 134:1 135:1 137:1 144:1 154:1 156:1 169:1 186:1 188:1 206:1 212:1 232:1 245:1 257:1 278:1 292:1 352:1 383:1 407:1 516:1 534:1 539:1 571:1 586:1 618:1 688:1 734:1 1179:1 1191:1 1226:1 1325:1 2040:1 2785:1 2823:1 2824:1 4218:1 
10 1:1 2:1 3:1 4:1 5:1 6:1 7:1 8:1 10:1 11:1 12:1 13:1 14:1 15:1 16:1 17:1 18:1 20:1 23:1 24:1 25:1 26:1 27:1 29:1 30:1 32:1 36:1 38:1 39:1 40:1 42:1 44:1 52:1 56:1 82:1 87:1 88:1 90:1 94:1 96:1 103:1 112:1 120:1 122:1 126:1 130:1 132:1 134:1 135:1 137:1 144:1 154:1 156:1 169:1 186:1 188:1 199:1 206:1 212:1 232:1 245:1 257:1 278:1 292:1 352:1 383:1 407:1 516:1 534:1 539:1 571:1 586:1 618:1 688:1 734:1 1179:1 1191:1 1226:1 1325:1 2040:1 2785:1 2823:1 2824:1 4218:1 
10 1:1 2:1 3:1 4:1 5:1 6:1 7:1 8:1 10:1 12:1 13:1 14:1 15:1 17:1 18:1 20:1 23:1 24:1 25:1 26:1 27:1 30:1 40:1 45:1 47:1 48:1 50:1 56:1 63:1 64:1 68:1 82:1 87:1 89:1 90:1 96:1 126:1 128:1 137:1 140:1 186:1 199:1 210:1 217:1 256:1 262:1 285:1 308:1 321:1 324:1 328:1 342:1 384:1 408:1 433:1 453:1 457:1 586:1 613:1 623:1 645:1 725:1 732:1 734:1 772:1 778:1 783:1 799:1 821:1 840:1 1088:1 1191:1 1220:1 1227:1 1268:1 1348:1 1472:1 1560:1 1996:1 2011:1 2180:1 2187:1 2250:1 2313:1 2785:1 2959:1 5747:1 5748:1 8799:1 8800:1 8801:1 8804:1 15970:1 15973:1 15975:1 15978:1 15979:1 15980:1 15981:1 15982:1 15983:1 15984:1 15985:1 15989:1 15992:1 15993:1 
10 1:1 2:1 3:1 4:1 5:1 6:1 8:1 10:1 11:1 12:1 13:1 15:1 18:1 20:1 31:1 32:1 56:1 60:1 64:1 67:1 74:1 77:1 84:1 104:1 105:1 108:1 109:1 115:1 135:1 141:1 147:1 164:1 169:1 221:1 226:1 231:1 257:1 266:1 368:1 393:1 423:1 467:1 551:1 829:1 1174:1 2785:1 2959:1 15994:1 
10 1:1 4:1 8:1 10:1 12:1 15:1 18:1 20:1 37:1 68:1 80:1 90:1 95:1 97:1 100:1 120:1 122:1 124:1 137:1 191:1 242:1 255:1 276:1 376:1 432:1 437:1 679:1 734:1 829:1 932:1 1043:1 1044:1 1191:1 1274:1 1288:1 1305:1 1657:1 1778:1 1820:1 1906:1 1912:1 2153:1 2182:1 2188:1 2570:1 2693:1 2785:1 2826:1 2946:1 2959:1 3289:1 3291:1 3837:1 3838:1 4157:1 4530:1 4531:1 5072:1 5073:1 5074:1 5075:1 5076:1 5504:1 5749:1 5750:1 5753:1 5754:1 5755:1 5757:1 5758:1 5759:1 6909:1 6912:1 6913:1 6914:1 6916:1 6918:1 6920:1 6921:1 8806:1 8807:1 8808:1 8809:1 8816:1 8818:1 8819:1 8822:1 8823:1 8826:1 8830:1 8838:1 8839:1 8842:1 8844:1 8849:1 8852:1 8866:1 8867:1 8868:1 8871:1 8872:1 8873:1 16000:1 16006:1 16012:1 16018:1 16032:1 16040:1 16041:1 16042:1 16043:1 16044:1 16045:1 16046:1 16047:1 16048:1 16049:1 16050:1 16051:1 16052:1 16055:1 16056:1 16058:1 16059:1 16060:1 16061:1 16062:1 16064:1 16065:1 16066:1 16067:1 16068:1 16069:1 16070:1 16071:1 16073:1 16074:1 16076:1 16077:1 16078:1 16080:1 16082:1 16083:1 16084:1 16086:1 16087:1 16088:1 16090:1 16091:1 16092:1 16094:1 16095:1 16096:1 16103:1 16104:1 16105:1 16107:1 16108:1 16110:1 16111:1 16112:1 16113:1 16114:1 16115:1 16116:1 16119:1 16120:1 16122:1 16123:1 16125:1 16126:1 16127:1 16128:1 16129:1 16130:1 16131:1 16132:1 16133:1 16134:1 16136:1 16137:1 16138:1 16140:1 16141:1 16142:1 16143:1 16144:1 16146:1 16149:1 16150:1 16152:1 16154:1 16155:1 16156:1 16157:1 16159:1 16161:1 16162:1 16163:1 16164:1 16165:1 16167:1 16169:1 16171:1 16172:1 16173:1 16174:1 16175:1 16177:1 16182:1 16183:1 16184:1 16185:1 16186:1 16187:1 16188:1 16190:1 16191:1 16192:1 16193:1 16194:1 16195:1 16196:1 16197:1 16198:1 16201:1 16202:1 16205:1 16206:1 16207:1 16210:1 16212:1 16213:1 16214:1 16215:1 16216:1 16217:1 16218:1 16219:1 16220:1 16221:1 16222:1 16223:1 16224:1 16225:1 16228:1 16229:1 16232:1 16233:1 16235:1 16236:1 16238:1 16239:1 16241:1 16244:1 16245:1 16246:1 16247:1 16248:1 16249:1 16250:1 16252:1 16253:1 16255:1 16256:1 16257:1 16258:1 16261:1 16262:1 16263:1 16264:1 16266:1 16267:1 16268:1 16270:1 16271:1 16272:1 16273:1 16274:1 16275:1 16276:1 16277:1 16278:1 16279:1 16280:1 16281:1 16282:1 16285:1 16286:1 16288:1 16289:1 16290:1 16292:1 16293:1 16294:1 16295:1 16296:1 16297:1 16298:1 16299:1 16302:1 16303:1 16304:1 16305:1 16306:1 16307:1 16308:1 16309:1 16310:1 16311:1 16313:1 16314:1 16315:1 16316:1 16317:1 16318:1 16319:1 16321:1 16322:1 16323:1 16325:1 16326:1 16327:1 16328:1 16329:1 16330:1 16331:1 16334:1 16335:1 16336:1 16337:1 16338:1 16339:1 16340:1 16341:1 16342:1 16343:1 16344:1 16345:1 16346:1 16347:1 16348:1 16349:1 16350:1 16351:1 16352:1 16353:1 16354:1 16355:1 16356:1 16357:1 16358:1 16359:1 16360:1 16361:1 16362:1 16363:1 16364:1 16365:1 16366:1 16367:1 16368:1 16369:1 16370:1 16371:1 16372:1 16373:1 16374:1 16375:1 16376:1 16378:1 16379:1 16380:1 16382:1 16387:1 16390:1 16391:1 16392:1 16393:1 16396:1 16398:1 16399:1 16400:1 16401:1 16403:1 16404:1 16405:1 16406:1 16407:1 16408:1 16409:1 16411:1 16413:1 16415:1 16417:1 16418:1 16419:1 16420:1 16421:1 16422:1 16423:1 16424:1 16425:1 16426:1 16427:1 16429:1 16430:1 16431:1 16433:1 16434:1 16435:1 16438:1 16439:1 16440:1 16441:1 16442:1 16444:1 16445:1 16447:1 16448:1 16450:1 16451:1 16452:1 16453:1 16455:1 16457:1 16458:1 16459:1 16460:1 16461:1 16462:1 16463:1 16465:1 16466:1 16467:1 16468:1 16469:1 16472:1 16473:1 16474:1 16477:1 16478:1 16479:1 16481:1 16482:1 16483:1 16484:1 16485:1 16486:1 16489:1 16490:1 16491:1 16492:1 16493:1 16495:1 16497:1 16499:1 16500:1 16503:1 16507:1 16508:1 16509:1 16510:1 16511:1 16513:1 16514:1 16515:1 16516:1 16517:1 16518:1 16519:1 16520:1 16521:1 16522:1 16523:1 16524:1 16527:1 16528:1 16529:1 16530:1 16531:1 16533:1 16534:1 16535:1 16536:1 16539:1 16540:1 16541:1 16542:1 16543:1 16544:1 16545:1 16546:1 16547:1 16548:1 16550:1 16552:1 16553:1 16554:1 16555:1 16557:1 16558:1 16559:1 16560:1 16561:1 16562:1 16563:1 16564:1 16565:1 16566:1 16567:1 16568:1 16569:1 16570:1 16571:1 16572:1 16573:1 16576:1 16577:1 16579:1 16580:1 16581:1 16582:1 17624:1 
10 1:1 2:1 3:1 4:1 5:1 6:1 7:1 8:1 10:1 11:1 12:1 13:1 14:1 15:1 16:1 17:1 18:1 19:1 20:1 21:1 23:1 25:1 26:1 27:1 29:1 31:1 32:1 34:1 36:1 38:1 40:1 42:1 43:1 45:1 48:1 50:1 55:1 56:1 58:1 63:1 66:1 67:1 68:1 74:1 79:1 85:1 87:1 88:1 89:1 90:1 92:1 95:1 96:1 97:1 102:1 103:1 112:1 113:1 125:1 126:1 127:1 129:1 137:1 138:1 142:1 143:1 151:1 154:1 156:1 157:1 158:1 160:1 165:1 166:1 167:1 171:1 172:1 175:1 177:1 190:1 195:1 197:1 198:1 201:1 209:1 210:1 222:1 232:1 235:1 240:1 255:1 257:1 260:1 262:1 275:1 278:1 280:1 283:1 285:1 286:1 302:1 324:1 361:1 367:1 376:1 389:1 413:1 414:1 419:1 422:1 426:1 433:1 453:1 463:1 468:1 483:1 495:1 496:1 524:1 536:1 551:1 552:1 555:1 567:1 571:1 580:1 586:1 588:1 589:1 600:1 602:1 608:1 609:1 618:1 623:1 632:1 636:1 638:1 672:1 708:1 716:1 778:1 799:1 834:1 913:1 927:1 943:1 970:1 976:1 990:1 1001:1 1016:1 1035:1 1068:1 1072:1 1081:1 1104:1 1111:1 1191:1 1200:1 1245:1 1250:1 1320:1 1327:1 1329:1 1330:1 1332:1 1386:1 1422:1 1429:1 1465:1 1469:1 1493:1 1529:1 1559:1 1749:1 1772:1 1955:1 2060:1 2084:1 2153:1 2316:1 2318:1 2785:1 2805:1 2815:1 2833:1 2835:1 2836:1 2901:1 2942:1 2959:1 3099:1 3105:1 3120:1 3214:1 3292:1 3459:1 3526:1 3547:1 3840:1 4060:1 4160:1 4218:1 4532:1 4985:1 5078:1 5079:1 5728:1 5763:1 5766:1 5767:1 5771:1 5772:1 6926:1 6927:1 6928:1 6929:1 8861:1 8885:1 8886:1 8887:1 8889:1 8890:1 8892:1 16592:1 16594:1 16595:1 16597:1 16599:1 16604:1 16606:1 16609:1 16610:1 16611:1 16614:1 16615:1 16620:1 16622:1 16625:1 16626:1 16627:1 16628:1 16629:1 16631:1 16632:1 16633:1 16634:1 16637:1 16638:1 
10 1:1 3:1 4:1 8:1 10:1 13:1 15:1 18:1 20:1 47:1 68:1 71:1 88:1 90:1 100:1 120:1 121:1 199:1 1010:1 1191:1 2695:1 2697:1 2698:1 2785:1 2959:1 6930:1 6931:1 
10 1:1 3:1 4:1 5:1 6:1 8:1 10:1 12:1 13:1 14:1 15:1 16:1 17:1 18:1 19:1 20:1 21:1 25:1 27:1 29:1 30:1 31:1 32:1 36:1 40:1 44:1 45:1 47:1 55:1 58:1 63:1 71:1 76:1 79:1 90:1 95:1 120:1 121:1 131:1 137:1 167:1 199:1 218:1 242:1 255:1 318:1 435:1 552:1 579:1 596:1 1087:1 1191:1 1221:1 1344:1 2178:1 2401:1 2785:1 3219:1 3293:1 4331:1 6096:1 6932:1 16645:1 16649:1 
10 1:1 2:1 3:1 4:1 5:1 6:1 7:1 8:1 10:1 11:1 14:1 15:1 16:1 17:1 18:1 20:1 25:1 33:1 34:1 39:1 42:1 45:1 50:1 52:1 54:1 58:1 68:1 78:1 84:1 85:1 89:1 90:1 100:1 103:1 115:1 116:1 117:1 121:1 129:1 137:1 155:1 156:1 159:1 163:1 169:1 193:1 199:1 210:1 211:1 222:1 224:1 227:1 237:1 269:1 275:1 324:1 399:1 451:1 542:1 650:1 1191:1 1767:1 2651:1 2785:1 3470:1 5085:1 5775:1 
10 1:1 2:1 3:1 4:1 6:1 7:1 8:1 10:1 11:1 12:1 13:1 14:1 15:1 16:1 18:1 20:1 21:1 32:1 34:1 38:1 39:1 48:1 54:1 56:1 60:1 74:1 77:1 80:1 82:1 90:1 95:1 103:1 104:1 108:1 109:1 114:1 115:1 120:1 121:1 137:1 139:1 149:1 172:1 179:1 197:1 201:1 215:1 246:1 335:1 351:1 363:1 408:1 433:1 439:1 467:1 491:1 495:1 561:1 593:1 697:1 784:1 791:1 792:1 800:1 887:1 1497:1 1801:1 2154:1 2219:1 2223:1 2371:1 2764:1 2785:1 2959:1 3751:1 6641:1 16664:1 16665:1 
10 1:1 2:1 3:1 4:1 5:1 6:1 7:1 8:1 10:1 11:1 13:1 14:1 15:1 18:1 19:1 21:1 23:1 25:1 26:1 27:1 29:1 31:1 32:1 34:1 38:1 42:1 58:1 63:1 65:1 66:1 68:1 87:1 90:1 100:1 122:1 124:1 130:1 131:1 132:1 146:1 151:1 158:1 165:1 171:1 188:1 215:1 221:1 233:1 237:1 238:1 249:1 257:1 321:1 411:1 436:1 542:1 551:1 628:1 991:1 1080:1 1081:1 1148:1 1191:1 1294:1 1394:1 1702:1 2040:1 2130:1 2448:1 2785:1 3117:1 4140:1 4162:1 8907:1 8908:1 16669:1 16670:1 16671:1 16672:1 
10 1:1 3:1 4:1 8:1 10:1 12:1 13:1 15:1 18:1 20:1 47:1 48:1 68:1 80:1 88:1 90:1 100:1 120:1 121:1 199:1 1010:1 2695:1 2697:1 2698:1 2785:1 2959:1 5086:1 6931:1 16682:1 
10 1:1 4:1 8:1 10:1 12:1 13:1 14:1 15:1 16:1 17:1 18:1 20:1 25:1 28:1 32:1 48:1 68:1 74:1 77:1 79:1 90:1 100:1 104:1 108:1 120:1 122:1 143:1 149:1 186:1 197:1 200:1 201:1 376:1 432:1 454:1 495:1 561:1 708:1 716:1 1459:1 2785:1 2959:1 5087:1 5088:1 5090:1 5091:1 5093:1 5096:1 5097:1 5098:1 5099:1 5101:1 5102:1 5104:1 8910:1 16683:1 16686:1 16689:1 
10 1:1 4:1 8:1 10:1 12:1 13:1 14:1 15:1 16:1 17:1 18:1 20:1 25:1 28:1 32:1 48:1 68:1 74:1 77:1 79:1 90:1 100:1 104:1 108:1 120:1 122:1 143:1 149:1 186:1 197:1 200:1 201:1 376:1 432:1 454:1 495:1 561:1 708:1 716:1 1191:1 1459:1 2785:1 2959:1 5087:1 5088:1 5090:1 5091:1 5093:1 5096:1 5097:1 5098:1 5099:1 5101:1 5102:1 5104:1 8911:1 8912:1 16693:1 16694:1 16695:1 16696:1 
10 1:1 4:1 8:1 10:1 12:1 13:1 14:1 15:1 16:1 17:1 18:1 20:1 25:1 28:1 32:1 48:1 65:1 68:1 74:1 77:1 79:1 90:1 100:1 104:1 108:1 120:1 122:1 143:1 149:1 186:1 197:1 200:1 201:1 376:1 432:1 454:1 495:1 561:1 708:1 716:1 1459:1 2291:1 2785:1 2959:1 5087:1 5088:1 5090:1 5091:1 5093:1 5096:1 5097:1 5098:1 5099:1 5101:1 5102:1 5104:1 8914:1 16700:1 16702:1 
10 1:1 4:1 8:1 10:1 12:1 13:1 14:1 15:1 16:1 17:1 18:1 20:1 25:1 28:1 32:1 48:1 68:1 74:1 77:1 79:1 90:1 100:1 104:1 108:1 120:1 122:1 143:1 149:1 186:1 197:1 200:1 201:1 376:1 432:1 454:1 495:1 561:1 708:1 716:1 1459:1 2785:1 2959:1 5087:1 5088:1 5090:1 5091:1 5093:1 5096:1 5097:1 5098:1 5099:1 5101:1 5102:1 5104:1 8915:1 8916:1 16720:1 16722:1 16723:1 
10 1:1 2:1 3:1 4:1 5:1 6:1 7:1 8:1 10:1 11:1 12:1 13:1 14:1 15:1 16:1 17:1 18:1 20:1 21:1 23:1 24:1 25:1 26:1 29:1 30:1 31:1 32:1 33:1 34:1 40:1 45:1 50:1 52:1 56:1 60:1 63:1 66:1 67:1 68:1 69:1 74:1 77:1 78:1 83:1 87:1 90:1 104:1 108:1 109:1 115:1 121:1 128:1 137:1 140:1 145:1 149:1 153:1 154:1 155:1 156:1 157:1 159:1 175:1 187:1 197:1 201:1 210:1 211:1 232:1 235:1 245:1 248:1 268:1 277:1 279:1 294:1 307:1 318:1 328:1 329:1 342:1 349:1 381:1 383:1 408:1 409:1 411:1 420:1 433:1 451:1 467:1 490:1 491:1 495:1 524:1 539:1 555:1 561:1 602:1 629:1 650:1 697:1 763:1 865:1 887:1 920:1 957:1 967:1 1006:1 1011:1 1025:1 1050:1 1094:1 1142:1 1156:1 1232:1 1238:1 1242:1 1271:1 1330:1 1370:1 1433:1 1527:1 1601:1 1660:1 1701:1 1838:1 1901:1 1911:1 1983:1 2699:1 2785:1 2959:1 3213:1 3295:1 3463:1 3790:1 4047:1 5107:1 6096:1 6939:1 6940:1 6941:1 6942:1 6943:1 6944:1 8917:1 15972:1 16724:1 16726:1 16727:1 16729:1 16731:1 16733:1 16734:1 16735:1 16736:1 16737:1 16738:1 16744:1 16745:1 16746:1 16749:1 16750:1 16751:1 16752:1 16753:1 16757:1 
10 1:1 4:1 8:1 10:1 12:1 13:1 14:1 15:1 16:1 17:1 18:1 20:1 25:1 28:1 32:1 48:1 68:1 74:1 77:1 79:1 90:1 100:1 104:1 108:1 120:1 122:1 143:1 149:1 186:1 197:1 200:1 201:1 376:1 432:1 454:1 495:1 561:1 708:1 716:1 1459:1 2785:1 2959:1 5087:1 5088:1 5090:1 5091:1 5093:1 5096:1 5097:1 5098:1 5099:1 5101:1 5102:1 5104:1 8918:1 8919:1 16761:1 16762:1 16763:1 16764:1 
10 1:1 4:1 8:1 10:1 12:1 13:1 14:1 15:1 16:1 17:1 18:1 20:1 25:1 28:1 32:1 48:1 68:1 74:1 77:1 79:1 90:1 100:1 104:1 108:1 120:1 122:1 143:1 149:1 186:1 197:1 200:1 201:1 376:1 432:1 454:1 495:1 561:1 708:1 716:1 1459:1 2785:1 2959:1 5108:1 5109:1 5111:1 5112:1 5113:1 5115:1 5116:1 5118:1 5120:1 5122:1 5123:1 5125:1 5127:1 8920:1 8921:1 16769:1 16770:1 16771:1 
10 1:1 4:1 8:1 10:1 12:1 13:1 14:1 15:1 16:1 17:1 18:1 20:1 25:1 28:1 32:1 48:1 68:1 74:1 77:1 79:1 90:1 100:1 104:1 108:1 120:1 122:1 143:1 149:1 186:1 197:1 200:1 201:1 376:1 432:1 454:1 495:1 561:1 708:1 716:1 1459:1 2785:1 2959:1 5108:1 5109:1 5111:1 5112:1 5113:1 5115:1 5116:1 5118:1 5120:1 5122:1 5123:1 5125:1 5127:1 8922:1 8923:1 16776:1 16777:1 
10 1:1 4:1 8:1 10:1 12:1 13:1 14:1 15:1 16:1 17:1 18:1 20:1 25:1 28:1 32:1 48:1 68:1 74:1 77:1 79:1 90:1 100:1 104:1 108:1 120:1 122:1 143:1 149:1 186:1 197:1 200:1 201:1 376:1 432:1 454:1 495:1 561:1 708:1 716:1 1459:1 2785:1 2959:1 5108:1 5109:1 5111:1 5112:1 5113:1 5115:1 5116:1 5118:1 5120:1 5122:1 5123:1 5125:1 5127:1 8924:1 8925:1 16781:1 16782:1 16783:1 
10 1:1 4:1 8:1 10:1 12:1 13:1 14:1 15:1 16:1 17:1 18:1 20:1 25:1 28:1 32:1 48:1 68:1 74:1 77:1 79:1 90:1 100:1 104:1 108:1 120:1 122:1 143:1 149:1 186:1 197:1 200:1 201:1 376:1 432:1 454:1 495:1 561:1 708:1 716:1 1191:1 1459:1 2785:1 2959:1 5108:1 5109:1 5111:1 5112:1 5113:1 5115:1 5116:1 5118:1 5120:1 5122:1 5123:1 5125:1 5127:1 8926:1 8927:1 16787:1 16788:1 16789:1 
10 1:1 4:1 8:1 10:1 12:1 13:1 14:1 15:1 16:1 17:1 18:1 20:1 25:1 28:1 32:1 48:1 65:1 68:1 74:1 77:1 79:1 90:1 100:1 104:1 108:1 120:1 122:1 143:1 149:1 186:1 197:1 200:1 201:1 376:1 432:1 454:1 495:1 561:1 708:1 716:1 1459:1 2291:1 2785:1 2959:1 5108:1 5109:1 5111:1 5112:1 5113:1 5115:1 5116:1 5118:1 5120:1 5122:1 5123:1 5125:1 5127:1 8928:1 8929:1 16795:1 16796:1 
10 1:1 2:1 3:1 4:1 5:1 6:1 7:1 8:1 11:1 12:1 13:1 14:1 15:1 18:1 20:1 25:1 26:1 28:1 32:1 34:1 44:1 45:1 47:1 48:1 52:1 58:1 71:1 73:1 74:1 77:1 79:1 83:1 84:1 90:1 94:1 96:1 104:1 106:1 108:1 121:1 137:1 138:1 139:1 149:1 155:1 158:1 162:1 166:1 200:1 215:1 302:1 331:1 457:1 561:1 597:1 658:1 680:1 748:1 783:1 866:1 934:1 966:1 1366:1 1459:1 2225:1 2402:1 2558:1 2785:1 2959:1 3130:1 3550:1 3843:1 5026:1 16798:1 16800:1 16801:1 
10 1:1 2:1 3:1 4:1 5:1 6:1 7:1 8:1 10:1 11:1 12:1 13:1 14:1 15:1 16:1 17:1 18:1 20:1 21:1 24:1 25:1 26:1 27:1 29:1 30:1 31:1 33:1 34:1 36:1 39:1 40:1 42:1 60:1 63:1 64:1 66:1 67:1 68:1 74:1 77:1 78:1 80:1 85:1 87:1 89:1 94:1 95:1 96:1 102:1 104:1 105:1 108:1 109:1 112:1 115:1 117:1 120:1 126:1 130:1 131:1 137:1 145:1 149:1 153:1 155:1 156:1 157:1 158:1 159:1 162:1 169:1 175:1 177:1 198:1 217:1 238:1 242:1 253:1 255:1 268:1 277:1 287:1 294:1 307:1 321:1 324:1 335:1 336:1 339:1 369:1 381:1 386:1 411:1 414:1 420:1 422:1 435:1 453:1 467:1 490:1 496:1 506:1 524:1 531:1 543:1 553:1 609:1 613:1 629:1 632:1 650:1 659:1 738:1 746:1 761:1 772:1 778:1 817:1 834:1 987:1 1006:1 1050:1 1087:1 1139:1 1245:1 1298:1 1412:1 1444:1 1465:1 1490:1 1599:1 1601:1 1631:1 1659:1 1737:1 1842:1 1929:1 2228:1 2231:1 2262:1 2326:1 2368:1 2565:1 2785:1 2959:1 3286:1 3524:1 3551:1 5057:1 5781:1 6948:1 6950:1 8178:1 8935:1 8937:1 8940:1 8941:1 16821:1 16822:1 16824:1 16825:1 16826:1 16828:1 16829:1 16833:1 16834:1 16836:1 16837:1 16838:1 16841:1 16843:1 16850:1 16852:1 16854:1 16858:1 19915:1 
1.293701507438108 1:1 2:1 3:1 4:1 5:1 6:1 7:1 8:1 10:1 11:1 12:1 13:1 14:1 15:1 16:1 18:1 19:1 20:1 24:1 25:1 26:1 27:1 28:1 39:1 40:1 42:1 43:1 44:1 48:1 54:1 64:1 65:1 73:1 74:1 77:1 79:1 89:1 90:1 95:1 96:1 100:1 104:1 108:1 110:1 121:1 126:1 143:1 145:1 149:1 156:1 188:1 199:1 200:1 213:1 271:1 287:1 324:1 346:1 347:1 374:1 436:1 439:1 481:1 526:1 552:1 561:1 661:1 662:1 668:1 679:1 703:1 720:1 751:1 838:1 839:1 849:1 874:1 919:1 932:1 988:1 1080:1 1123:1 1234:1 1246:1 1248:1 1262:1 1266:1 1274:1 1303:1 1305:1 1387:1 1419:1 1459:1 1519:1 1657:1 1692:1 1716:1 1780:1 1874:1 2052:1 2101:1 2189:1 2263:1 2329:1 2403:1 2404:1 2405:1 2406:1 2407:1 2448:1 2489:1 2600:1 2699:1 2785:1 2959:1 3110:1 3302:1 3471:1 3520:1 3554:1 3555:1 3746:1 3766:1 3768:1 4076:1 4090:1 4131:1 4158:1 4169:1 4171:1 4172:1 4538:1 4539:1 4540:1 4541:1 4542:1 4543:1 4544:1 4545:1 4546:1 5134:1 5135:1 5136:1 5137:1 5139:1 5141:1 5142:1 5144:1 5146:1 5147:1 5149:1 5150:1 5151:1 5152:1 5153:1 5154:1 5155:1 5157:1 8568:1 8944:1 16868:1 16869:1 
10 1:1 2:1 3:1 4:1 5:1 6:1 7:1 8:1 10:1 12:1 13:1 14:1 15:1 16:1 17:1 18:1 20:1 21:1 24:1 25:1 26:1 27:1 28:1 30:1 31:1 32:1 38:1 42:1 48:1 55:1 56:1 58:1 66:1 74:1 77:1 79:1 87:1 100:1 102:1 104:1 105:1 108:1 124:1 126:1 137:1 138:1 143:1 149:1 151:1 153:1 165:1 166:1 171:1 193:1 195:1 197:1 200:1 201:1 222:1 227:1 235:1 237:1 254:1 256:1 262:1 276:1 278:1 287:1 308:1 318:1 341:1 350:1 367:1 375:1 376:1 405:1 408:1 424:1 427:1 428:1 432:1 434:1 454:1 457:1 483:1 495:1 516:1 521:1 534:1 561:1 586:1 630:1 636:1 679:1 722:1 872:1 873:1 880:1 943:1 965:1 990:1 1043:1 1044:1 1161:1 1207:1 1345:1 1364:1 1387:1 1437:1 1459:1 1518:1 1576:1 1614:1 1646:1 1676:1 1695:1 1912:1 1914:1 1958:1 2063:1 2264:1 2330:1 2408:1 2461:1 2601:1 2602:1 2675:1 2785:1 2907:1 2959:1 2963:1 2966:1 2967:1 2968:1 3134:1 3135:1 3556:1 3559:1 3560:1 3830:1 3846:1 3847:1 3849:1 3851:1 3852:1 4174:1 4175:1 4178:1 4179:1 4180:1 4557:1 4561:1 4562:1 4563:1 4564:1 4565:1 4566:1 4567:1 4571:1 4572:1 4573:1 4575:1 4578:1 4579:1 4580:1 4583:1 4585:1 4586:1 4588:1 4590:1 4591:1 4595:1 4597:1 4599:1 4601:1 4603:1 4604:1 4611:1 4612:1 4615:1 4617:1 4618:1 4619:1 4624:1 4625:1 4626:1 4629:1 4630:1 4631:1 4633:1 4635:1 4636:1 4639:1 4642:1 4643:1 4646:1 4647:1 4650:1 4651:1 4654:1 5158:1 5782:1 5783:1 6809:1 6951:1 6962:1 6963:1 6964:1 6966:1 6967:1 6969:1 6970:1 6971:1 6972:1 6976:1 6977:1 6979:1 6980:1 6983:1 6984:1 6988:1 6989:1 6993:1 13221:1 
10 1:1 2:1 3:1 4:1 8:1 10:1 12:1 13:1 15:1 18:1 20:1 25:1 28:1 47:1 48:1 65:1 68:1 74:1 77:1 79:1 88:1 90:1 100:1 104:1 108:1 114:1 120:1 121:1 149:1 199:1 200:1 561:1 1010:1 1459:1 2695:1 2697:1 2698:1 2785:1 2959:1 16892:1 
10 1:1 4:1 8:1 12:1 13:1 15:1 18:1 20:1 25:1 28:1 47:1 48:1 65:1 68:1 73:1 74:1 77:1 79:1 90:1 95:1 97:1 100:1 104:1 108:1 149:1 199:1 200:1 297:1 561:1 1459:1 2785:1 2959:1 16895:1 16896:1 16897:1 
10 1:1 2:1 3:1 4:1 5:1 6:1 7:1 8:1 10:1 11:1 12:1 13:1 14:1 15:1 16:1 18:1 19:1 20:1 21:1 23:1 24:1 25:1 26:1 27:1 28:1 29:1 30:1 31:1 32:1 33:1 34:1 36:1 38:1 44:1 45:1 47:1 48:1 50:1 52:1 54:1 55:1 58:1 61:1 65:1 68:1 74:1 77:1 78:1 79:1 82:1 83:1 87:1 88:1 90:1 92:1 94:1 95:1 96:1 97:1 103:1 104:1 105:1 106:1 108:1 117:1 121:1 125:1 129:1 134:1 137:1 138:1 140:1 143:1 144:1 145:1 149:1 156:1 158:1 159:1 160:1 162:1 166:1 168:1 172:1 177:1 193:1 199:1 200:1 202:1 213:1 238:1 262:1 269:1 271:1 274:1 278:1 283:1 297:1 309:1 328:1 349:1 354:1 363:1 371:1 410:1 416:1 431:1 440:1 441:1 453:1 465:1 480:1 481:1 486:1 530:1 547:1 558:1 561:1 565:1 577:1 579:1 586:1 692:1 748:1 914:1 955:1 975:1 997:1 1017:1 1130:1 1149:1 1433:1 1459:1 1482:1 1653:1 1949:1 2491:1 2549:1 2785:1 2959:1 3306:1 3563:1 3564:1 3855:1 4658:1 4659:1 4660:1 4665:1 5160:1 6682:1 16905:1 
10 1:1 2:1 3:1 4:1 5:1 6:1 7:1 8:1 10:1 11:1 12:1 13:1 14:1 15:1 16:1 17:1 18:1 20:1 21:1 24:1 25:1 26:1 27:1 28:1 29:1 30:1 31:1 33:1 34:1 38:1 40:1 42:1 45:1 48:1 50:1 63:1 64:1 65:1 66:1 68:1 69:1 74:1 77:1 78:1 79:1 83:1 87:1 88:1 90:1 100:1 104:1 106:1 108:1 117:1 121:1 125:1 127:1 129:1 137:1 140:1 145:1 147:1 149:1 152:1 153:1 157:1 158:1 159:1 179:1 200:1 202:1 204:1 210:1 211:1 218:1 232:1 245:1 253:1 277:1 294:1 302:1 328:1 329:1 340:1 347:1 349:1 367:1 381:1 383:1 398:1 408:1 424:1 435:1 451:1 524:1 528:1 536:1 538:1 539:1 555:1 561:1 588:1 609:1 723:1 745:1 817:1 834:1 865:1 940:1 1011:1 1142:1 1221:1 1320:1 1342:1 1391:1 1422:1 1459:1 1470:1 1701:1 1814:1 1841:1 1871:1 2055:1 2064:1 2291:1 2666:1 2691:1 2785:1 2955:1 2959:1 3105:1 3286:1 3545:1 5724:1 5742:1 5787:1 5788:1 6944:1 6997:1 8751:1 8958:1 8959:1 8960:1 8961:1 8964:1 8966:1 8967:1 15972:1 16909:1 
10 1:1 4:1 8:1 12:1 13:1 15:1 18:1 20:1 60:1 68:1 74:1 77:1 80:1 95:1 100:1 104:1 108:1 109:1 115:1 120:1 122:1 149:1 242:1 255:1 467:1 1577:1 2785:1 8969:1 8970:1 16913:1 16914:1 16915:1 16917:1 16919:1 16922:1 16923:1 16924:1 16925:1 16926:1 16927:1 16929:1 16930:1 16931:1 16932:1 16933:1 16934:1 16935:1 16938:1 16939:1 16940:1 16941:1 16942:1 16945:1 16946:1 16947:1 16949:1 16950:1 16951:1 16952:1 16954:1 28273:1 
10 1:1 2:1 3:1 4:1 5:1 6:1 7:1 8:1 10:1 11:1 12:1 13:1 14:1 15:1 16:1 18:1 19:1 20:1 24:1 25:1 26:1 27:1 28:1 32:1 37:1 40:1 42:1 43:1 44:1 47:1 48:1 52:1 56:1 65:1 68:1 71:1 73:1 74:1 77:1 79:1 92:1 95:1 96:1 97:1 100:1 104:1 108:1 121:1 126:1 149:1 156:1 197:1 200:1 201:1 213:1 258:1 287:1 297:1 318:1 324:1 331:1 337:1 347:1 350:1 434:1 495:1 512:1 526:1 552:1 561:1 625:1 668:1 679:1 703:1 775:1 849:1 872:1 873:1 932:1 1080:1 1155:1 1274:1 1345:1 1459:1 1518:1 1519:1 1676:1 1697:1 1820:1 1992:1 2106:1 2193:1 2194:1 2329:1 2449:1 2489:1 2562:1 2604:1 2699:1 2785:1 2959:1 3302:1 3309:1 3520:1 3553:1 3565:1 3737:1 3749:1 3856:1 4063:1 4123:1 4131:1 4158:1 4169:1 4181:1 4182:1 4183:1 4538:1 4539:1 4540:1 4541:1 4543:1 5033:1 5162:1 5163:1 5789:1 5790:1 5791:1 5792:1 6622:1 8973:1 8974:1 8976:1 8977:1 8978:1 8979:1 16960:1 16961:1 16962:1 16963:1 16964:1 16965:1 16966:1 16967:1 16969:1 16970:1 16971:1 16973:1 16974:1 16976:1 16977:1 16978:1 16979:1 16980:1 16981:1 16982:1 16983:1 16984:1 16985:1 16986:1 16987:1 16988:1 16989:1 16990:1 16991:1 16992:1 16993:1 16994:1 16995:1 16997:1 16998:1 16999:1 17000:1 17001:1 17003:1 17005:1 17006:1 17007:1 17008:1 17009:1 17010:1 38280:1 
10 1:1 3:1 4:1 7:1 8:1 12:1 13:1 15:1 18:1 20:1 21:1 25:1 28:1 32:1 43:1 44:1 47:1 48:1 58:1 65:1 68:1 71:1 74:1 77:1 79:1 100:1 104:1 108:1 120:1 149:1 197:1 200:1 201:1 297:1 324:1 346:1 434:1 495:1 561:1 872:1 873:1 1111:1 1459:1 2785:1 2959:1 8991:1 17022:1 
10 1:1 2:1 3:1 4:1 5:1 6:1 7:1 8:1 10:1 11:1 12:1 13:1 14:1 15:1 16:1 17:1 18:1 19:1 20:1 21:1 23:1 24:1 25:1 26:1 27:1 28:1 29:1 30:1 32:1 33:1 34:1 36:1 38:1 40:1 42:1 48:1 50:1 63:1 65:1 66:1 68:1 69:1 71:1 74:1 77:1 78:1 79:1 82:1 87:1 90:1 95:1 104:1 108:1 120:1 121:1 125:1 126:1 127:1 130:1 131:1 137:1 140:1 145:1 149:1 153:1 159:1 167:1 190:1 197:1 198:1 200:1 201:1 209:1 210:1 211:1 213:1 214:1 217:1 232:1 242:1 245:1 250:1 251:1 255:1 262:1 274:1 275:1 277:1 280:1 286:1 298:1 306:1 314:1 315:1 321:1 324:1 340:1 369:1 381:1 383:1 386:1 399:1 407:1 414:1 434:1 459:1 473:1 495:1 536:1 549:1 561:1 609:1 632:1 650:1 715:1 761:1 763:1 817:1 827:1 861:1 872:1 873:1 948:1 973:1 987:1 1005:1 1026:1 1094:1 1128:1 1136:1 1181:1 1249:1 1274:1 1297:1 1315:1 1346:1 1363:1 1459:1 1486:1 1490:1 1544:1 1677:1 1818:1 1838:1 1871:1 1872:1 1930:1 2065:1 2242:1 2244:1 2326:1 2410:1 2479:1 2491:1 2785:1 2959:1 3310:1 3458:1 3566:1 4630:1 4666:1 4667:1 5165:1 5789:1 5797:1 7006:1 7007:1 7009:1 7013:1 7014:1 
10 1:1 2:1 3:1 4:1 5:1 8:1 10:1 11:1 12:1 13:1 15:1 16:1 17:1 18:1 20:1 21:1 23:1 24:1 25:1 26:1 28:1 31:1 32:1 38:1 39:1 40:1 44:1 45:1 48:1 50:1 52:1 54:1 63:1 64:1 71:1 74:1 77:1 79:1 84:1 90:1 92:1 94:1 104:1 108:1 139:1 141:1 149:1 165:1 168:1 171:1 199:1 200:1 213:1 231:1 233:1 237:1 238:1 352:1 368:1 399:1 561:1 582:1 842:1 1459:1 1643:1 2266:1 2267:1 2785:1 2959:1 3569:1 5167:1 
10 1:1 2:1 4:1 6:1 8:1 15:1 16:1 18:1 20:1 25:1 30:1 32:1 44:1 48:1 54:1 71:1 73:1 84:1 90:1 95:1 121:1 124:1 137:1 195:1 199:1 215:1 221:1 331:1 439:1 2785:1 8996:1 17059:1 
10 1:1 2:1 3:1 4:1 8:1 12:1 13:1 15:1 17:1 18:1 20:1 25:1 28:1 31:1 43:1 44:1 47:1 48:1 56:1 65:1 68:1 74:1 77:1 79:1 90:1 95:1 97:1 100:1 104:1 108:1 121:1 149:1 199:1 200:1 297:1 561:1 596:1 1344:1 1459:1 2785:1 2959:1 8998:1 17071:1 17072:1 17073:1 
10 1:1 4:1 8:1 10:1 13:1 15:1 18:1 20:1 23:1 48:1 52:1 55:1 73:1 84:1 90:1 100:1 186:1 199:1 552:1 2333:1 2785:1 2813:1 2959:1 5803:1 
10 1:1 2:1 3:1 4:1 5:1 6:1 7:1 8:1 10:1 11:1 13:1 14:1 15:1 16:1 17:1 18:1 19:1 20:1 21:1 23:1 24:1 26:1 31:1 32:1 33:1 34:1 36:1 39:1 42:1 43:1 44:1 45:1 48:1 55:1 56:1 58:1 63:1 64:1 83:1 87:1 90:1 92:1 94:1 95:1 112:1 118:1 120:1 121:1 124:1 126:1 129:1 130:1 131:1 137:1 138:1 140:1 146:1 155:1 160:1 168:1 169:1 186:1 197:1 199:1 209:1 212:1 220:1 242:1 255:1 280:1 284:1 287:1 318:1 324:1 350:1 374:1 375:1 392:1 398:1 450:1 500:1 508:1 526:1 552:1 553:1 570:1 620:1 637:1 668:1 680:1 720:1 722:1 751:1 798:1 827:1 838:1 948:1 954:1 985:1 1105:1 1158:1 1269:1 1343:1 1369:1 1419:1 1425:1 1433:1 2785:1 2976:1 4671:1 5172:1 5806:1 8942:1 17130:1 17131:1 17132:1 
10 1:1 4:1 8:1 10:1 14:1 15:1 16:1 17:1 18:1 48:1 68:1 137:1 186:1 376:1 432:1 454:1 2785:1 2959:1 3140:1 4672:1 5810:1 9013:1 9015:1 9018:1 9019:1 9021:1 9029:1 9030:1 9031:1 9036:1 9041:1 9052:1 9056:1 9059:1 9061:1 9062:1 9064:1 9066:1 9067:1 9068:1 9069:1 9071:1 9073:1 9074:1 9075:1 9077:1 9078:1 9079:1 9081:1 9082:1 9086:1 9088:1 9089:1 9096:1 9097:1 9098:1 9099:1 9101:1 9103:1 9105:1 9106:1 9108:1 9110:1 9111:1 9112:1 9113:1 9114:1 9116:1 9117:1 9120:1 9122:1 9125:1 9127:1 9129:1 9132:1 9134:1 9139:1 9143:1 9145:1 9146:1 9147:1 9149:1 9153:1 9156:1 22489:1 
10 1:1 4:1 8:1 10:1 14:1 15:1 16:1 17:1 18:1 48:1 68:1 137:1 186:1 376:1 432:1 454:1 2785:1 2959:1 3140:1 4672:1 5810:1 9013:1 9015:1 9018:1 9019:1 9021:1 9029:1 9030:1 9031:1 9036:1 9041:1 9052:1 9056:1 9059:1 9061:1 9062:1 9064:1 9066:1 9067:1 9068:1 9069:1 9071:1 9073:1 9074:1 9075:1 9077:1 9078:1 9079:1 9081:1 9082:1 9086:1 9088:1 9089:1 9096:1 9097:1 9098:1 9099:1 9101:1 9103:1 9105:1 9106:1 9108:1 9110:1 9111:1 9112:1 9113:1 9114:1 9116:1 9117:1 9120:1 9122:1 9125:1 9127:1 9129:1 9132:1 9134:1 9139:1 9143:1 9145:1 9146:1 9147:1 9149:1 9153:1 9156:1 22489:1 
10 1:1 3:1 4:1 6:1 8:1 12:1 13:1 14:1 15:1 16:1 18:1 19:1 20:1 24:1 26:1 34:1 38:1 42:1 43:1 44:1 52:1 60:1 66:1 74:1 77:1 80:1 90:1 95:1 100:1 104:1 108:1 109:1 115:1 149:1 151:1 171:1 210:1 254:1 431:1 439:1 467:1 654:1 1015:1 2785:1 17139:1 17140:1 
10 1:1 4:1 8:1 12:1 15:1 18:1 20:1 48:1 68:1 90:1 100:1 120:1 121:1 186:1 199:1 2695:1 2697:1 2698:1 2785:1 2959:1 5177:1 17169:1 
10 1:1 4:1 8:1 15:1 18:1 20:1 48:1 68:1 90:1 100:1 120:1 121:1 186:1 199:1 2695:1 2697:1 2698:1 2785:1 2959:1 6930:1 
10 1:1 2:1 3:1 4:1 5:1 6:1 7:1 8:1 10:1 11:1 12:1 13:1 14:1 15:1 16:1 17:1 18:1 20:1 21:1 25:1 26:1 27:1 29:1 30:1 31:1 33:1 34:1 36:1 38:1 40:1 42:1 45:1 48:1 50:1 55:1 60:1 64:1 66:1 68:1 69:1 74:1 77:1 78:1 84:1 87:1 90:1 92:1 95:1 104:1 106:1 108:1 109:1 115:1 120:1 121:1 123:1 125:1 126:1 127:1 128:1 130:1 137:1 140:1 149:1 151:1 153:1 157:1 158:1 159:1 162:1 175:1 187:1 195:1 198:1 210:1 211:1 214:1 232:1 242:1 255:1 257:1 262:1 274:1 279:1 286:1 294:1 324:1 329:1 341:1 347:1 348:1 361:1 383:1 402:1 411:1 435:1 451:1 457:1 467:1 504:1 529:1 535:1 600:1 606:1 637:1 670:1 672:1 715:1 760:1 763:1 817:1 822:1 834:1 948:1 962:1 967:1 1000:1 1011:1 1128:1 1130:1 1136:1 1156:1 1181:1 1245:1 1298:1 1309:1 1315:1 1497:1 1599:1 1762:1 1818:1 1872:1 1929:1 1955:1 2051:1 2128:1 2184:1 2750:1 2785:1 2827:1 2828:1 2952:1 3121:1 3462:1 3543:1 4149:1 4151:1 4152:1 4520:1 4523:1 5735:1 6887:1 6888:1 6890:1 6891:1 8780:1 8782:1 8785:1 8786:1 15972:1 
10 1:1 2:1 3:1 4:1 6:1 7:1 8:1 10:1 11:1 13:1 15:1 17:1 18:1 20:1 21:1 23:1 27:1 32:1 34:1 36:1 38:1 39:1 44:1 48:1 52:1 54:1 55:1 64:1 69:1 84:1 89:1 90:1 94:1 105:1 129:1 130:1 131:1 138:1 139:1 142:1 143:1 147:1 151:1 158:1 160:1 168:1 175:1 193:1 199:1 226:1 238:1 314:1 339:1 363:1 368:1 413:1 414:1 481:1 527:1 529:1 632:1 633:1 652:1 805:1 1311:1 2785:1 17195:1 
10 1:1 2:1 3:1 4:1 5:1 6:1 7:1 8:1 10:1 11:1 12:1 13:1 14:1 15:1 17:1 18:1 20:1 21:1 23:1 24:1 25:1 26:1 27:1 29:1 30:1 33:1 34:1 36:1 37:1 38:1 39:1 40:1 42:1 48:1 50:1 54:1 58:1 61:1 66:1 68:1 69:1 78:1 82:1 84:1 87:1 88:1 89:1 90:1 96:1 100:1 112:1 114:1 119:1 122:1 125:1 127:1 130:1 131:1 132:1 134:1 138:1 142:1 143:1 145:1 147:1 151:1 156:1 158:1 163:1 166:1 171:1 187:1 188:1 192:1 193:1 199:1 217:1 235:1 238:1 262:1 268:1 275:1 279:1 287:1 298:1 310:1 312:1 318:1 328:1 361:1 374:1 385:1 391:1 401:1 422:1 441:1 451:1 457:1 465:1 468:1 481:1 486:1 496:1 506:1 521:1 529:1 534:1 634:1 645:1 652:1 702:1 722:1 731:1 760:1 805:1 813:1 819:1 838:1 844:1 847:1 866:1 877:1 928:1 932:1 951:1 971:1 998:1 1013:1 1139:1 1217:1 1246:1 1365:1 1496:1 1497:1 1508:1 1527:1 1549:1 1566:1 1591:1 1665:1 1694:1 1703:1 1714:1 1841:1 1848:1 1980:1 2031:1 2195:1 2444:1 2452:1 2779:1 2785:1 2959:1 3134:1 3277:1 3294:1 3470:1 3840:1 3842:1 3862:1 4042:1 4056:1 4139:1 4195:1 4405:1 4406:1 4463:1 5813:1 6770:1 6775:1 7032:1 7034:1 8568:1 9164:1 9165:1 9166:1 9167:1 9168:1 9171:1 9172:1 9173:1 9174:1 17198:1 17200:1 17201:1 17202:1 17204:1 17205:1 17206:1 17207:1 17208:1 17210:1 17212:1 17213:1 17214:1 17216:1 17217:1 17218:1 17222:1 17224:1 17225:1 17226:1 17228:1 17231:1 17233:1 22035:1 
10 1:1 4:1 8:1 10:1 14:1 15:1 16:1 17:1 18:1 48:1 68:1 137:1 143:1 376:1 432:1 454:1 552:1 2785:1 4672:1 6809:1 9177:1 17236:1 17238:1 17239:1 17241:1 17243:1 17249:1 17251:1 17260:1 17262:1 17274:1 17275:1 17286:1 17287:1 17288:1 17289:1 17291:1 17297:1 17299:1 17306:1 17308:1 17310:1 17312:1 17315:1 17319:1 17320:1 17321:1 17324:1 17326:1 17328:1 17330:1 17339:1 17340:1 17346:1 17347:1 17351:1 17353:1 17357:1 17358:1 17362:1 17369:1 17376:1 17381:1 17386:1 17390:1 17391:1 17405:1 17408:1 17411:1 17421:1 17427:1 17430:1 17439:1 17442:1 17444:1 17445:1 17449:1 17455:1 17461:1 17464:1 17467:1 17473:1 17475:1 17476:1 17477:1 17479:1 17482:1 17489:1 17502:1 17505:1 17508:1 17513:1 17514:1 17516:1 17518:1 17525:1 17527:1 17531:1 17533:1 17537:1 17542:1 17546:1 17550:1 17553:1 17556:1 17558:1 17561:1 17563:1 17564:1 17569:1 
10 1:1 2:1 3:1 4:1 5:1 6:1 7:1 8:1 10:1 12:1 14:1 15:1 16:1 17:1 18:1 20:1 21:1 24:1 25:1 26:1 27:1 30:1 31:1 38:1 42:1 48:1 55:1 56:1 58:1 66:1 87:1 90:1 100:1 102:1 105:1 124:1 126:1 137:1 138:1 143:1 151:1 153:1 165:1 166:1 171:1 193:1 195:1 222:1 227:1 235:1 237:1 254:1 256:1 262:1 276:1 278:1 287:1 308:1 318:1 341:1 350:1 367:1 375:1 376:1 405:1 408:1 424:1 427:1 428:1 432:1 454:1 457:1 483:1 516:1 521:1 534:1 586:1 630:1 636:1 679:1 722:1 880:1 943:1 965:1 990:1 1043:1 1044:1 1161:1 1207:1 1345:1 1364:1 1387:1 1437:1 1576:1 1614:1 1646:1 1676:1 1695:1 1912:1 1914:1 1958:1 2063:1 2264:1 2330:1 2408:1 2461:1 2601:1 2602:1 2675:1 2785:1 2907:1 2963:1 2966:1 2967:1 2968:1 3134:1 3135:1 3556:1 3559:1 3560:1 3830:1 3846:1 3847:1 3849:1 3851:1 3852:1 4174:1 4175:1 4178:1 4179:1 4180:1 4557:1 4561:1 4562:1 4563:1 4564:1 4565:1 4566:1 4567:1 4571:1 4572:1 4573:1 4575:1 4578:1 4579:1 4580:1 4583:1 4585:1 4586:1 4588:1 4590:1 4591:1 4595:1 4597:1 4599:1 4601:1 4603:1 4604:1 4611:1 4612:1 4615:1 4617:1 4618:1 4619:1 4624:1 4625:1 4626:1 4629:1 4630:1 4631:1 4633:1 4635:1 4636:1 4639:1 4642:1 4643:1 4646:1 4647:1 4650:1 4651:1 4654:1 5158:1 5782:1 5783:1 6809:1 6951:1 6962:1 6963:1 6964:1 6966:1 6967:1 6969:1 6970:1 6971:1 6972:1 6976:1 6977:1 6979:1 6980:1 6983:1 6984:1 6988:1 6989:1 6993:1 13221:1 
10 1:1 2:1 3:1 4:1 5:1 6:1 7:1 8:1 10:1 11:1 12:1 13:1 14:1 15:1 16:1 17:1 18:1 19:1 20:1 21:1 23:1 24:1 25:1 26:1 27:1 29:1 30:1 32:1 33:1 34:1 36:1 38:1 39:1 40:1 42:1 43:1 45:1 47:1 48:1 50:1 52:1 54:1 55:1 56:1 58:1 61:1 63:1 64:1 65:1 66:1 67:1 69:1 73:1 78:1 83:1 84:1 85:1 87:1 88:1 89:1 90:1 92:1 94:1 95:1 96:1 97:1 102:1 105:1 106:1 110:1 112:1 114:1 116:1 117:1 125:1 126:1 127:1 128:1 130:1 131:1 133:1 134:1 137:1 138:1 139:1 140:1 142:1 145:1 147:1 148:1 153:1 155:1 156:1 157:1 158:1 159:1 160:1 162:1 163:1 164:1 165:1 166:1 167:1 168:1 169:1 171:1 179:1 187:1 190:1 194:1 195:1 197:1 198:1 201:1 204:1 206:1 208:1 210:1 213:1 214:1 217:1 219:1 221:1 222:1 224:1 226:1 229:1 235:1 237:1 238:1 246:1 250:1 251:1 253:1 260:1 264:1 269:1 272:1 275:1 276:1 279:1 281:1 283:1 284:1 289:1 295:1 298:1 302:1 306:1 310:1 312:1 314:1 321:1 328:1 329:1 335:1 339:1 340:1 341:1 348:1 349:1 356:1 361:1 363:1 367:1 369:1 375:1 384:1 391:1 397:1 398:1 400:1 402:1 405:1 407:1 411:1 413:1 415:1 425:1 427:1 428:1 433:1 439:1 440:1 443:1 459:1 473:1 480:1 481:1 486:1 490:1 491:1 495:1 500:1 510:1 516:1 525:1 527:1 529:1 530:1 534:1 536:1 541:1 547:1 553:1 561:1 563:1 566:1 567:1 570:1 571:1 572:1 585:1 588:1 590:1 597:1 608:1 633:1 634:1 638:1 642:1 645:1 665:1 683:1 688:1 690:1 692:1 696:1 697:1 701:1 702:1 707:1 717:1 722:1 723:1 731:1 732:1 738:1 739:1 751:1 754:1 760:1 772:1 783:1 819:1 829:1 834:1 864:1 867:1 887:1 892:1 894:1 920:1 935:1 972:1 975:1 989:1 995:1 1011:1 1013:1 1041:1 1044:1 1063:1 1093:1 1104:1 1138:1 1141:1 1142:1 1161:1 1163:1 1197:1 1202:1 1203:1 1204:1 1217:1 1297:1 1306:1 1327:1 1343:1 1375:1 1377:1 1389:1 1408:1 1414:1 1439:1 1470:1 1471:1 1501:1 1568:1 1599:1 1604:1 1632:1 1633:1 1635:1 1661:1 1684:1 1718:1 1752:1 1753:1 1758:1 1759:1 1804:1 1836:1 1899:1 1900:1 1922:1 1975:1 1983:1 1985:1 1986:1 1988:1 1989:1 2098:1 2119:1 2233:1 2234:1 2244:1 2299:1 2379:1 2380:1 2381:1 2452:1 2456:1 2457:1 2557:1 2651:1 2772:1 2773:1 2785:1 2911:1 2959:1 3077:1 3078:1 3105:1 3143:1 3217:1 3221:1 3222:1 3227:1 3477:1 3478:1 3480:1 3481:1 3760:1 4070:1 4073:1 4074:1 4197:1 4415:1 4416:1 4968:1 5179:1 6096:1 6375:1 6788:1 8568:1 8632:1 9178:1 9179:1 9180:1 9181:1 17575:1 17576:1 17577:1 17579:1 17582:1 17583:1 17585:1 17586:1 17587:1 17588:1 22035:1 
10 1:1 2:1 3:1 4:1 5:1 6:1 7:1 8:1 10:1 12:1 14:1 15:1 16:1 17:1 18:1 20:1 21:1 24:1 25:1 26:1 27:1 30:1 31:1 38:1 42:1 48:1 55:1 56:1 58:1 66:1 87:1 90:1 100:1 102:1 105:1 124:1 126:1 137:1 138:1 143:1 151:1 153:1 165:1 166:1 171:1 193:1 195:1 222:1 227:1 235:1 237:1 254:1 256:1 262:1 276:1 278:1 287:1 308:1 318:1 341:1 350:1 367:1 375:1 376:1 405:1 408:1 424:1 427:1 428:1 432:1 454:1 457:1 483:1 516:1 521:1 534:1 586:1 630:1 636:1 679:1 722:1 880:1 943:1 965:1 990:1 1043:1 1044:1 1161:1 1207:1 1345:1 1364:1 1387:1 1437:1 1576:1 1614:1 1646:1 1676:1 1695:1 1912:1 1914:1 1958:1 2063:1 2264:1 2330:1 2408:1 2461:1 2601:1 2602:1 2675:1 2785:1 2907:1 2963:1 2966:1 2967:1 2968:1 3134:1 3135:1 3556:1 3559:1 3560:1 3830:1 3846:1 3847:1 3849:1 3851:1 3852:1 4174:1 4175:1 4178:1 4179:1 4180:1 4557:1 4561:1 4562:1 4563:1 4564:1 4565:1 4566:1 4567:1 4571:1 4572:1 4573:1 4575:1 4578:1 4579:1 4580:1 4583:1 4585:1 4586:1 4588:1 4590:1 4591:1 4595:1 4597:1 4599:1 4601:1 4603:1 4604:1 4611:1 4612:1 4615:1 4617:1 4618:1 4619:1 4624:1 4625:1 4626:1 4629:1 4630:1 4631:1 4633:1 4635:1 4636:1 4639:1 4642:1 4643:1 4646:1 4647:1 4650:1 4651:1 4654:1 5158:1 5782:1 5783:1 6809:1 6951:1 6962:1 6963:1 6964:1 6966:1 6967:1 6969:1 6970:1 6971:1 6972:1 6976:1 6977:1 6979:1 6980:1 6983:1 6984:1 6988:1 6989:1 6993:1 13221:1 
10 1:1 2:1 3:1 4:1 6:1 7:1 8:1 10:1 11:1 12:1 13:1 14:1 15:1 16:1 18:1 20:1 32:1 34:1 38:1 39:1 54:1 56:1 60:1 74:1 77:1 82:1 95:1 103:1 104:1 108:1 109:1 114:1 115:1 120:1 121:1 137:1 139:1 172:1 179:1 215:1 246:1 266:1 335:1 351:1 353:1 363:1 408:1 439:1 467:1 593:1 784:1 791:1 792:1 800:1 1497:1 1801:1 2154:1 2219:1 2223:1 2371:1 2764:1 2785:1 2959:1 3751:1 9184:1 17590:1 17591:1 21966:1 
10 1:1 2:1 3:1 4:1 5:1 6:1 7:1 8:1 10:1 11:1 12:1 13:1 15:1 16:1 18:1 19:1 20:1 21:1 24:1 25:1 26:1 27:1 32:1 40:1 43:1 44:1 48:1 52:1 56:1 65:1 68:1 90:1 92:1 96:1 121:1 126:1 137:1 151:1 156:1 164:1 171:1 184:1 199:1 213:1 312:1 347:1 351:1 449:1 553:1 563:1 596:1 597:1 600:1 615:1 661:1 703:1 798:1 860:1 988:1 1105:1 1579:1 1598:1 1661:1 1678:1 1689:1 1780:1 1878:1 1915:1 2067:1 2134:1 2785:1 3783:1 9211:1 
10 1:1 2:1 3:1 4:1 6:1 7:1 8:1 10:1 12:1 13:1 15:1 18:1 19:1 20:1 21:1 25:1 26:1 29:1 31:1 32:1 33:1 39:1 42:1 45:1 47:1 48:1 50:1 55:1 56:1 65:1 66:1 68:1 73:1 88:1 90:1 96:1 97:1 103:1 121:1 122:1 125:1 137:1 167:1 179:1 187:1 197:1 201:1 217:1 219:1 262:1 268:1 282:1 309:1 433:1 489:1 491:1 495:1 561:1 697:1 887:1 1161:1 2785:1 2959:1 5828:1 9223:1 17675:1 
10 1:1 3:1 4:1 6:1 7:1 8:1 11:1 12:1 13:1 15:1 17:1 18:1 20:1 21:1 37:1 43:1 44:1 55:1 56:1 58:1 60:1 68:1 74:1 77:1 100:1 104:1 108:1 109:1 115:1 218:1 266:1 341:1 467:1 764:1 2785:1 2959:1 3865:1 4680:1 5830:1 
10 1:1 2:1 3:1 4:1 5:1 8:1 10:1 11:1 13:1 15:1 16:1 17:1 18:1 20:1 21:1 23:1 24:1 26:1 31:1 32:1 38:1 39:1 40:1 44:1 45:1 48:1 50:1 52:1 54:1 63:1 64:1 65:1 84:1 90:1 92:1 94:1 139:1 141:1 165:1 168:1 171:1 199:1 213:1 231:1 233:1 237:1 238:1 352:1 368:1 399:1 582:1 842:1 1643:1 2266:1 2267:1 2785:1 3569:1 5167:1 
10 1:1 2:1 3:1 4:1 5:1 6:1 7:1 8:1 10:1 11:1 12:1 14:1 15:1 16:1 17:1 18:1 21:1 25:1 26:1 27:1 29:1 30:1 31:1 33:1 36:1 38:1 40:1 42:1 47:1 48:1 54:1 63:1 65:1 66:1 68:1 78:1 84:1 90:1 95:1 105:1 106:1 120:1 121:1 126:1 127:1 128:1 137:1 151:1 154:1 156:1 157:1 159:1 187:1 198:1 227:1 232:1 242:1 245:1 255:1 277:1 294:1 310:1 324:1 380:1 381:1 398:1 409:1 410:1 420:1 468:1 506:1 524:1 527:1 536:1 555:1 625:1 630:1 725:1 727:1 817:1 900:1 967:1 1001:1 1050:1 1136:1 1202:1 1298:1 1341:1 1363:1 1677:1 1842:1 2184:1 2231:1 2483:1 2785:1 3105:1 3292:1 3581:1 4152:1 15972:1 
10 1:1 3:1 4:1 5:1 6:1 8:1 11:1 13:1 15:1 18:1 20:1 21:1 25:1 32:1 38:1 39:1 40:1 42:1 44:1 48:1 50:1 66:1 68:1 71:1 84:1 88:1 90:1 92:1 117:1 119:1 121:1 137:1 139:1 154:1 187:1 199:1 257:1 280:1 582:1 847:1 1029:1 1392:1 1464:1 1628:1 1933:1 1976:1 2036:1 2152:1 2785:1 2899:1 2959:1 3464:1 4054:1 4399:1 5506:1 5507:1 5508:1 5509:1 5510:1 5511:1 5512:1 5513:1 5514:1 6626:1 6627:1 6629:1 6630:1 
10 1:1 2:1 3:1 4:1 6:1 7:1 8:1 11:1 12:1 13:1 14:1 15:1 17:1 18:1 20:1 23:1 24:1 25:1 29:1 30:1 31:1 32:1 34:1 36:1 38:1 45:1 48:1 66:1 71:1 84:1 89:1 90:1 95:1 112:1 120:1 121:1 124:1 129:1 132:1 137:1 195:1 199:1 242:1 262:1 268:1 271:1 310:1 315:1 398:1 411:1 530:1 633:1 1324:1 1709:1 2761:1 2785:1 3475:1 17761:1 
10 1:1 2:1 3:1 4:1 5:1 6:1 7:1 8:1 11:1 12:1 13:1 15:1 16:1 18:1 19:1 20:1 23:1 24:1 25:1 31:1 32:1 33:1 34:1 39:1 40:1 42:1 43:1 48:1 50:1 52:1 63:1 67:1 71:1 79:1 82:1 84:1 87:1 90:1 92:1 100:1 114:1 117:1 121:1 126:1 139:1 156:1 199:1 211:1 221:1 222:1 249:1 309:1 312:1 334:1 335:1 352:1 400:1 408:1 437:1 463:1 483:1 559:1 660:1 921:1 982:1 1126:1 1200:1 1232:1 1325:1 2336:1 2785:1 2915:1 3320:1 3869:1 4438:1 9254:1 16647:1 17771:1 17773:1 
10 1:1 2:1 3:1 4:1 5:1 6:1 7:1 8:1 10:1 11:1 12:1 13:1 14:1 15:1 16:1 17:1 18:1 19:1 20:1 21:1 25:1 26:1 29:1 30:1 32:1 33:1 36:1 45:1 48:1 58:1 64:1 68:1 79:1 90:1 94:1 100:1 103:1 120:1 128:1 131:1 142:1 151:1 152:1 167:1 168:1 171:1 198:1 209:1 233:1 237:1 257:1 262:1 376:1 397:1 432:1 440:1 454:1 476:1 500:1 757:1 915:1 1172:1 1413:1 2785:1 2959:1 3512:1 4204:1 7060:1 7061:1 
10 1:1 3:1 4:1 6:1 7:1 8:1 10:1 15:1 16:1 18:1 19:1 20:1 24:1 26:1 31:1 32:1 37:1 48:1 50:1 68:1 79:1 80:1 87:1 90:1 100:1 105:1 126:1 199:1 233:1 723:1 2126:1 2785:1 2959:1 3321:1 3587:1 4690:1 7062:1 
10 1:1 2:1 3:1 4:1 5:1 6:1 7:1 8:1 10:1 11:1 13:1 14:1 15:1 16:1 17:1 18:1 20:1 21:1 23:1 24:1 25:1 26:1 27:1 29:1 30:1 32:1 34:1 36:1 38:1 39:1 40:1 42:1 45:1 47:1 48:1 50:1 52:1 54:1 58:1 66:1 69:1 79:1 82:1 84:1 87:1 89:1 90:1 92:1 94:1 103:1 109:1 116:1 120:1 121:1 125:1 129:1 135:1 137:1 138:1 139:1 156:1 157:1 158:1 160:1 163:1 165:1 167:1 169:1 175:1 177:1 199:1 215:1 221:1 224:1 226:1 237:1 245:1 250:1 251:1 253:1 257:1 262:1 265:1 283:1 284:1 302:1 315:1 321:1 339:1 356:1 384:1 414:1 420:1 422:1 423:1 450:1 457:1 527:1 551:1 628:1 652:1 689:1 717:1 727:1 732:1 783:1 819:1 853:1 868:1 925:1 949:1 991:1 1007:1 1252:1 1278:1 1294:1 1326:1 1557:1 2785:1 2959:1 3508:1 3589:1 4205:1 4691:1 17816:1 17819:1 17820:1 
10 1:1 2:1 3:1 4:1 6:1 7:1 8:1 10:1 11:1 12:1 13:1 14:1 15:1 16:1 18:1 20:1 21:1 32:1 34:1 38:1 39:1 54:1 56:1 60:1 74:1 77:1 82:1 90:1 95:1 103:1 104:1 108:1 109:1 114:1 115:1 120:1 121:1 137:1 139:1 149:1 172:1 179:1 197:1 201:1 215:1 246:1 335:1 351:1 363:1 408:1 433:1 439:1 467:1 491:1 495:1 561:1 593:1 697:1 784:1 791:1 792:1 800:1 887:1 1497:1 1801:1 2154:1 2219:1 2223:1 2371:1 2764:1 2785:1 2959:1 3295:1 3751:1 5107:1 9184:1 17892:1 17893:1 
10 1:1 2:1 3:1 4:1 5:1 7:1 8:1 12:1 14:1 15:1 18:1 20:1 21:1 27:1 30:1 32:1 43:1 48:1 50:1 67:1 68:1 79:1 84:1 85:1 90:1 92:1 97:1 103:1 105:1 113:1 120:1 121:1 122:1 125:1 126:1 129:1 137:1 167:1 199:1 346:1 412:1 435:1 589:1 613:1 1472:1 1668:1 2137:1 2785:1 2847:1 3105:1 3457:1 4694:1 17896:1 17898:1 
10 1:1 2:1 3:1 4:1 5:1 6:1 7:1 8:1 10:1 11:1 13:1 14:1 15:1 16:1 17:1 18:1 19:1 20:1 21:1 23:1 30:1 32:1 34:1 38:1 39:1 42:1 47:1 48:1 55:1 64:1 68:1 80:1 84:1 87:1 88:1 90:1 95:1 96:1 97:1 120:1 121:1 124:1 137:1 138:1 141:1 146:1 151:1 164:1 169:1 171:1 192:1 193:1 199:1 207:1 218:1 250:1 260:1 283:1 297:1 314:1 361:1 380:1 572:1 679:1 769:1 813:1 1433:1 2785:1 2959:1 3246:1 5701:1 9277:1 9278:1 17957:1 17958:1 
10 1:1 2:1 3:1 4:1 5:1 6:1 7:1 8:1 10:1 11:1 12:1 13:1 14:1 15:1 17:1 18:1 19:1 20:1 23:1 26:1 32:1 33:1 36:1 39:1 45:1 48:1 50:1 68:1 78:1 83:1 87:1 90:1 105:1 115:1 119:1 120:1 121:1 131:1 137:1 145:1 154:1 158:1 159:1 164:1 190:1 195:1 224:1 227:1 235:1 253:1 315:1 615:1 658:1 690:1 757:1 769:1 870:1 909:1 1028:1 1029:1 1080:1 1487:1 2055:1 2374:1 2468:1 2785:1 2959:1 3130:1 3595:1 3882:1 4227:1 4228:1 4229:1 4230:1 9280:1 
10 1:1 2:1 3:1 4:1 5:1 6:1 7:1 8:1 10:1 11:1 12:1 13:1 14:1 15:1 17:1 18:1 19:1 23:1 26:1 32:1 33:1 36:1 39:1 45:1 48:1 50:1 68:1 78:1 83:1 87:1 90:1 105:1 115:1 119:1 120:1 121:1 131:1 137:1 145:1 154:1 158:1 159:1 164:1 190:1 195:1 224:1 227:1 235:1 253:1 315:1 658:1 690:1 757:1 769:1 870:1 909:1 1028:1 1029:1 1080:1 1487:1 2055:1 2374:1 2468:1 2785:1 2959:1 3130:1 3595:1 3882:1 4227:1 4228:1 4229:1 4230:1 
10 1:1 2:1 3:1 4:1 5:1 6:1 7:1 8:1 10:1 11:1 12:1 13:1 14:1 15:1 17:1 18:1 19:1 23:1 26:1 32:1 33:1 36:1 39:1 45:1 48:1 50:1 68:1 78:1 83:1 87:1 90:1 105:1 115:1 119:1 120:1 121:1 131:1 137:1 145:1 154:1 158:1 159:1 164:1 190:1 195:1 224:1 227:1 235:1 253:1 315:1 658:1 690:1 757:1 769:1 870:1 909:1 1028:1 1029:1 1080:1 1487:1 2055:1 2374:1 2468:1 2785:1 2959:1 3130:1 3595:1 3882:1 4227:1 4228:1 4229:1 4230:1 
10 1:1 2:1 3:1 4:1 5:1 6:1 7:1 8:1 10:1 11:1 12:1 13:1 14:1 15:1 17:1 18:1 19:1 23:1 26:1 32:1 33:1 36:1 39:1 45:1 48:1 50:1 68:1 78:1 83:1 87:1 90:1 105:1 115:1 119:1 120:1 121:1 131:1 137:1 145:1 154:1 158:1 159:1 164:1 190:1 195:1 224:1 227:1 235:1 253:1 315:1 658:1 690:1 757:1 769:1 870:1 909:1 1028:1 1029:1 1080:1 1487:1 2055:1 2374:1 2468:1 2785:1 2959:1 3130:1 3595:1 3882:1 4227:1 4228:1 4229:1 4230:1 
10 1:1 2:1 3:1 4:1 5:1 6:1 7:1 8:1 10:1 11:1 12:1 13:1 14:1 15:1 17:1 18:1 19:1 23:1 26:1 32:1 33:1 36:1 39:1 45:1 48:1 50:1 68:1 78:1 83:1 87:1 90:1 105:1 115:1 119:1 120:1 121:1 131:1 137:1 145:1 154:1 158:1 159:1 164:1 190:1 195:1 224:1 227:1 235:1 253:1 315:1 658:1 690:1 757:1 769:1 870:1 909:1 1028:1 1029:1 1080:1 1487:1 2055:1 2374:1 2468:1 2785:1 2959:1 3130:1 3595:1 3882:1 4227:1 4228:1 4229:1 4230:1 
10 1:1 2:1 3:1 4:1 5:1 6:1 7:1 8:1 10:1 11:1 12:1 13:1 14:1 15:1 17:1 18:1 19:1 23:1 26:1 32:1 33:1 36:1 39:1 45:1 48:1 50:1 68:1 78:1 83:1 87:1 90:1 105:1 115:1 119:1 120:1 121:1 131:1 137:1 145:1 154:1 158:1 159:1 164:1 190:1 195:1 224:1 227:1 235:1 253:1 315:1 658:1 690:1 757:1 769:1 870:1 909:1 1028:1 1029:1 1080:1 1487:1 2055:1 2374:1 2468:1 2785:1 2959:1 3130:1 3595:1 3882:1 4227:1 4228:1 4229:1 4230:1 
10 1:1 4:1 8:1 10:1 12:1 13:1 15:1 18:1 20:1 23:1 47:1 48:1 52:1 55:1 68:1 73:1 84:1 90:1 95:1 97:1 100:1 115:1 199:1 297:1 552:1 2333:1 2785:1 2813:1 5803:1 17980:1 
10 1:1 2:1 3:1 4:1 5:1 6:1 7:1 8:1 10:1 11:1 12:1 13:1 14:1 15:1 16:1 17:1 18:1 19:1 20:1 21:1 23:1 24:1 25:1 26:1 27:1 30:1 31:1 32:1 33:1 34:1 38:1 40:1 43:1 48:1 50:1 56:1 63:1 64:1 67:1 68:1 69:1 78:1 80:1 83:1 84:1 87:1 88:1 90:1 92:1 96:1 105:1 106:1 115:1 116:1 121:1 123:1 125:1 127:1 128:1 131:1 137:1 140:1 145:1 148:1 151:1 153:1 156:1 157:1 158:1 159:1 162:1 163:1 164:1 169:1 171:1 172:1 187:1 195:1 197:1 198:1 201:1 210:1 213:1 214:1 215:1 219:1 251:1 253:1 256:1 262:1 264:1 268:1 269:1 275:1 276:1 277:1 283:1 312:1 336:1 339:1 361:1 369:1 375:1 386:1 407:1 424:1 435:1 447:1 451:1 455:1 457:1 481:1 490:1 495:1 524:1 525:1 530:1 534:1 535:1 567:1 672:1 708:1 715:1 716:1 731:1 732:1 736:1 763:1 771:1 817:1 836:1 868:1 900:1 916:1 940:1 943:1 967:1 990:1 1013:1 1016:1 1040:1 1130:1 1136:1 1221:1 1229:1 1271:1 1341:1 1541:1 1619:1 1871:1 2048:1 2051:1 2167:1 2276:1 2665:1 2670:1 2785:1 2959:1 3100:1 3153:1 3332:1 3333:1 4331:1 4523:1 5178:1 5204:1 5205:1 5848:1 5849:1 7090:1 9284:1 9286:1 9287:1 9288:1 15972:1 17983:1 17986:1 17987:1 17988:1 17989:1 17991:1 17992:1 17995:1 17997:1 18007:1 18009:1 18010:1 
10 1:1 2:1 3:1 4:1 5:1 6:1 7:1 8:1 10:1 13:1 14:1 15:1 17:1 18:1 19:1 20:1 21:1 25:1 32:1 43:1 45:1 48:1 56:1 71:1 73:1 84:1 88:1 90:1 105:1 115:1 121:1 137:1 143:1 157:1 229:1 238:1 246:1 303:1 380:1 397:1 401:1 589:1 673:1 794:1 1010:1 1349:1 1352:1 1944:1 2065:1 2342:1 2652:1 2784:1 2785:1 2849:1 2889:1 3057:1 3474:1 3862:1 4081:1 4428:1 4697:1 5852:1 5853:1 7094:1 7095:1 7096:1 9295:1 9299:1 9300:1 9302:1 9305:1 9306:1 9307:1 9308:1 28307:1 
10 1:1 2:1 3:1 4:1 5:1 8:1 13:1 14:1 15:1 18:1 20:1 21:1 23:1 24:1 27:1 29:1 32:1 34:1 47:1 48:1 63:1 66:1 68:1 69:1 80:1 84:1 90:1 95:1 97:1 113:1 115:1 116:1 117:1 121:1 137:1 148:1 155:1 179:1 224:1 297:1 342:1 349:1 408:1 446:1 586:1 646:1 683:1 755:1 806:1 1363:1 2785:1 3521:1 4331:1 7849:1 8804:1 18019:1 
10 1:1 2:1 3:1 4:1 5:1 6:1 7:1 8:1 10:1 11:1 12:1 13:1 15:1 16:1 18:1 19:1 20:1 24:1 25:1 26:1 27:1 28:1 32:1 40:1 43:1 44:1 52:1 56:1 68:1 90:1 92:1 96:1 115:1 121:1 126:1 137:1 151:1 156:1 164:1 171:1 180:1 186:1 213:1 312:1 347:1 351:1 449:1 563:1 596:1 597:1 600:1 661:1 703:1 798:1 860:1 988:1 1105:1 1579:1 1598:1 1678:1 1689:1 1780:1 1878:1 1915:1 2067:1 2134:1 2785:1 3057:1 7097:1 7098:1 7099:1 
10 1:1 3:1 4:1 8:1 10:1 12:1 13:1 15:1 18:1 20:1 21:1 38:1 43:1 44:1 47:1 48:1 58:1 68:1 90:1 100:1 117:1 120:1 186:1 266:1 297:1 317:1 324:1 346:1 464:1 1111:1 2433:1 2785:1 2959:1 8991:1 9321:1 18036:1 
10 1:1 2:1 3:1 4:1 5:1 6:1 7:1 8:1 10:1 11:1 12:1 13:1 14:1 15:1 16:1 17:1 18:1 19:1 20:1 21:1 23:1 25:1 26:1 30:1 31:1 32:1 33:1 36:1 38:1 45:1 48:1 50:1 55:1 56:1 58:1 63:1 67:1 68:1 83:1 90:1 94:1 106:1 112:1 115:1 124:1 126:1 130:1 137:1 139:1 146:1 151:1 156:1 164:1 166:1 169:1 171:1 172:1 199:1 202:1 211:1 215:1 227:1 233:1 266:1 280:1 292:1 306:1 328:1 352:1 435:1 465:1 481:1 490:1 567:1 576:1 596:1 690:1 739:1 824:1 1200:1 2785:1 
10 1:1 2:1 3:1 4:1 5:1 6:1 7:1 8:1 10:1 11:1 12:1 13:1 14:1 15:1 17:1 18:1 19:1 20:1 23:1 26:1 32:1 33:1 36:1 39:1 45:1 48:1 50:1 68:1 78:1 83:1 87:1 90:1 105:1 119:1 120:1 121:1 131:1 137:1 145:1 154:1 158:1 159:1 164:1 186:1 190:1 195:1 224:1 227:1 235:1 253:1 315:1 615:1 658:1 690:1 757:1 769:1 870:1 909:1 1028:1 1029:1 1080:1 1487:1 2055:1 2374:1 2468:1 2785:1 2959:1 3130:1 3595:1 3882:1 4227:1 4228:1 4229:1 4230:1 9280:1 
10 1:1 2:1 3:1 4:1 5:1 6:1 7:1 8:1 10:1 11:1 12:1 13:1 15:1 16:1 18:1 19:1 20:1 24:1 25:1 26:1 27:1 28:1 32:1 40:1 43:1 44:1 52:1 56:1 68:1 90:1 92:1 96:1 115:1 121:1 126:1 137:1 151:1 156:1 164:1 171:1 180:1 186:1 213:1 312:1 347:1 351:1 449:1 563:1 596:1 597:1 600:1 661:1 703:1 798:1 860:1 988:1 1105:1 1579:1 1598:1 1678:1 1689:1 1780:1 1878:1 1915:1 2067:1 2134:1 2785:1 3057:1 7097:1 7098:1 7099:1 
1.91825353298042 1:1 2:1 3:1 4:1 5:1 6:1 7:1 8:1 10:1 11:1 12:1 13:1 14:1 15:1 16:1 18:1 19:1 20:1 23:1 24:1 25:1 26:1 27:1 29:1 30:1 31:1 32:1 33:1 34:1 36:1 38:1 39:1 40:1 42:1 43:1 45:1 48:1 50:1 54:1 61:1 63:1 67:1 69:1 83:1 84:1 87:1 90:1 92:1 94:1 97:1 100:1 102:1 105:1 114:1 116:1 121:1 126:1 129:1 130:1 131:1 139:1 145:1 151:1 156:1 158:1 165:1 186:1 193:1 195:1 199:1 204:1 208:1 211:1 217:1 218:1 221:1 224:1 249:1 262:1 264:1 275:1 298:1 302:1 306:1 315:1 339:1 342:1 352:1 356:1 370:1 375:1 400:1 405:1 408:1 435:1 463:1 465:1 473:1 483:1 576:1 614:1 630:1 660:1 738:1 761:1 772:1 824:1 893:1 927:1 933:1 982:1 987:1 1160:1 1197:1 1200:1 1202:1 1226:1 1232:1 1630:1 1718:1 1860:1 2094:1 2785:1 3320:1 3782:1 3869:1 4167:1 4951:1 5028:1 6096:1 6375:1 7109:1 7110:1 7111:1 9327:1 18076:1 18077:1 18078:1 
10 1:1 2:1 3:1 4:1 5:1 7:1 8:1 13:1 14:1 15:1 18:1 32:1 48:1 64:1 68:1 87:1 95:1 120:1 121:1 122:1 137:1 144:1 186:1 208:1 242:1 271:1 339:1 352:1 451:1 661:1 831:1 907:1 909:1 1709:1 2785:1 3194:1 3505:1 
10 1:1 2:1 3:1 4:1 5:1 6:1 7:1 8:1 10:1 11:1 12:1 13:1 14:1 15:1 16:1 17:1 18:1 19:1 20:1 21:1 23:1 24:1 25:1 26:1 27:1 29:1 30:1 33:1 34:1 36:1 38:1 42:1 45:1 48:1 52:1 54:1 55:1 56:1 58:1 64:1 66:1 68:1 69:1 73:1 87:1 88:1 90:1 92:1 94:1 105:1 106:1 112:1 114:1 116:1 120:1 125:1 130:1 131:1 137:1 138:1 143:1 147:1 151:1 155:1 157:1 158:1 159:1 160:1 162:1 165:1 166:1 171:1 187:1 190:1 199:1 201:1 204:1 206:1 214:1 218:1 219:1 221:1 224:1 227:1 249:1 251:1 256:1 262:1 274:1 275:1 282:1 306:1 312:1 342:1 347:1 352:1 354:1 363:1 370:1 375:1 386:1 390:1 391:1 413:1 453:1 460:1 480:1 504:1 506:1 527:1 618:1 638:1 755:1 757:1 769:1 776:1 783:1 796:1 824:1 915:1 957:1 988:1 1001:1 1010:1 1028:1 1080:1 1156:1 1169:1 1191:1 1217:1 1269:1 1375:1 1433:1 1563:1 1720:1 1796:1 1816:1 1824:1 1870:1 2577:1 2785:1 2850:1 3462:1 3828:1 4059:1 4118:1 4976:1 6774:1 7118:1 7119:1 9332:1 9333:1 9335:1 18133:1 18134:1 18136:1 18137:1 18138:1 18141:1 18142:1 18144:1 18145:1 
10 1:1 4:1 8:1 12:1 15:1 18:1 20:1 48:1 65:1 68:1 71:1 90:1 100:1 120:1 122:1 199:1 586:1 2785:1 3887:1 18165:1 18166:1 18168:1 18169:1 18170:1 18171:1 18172:1 18173:1 18174:1 18175:1 18176:1 18177:1 18178:1 18182:1 18184:1 18185:1 18186:1 18187:1 18189:1 18190:1 18191:1 18192:1 18193:1 18194:1 18195:1 18196:1 18198:1 18199:1 18200:1 18201:1 18202:1 18203:1 18204:1 18207:1 18208:1 18209:1 18210:1 18212:1 18213:1 18214:1 18216:1 18217:1 18218:1 18220:1 18221:1 18222:1 18224:1 18226:1 18227:1 18228:1 18229:1 18230:1 18235:1 18236:1 18238:1 18239:1 18240:1 18241:1 18242:1 18243:1 18245:1 18246:1 18247:1 18248:1 18250:1 18251:1 18253:1 
