svm_type c_svc
kernel_type rbf
gamma 0.00052659294365455498
nr_class 2
total_sv 784
rho 0.9599871510698369
label 1 0
nr_sv 380 404
SV
4.0504953850701808 5:1 7:1 74:1 86:1 116:1 139:1 162:1 176:1 224:1 238:1 321:1 325:1 383:1 476:1 481:1 571:1 640:1 666:1 672:1 756:1 799:1 819:1 947:1 1015:1 1066:1 1164:1 1191:1 1192:1 1221:1 1309:1 1343:1 1350:1 1359:1 1382:1 1666:1 1676:1 1699:1 1766:1 1809:1 1819:1 1852:1 1869:1 1873:1 1893:1 1895:1 
9.5480697065063787 52:1 108:1 148:1 200:1 206:1 219:1 227:1 259:1 277:1 308:1 320:1 354:1 391:1 405:1 481:1 530:1 531:1 536:1 555:1 607:1 619:1 625:1 634:1 635:1 673:1 736:1 768:1 772:1 773:1 790:1 797:1 798:1 799:1 804:1 816:1 825:1 863:1 877:1 881:1 883:1 886:1 902:1 922:1 941:1 961:1 992:1 1007:1 1089:1 1095:1 1113:1 1120:1 1121:1 1123:1 1124:1 1126:1 1127:1 1128:1 1129:1 1130:1 1132:1 1133:1 1134:1 1135:1 1136:1 1137:1 1138:1 1139:1 1140:1 1141:1 1143:1 1262:1 1309:1 1353:1 1369:1 1425:1 1441:1 1448:1 1489:1 1492:1 1501:1 1526:1 1536:1 1572:1 1575:1 1606:1 1638:1 1640:1 1666:1 1676:1 1694:1 1711:1 1741:1 1785:1 1788:1 1792:1 1822:1 1850:1 1871:1 
10 53:1 298:1 352:1 365:1 530:1 560:1 631:1 756:1 775:1 810:1 825:1 956:1 975:1 1106:1 1120:1 1182:1 1264:1 1373:1 1408:1 1425:1 1665:1 1676:1 1699:1 1758:1 1766:1 1876:1 1893:1 
10 41:1 53:1 74:1 80:1 103:1 116:1 181:1 182:1 218:1 230:1 238:1 246:1 273:1 479:1 483:1 567:1 572:1 666:1 681:1 712:1 726:1 756:1 799:1 827:1 953:1 963:1 982:1 1072:1 1098:1 1117:1 1120:1 1162:1 1182:1 1204:1 1231:1 1319:1 1373:1 1451:1 1665:1 1666:1 1669:1 1671:1 1696:1 1793:1 1852:1 1860:1 1869:1 1887:1 1893:1 
10 74:1 162:1 176:1 280:1 368:1 688:1 698:1 700:1 756:1 799:1 825:1 877:1 883:1 902:1 958:1 959:1 977:1 980:1 992:1 1048:1 1114:1 1115:1 1162:1 1171:1 1192:1 1281:1 1384:1 1396:1 1398:1 1412:1 1483:1 1518:1 1607:1 1666:1 1694:1 1699:1 1860:1 1875:1 1880:1 1893:1 1895:1 
8.9209719273455974 32:1 53:1 60:1 74:1 103:1 114:1 116:1 124:1 139:1 162:1 168:1 174:1 227:1 234:1 300:1 309:1 321:1 322:1 352:1 367:1 374:1 407:1 445:1 458:1 460:1 479:1 480:1 486:1 529:1 544:1 571:1 646:1 666:1 669:1 692:1 708:1 712:1 714:1 735:1 756:1 794:1 799:1 810:1 822:1 825:1 826:1 829:1 840:1 856:1 860:1 862:1 863:1 865:1 877:1 883:1 892:1 924:1 928:1 956:1 996:1 1064:1 1080:1 1086:1 1095:1 1099:1 1116:1 1120:1 1162:1 1171:1 1172:1 1184:1 1197:1 1227:1 1263:1 1290:1 1330:1 1337:1 1373:1 1384:1 1386:1 1392:1 1398:1 1425:1 1427:1 1462:1 1473:1 1520:1 1523:1 1546:1 1608:1 1611:1 1613:1 1636:1 1666:1 1668:1 1669:1 1671:1 1683:1 1699:1 1700:1 1717:1 1719:1 1743:1 1765:1 1766:1 1809:1 1819:1 1822:1 1824:1 1827:1 1831:1 1838:1 1852:1 1860:1 1872:1 1876:1 1886:1 1893:1 1895:1 
3.3918636742405659 4:1 5:1 7:1 21:1 23:1 24:1 25:1 39:1 53:1 57:1 60:1 63:1 64:1 65:1 70:1 71:1 74:1 75:1 77:1 80:1 81:1 87:1 89:1 90:1 94:1 98:1 100:1 103:1 114:1 116:1 118:1 124:1 126:1 129:1 131:1 134:1 137:1 138:1 147:1 157:1 158:1 162:1 165:1 167:1 168:1 174:1 179:1 198:1 204:1 208:1 219:1 224:1 225:1 227:1 234:1 238:1 247:1 252:1 256:1 263:1 271:1 272:1 276:1 277:1 279:1 280:1 295:1 296:1 298:1 300:1 309:1 311:1 314:1 330:1 334:1 342:1 352:1 354:1 364:1 365:1 371:1 373:1 381:1 387:1 388:1 393:1 394:1 407:1 408:1 436:1 438:1 442:1 449:1 452:1 461:1 463:1 464:1 471:1 479:1 481:1 487:1 491:1 501:1 506:1 507:1 518:1 522:1 525:1 529:1 530:1 531:1 539:1 540:1 554:1 561:1 567:1 571:1 574:1 575:1 576:1 584:1 585:1 586:1 592:1 594:1 600:1 601:1 609:1 610:1 631:1 633:1 638:1 639:1 643:1 646:1 652:1 655:1 663:1 666:1 672:1 673:1 681:1 688:1 694:1 695:1 708:1 712:1 718:1 731:1 732:1 739:1 743:1 745:1 748:1 756:1 759:1 763:1 771:1 775:1 787:1 789:1 792:1 794:1 797:1 799:1 802:1 805:1 810:1 820:1 825:1 827:1 828:1 840:1 847:1 850:1 852:1 860:1 863:1 873:1 877:1 880:1 881:1 882:1 883:1 887:1 889:1 891:1 893:1 902:1 904:1 924:1 929:1 936:1 938:1 939:1 941:1 945:1 953:1 956:1 957:1 958:1 959:1 960:1 961:1 963:1 964:1 971:1 974:1 976:1 981:1 985:1 988:1 989:1 994:1 996:1 997:1 1002:1 1009:1 1018:1 1025:1 1026:1 1027:1 1032:1 1036:1 1038:1 1042:1 1060:1 1062:1 1063:1 1064:1 1067:1 1084:1 1089:1 1092:1 1093:1 1095:1 1098:1 1099:1 1100:1 1101:1 1103:1 1106:1 1113:1 1116:1 1117:1 1118:1 1120:1 1159:1 1162:1 1163:1 1164:1 1170:1 1171:1 1173:1 1174:1 1175:1 1176:1 1177:1 1178:1 1182:1 1183:1 1187:1 1189:1 1191:1 1192:1 1196:1 1197:1 1202:1 1203:1 1210:1 1221:1 1230:1 1238:1 1249:1 1255:1 1257:1 1264:1 1265:1 1269:1 1271:1 1280:1 1284:1 1291:1 1292:1 1299:1 1304:1 1309:1 1311:1 1315:1 1316:1 1319:1 1324:1 1338:1 1346:1 1347:1 1349:1 1352:1 1357:1 1360:1 1365:1 1366:1 1368:1 1369:1 1371:1 1373:1 1384:1 1388:1 1390:1 1391:1 1392:1 1405:1 1415:1 1418:1 1421:1 1425:1 1440:1 1443:1 1452:1 1454:1 1464:1 1465:1 1468:1 1475:1 1477:1 1483:1 1491:1 1493:1 1494:1 1498:1 1503:1 1510:1 1511:1 1512:1 1516:1 1517:1 1521:1 1523:1 1528:1 1538:1 1541:1 1543:1 1545:1 1547:1 1548:1 1566:1 1584:1 1588:1 1590:1 1592:1 1597:1 1607:1 1608:1 1609:1 1610:1 1612:1 1615:1 1622:1 1623:1 1631:1 1636:1 1637:1 1640:1 1662:1 1663:1 1665:1 1666:1 1667:1 1668:1 1669:1 1671:1 1673:1 1675:1 1676:1 1677:1 1678:1 1681:1 1682:1 1687:1 1694:1 1695:1 1699:1 1700:1 1703:1 1710:1 1717:1 1731:1 1740:1 1741:1 1753:1 1758:1 1760:1 1765:1 1766:1 1773:1 1780:1 1785:1 1788:1 1793:1 1796:1 1801:1 1803:1 1804:1 1805:1 1809:1 1819:1 1822:1 1824:1 1827:1 1831:1 1833:1 1835:1 1837:1 1838:1 1840:1 1847:1 1852:1 1854:1 1855:1 1857:1 1860:1 1868:1 1869:1 1872:1 1876:1 1878:1 1880:1 1881:1 1882:1 1889:1 1891:1 1893:1 1895:1 
4.4257255409749376 11:1 13:1 20:1 39:1 41:1 60:1 74:1 75:1 95:1 103:1 110:1 118:1 124:1 162:1 182:1 227:1 234:1 238:1 246:1 262:1 276:1 279:1 280:1 287:1 305:1 318:1 345:1 352:1 370:1 371:1 374:1 383:1 387:1 408:1 440:1 448:1 471:1 474:1 508:1 530:1 549:1 574:1 580:1 581:1 602:1 666:1 676:1 688:1 692:1 697:1 743:1 756:1 759:1 763:1 795:1 799:1 810:1 825:1 840:1 841:1 848:1 860:1 862:1 877:1 883:1 905:1 916:1 932:1 945:1 956:1 961:1 982:1 997:1 1032:1 1048:1 1051:1 1064:1 1067:1 1093:1 1099:1 1106:1 1111:1 1113:1 1117:1 1120:1 1162:1 1164:1 1171:1 1172:1 1173:1 1176:1 1182:1 1189:1 1191:1 1204:1 1230:1 1231:1 1244:1 1264:1 1276:1 1294:1 1299:1 1315:1 1349:1 1380:1 1400:1 1426:1 1452:1 1464:1 1477:1 1483:1 1493:1 1516:1 1518:1 1538:1 1582:1 1584:1 1607:1 1609:1 1631:1 1663:1 1665:1 1666:1 1668:1 1671:1 1673:1 1675:1 1676:1 1699:1 1708:1 1735:1 1758:1 1759:1 1760:1 1766:1 1773:1 1804:1 1805:1 1809:1 1819:1 1824:1 1837:1 1840:1 1852:1 1859:1 1860:1 1862:1 1868:1 1871:1 1876:1 1893:1 1895:1 1898:1 
10 5:1 11:1 24:1 53:1 60:1 74:1 124:1 138:1 139:1 162:1 168:1 170:1 176:1 224:1 227:1 280:1 284:1 289:1 300:1 310:1 311:1 316:1 320:1 336:1 344:1 364:1 387:1 408:1 532:1 540:1 567:1 572:1 575:1 616:1 663:1 666:1 688:1 692:1 708:1 748:1 756:1 799:1 800:1 825:1 829:1 840:1 869:1 873:1 877:1 882:1 894:1 926:1 929:1 952:1 969:1 980:1 1001:1 1009:1 1024:1 1032:1 1051:1 1053:1 1062:1 1064:1 1067:1 1080:1 1097:1 1099:1 1113:1 1120:1 1162:1 1165:1 1171:1 1173:1 1182:1 1196:1 1218:1 1262:1 1264:1 1271:1 1281:1 1316:1 1371:1 1386:1 1398:1 1419:1 1445:1 1493:1 1498:1 1503:1 1538:1 1553:1 1590:1 1596:1 1631:1 1664:1 1666:1 1673:1 1676:1 1699:1 1701:1 1715:1 1773:1 1788:1 1796:1 1824:1 1830:1 1834:1 1840:1 1852:1 1858:1 1860:1 1871:1 1889:1 1893:1 
10 31:1 174:1 320:1 393:1 435:1 486:1 531:1 619:1 637:1 666:1 681:1 708:1 735:1 736:1 739:1 756:1 799:1 810:1 825:1 840:1 876:1 894:1 940:1 942:1 959:1 960:1 961:1 977:1 995:1 1001:1 1120:1 1162:1 1164:1 1174:1 1245:1 1264:1 1305:1 1426:1 1521:1 1584:1 1610:1 1623:1 1666:1 1676:1 1699:1 1744:1 1766:1 1773:1 1822:1 1859:1 1867:1 1893:1 1895:1 
10 5:1 64:1 74:1 75:1 124:1 182:1 225:1 234:1 238:1 309:1 311:1 490:1 666:1 681:1 770:1 791:1 799:1 818:1 825:1 877:1 883:1 947:1 953:1 976:1 981:1 992:1 997:1 1015:1 1018:1 1044:1 1067:1 1084:1 1113:1 1120:1 1162:1 1171:1 1175:1 1197:1 1242:1 1244:1 1256:1 1368:1 1499:1 1513:1 1607:1 1638:1 1665:1 1666:1 1699:1 1704:1 1731:1 1743:1 1760:1 1788:1 1799:1 1804:1 1860:1 1893:1 1895:1 
10 49:1 103:1 116:1 124:1 162:1 176:1 218:1 227:1 238:1 279:1 408:1 426:1 430:1 568:1 575:1 688:1 727:1 799:1 810:1 825:1 963:1 992:1 1064:1 1117:1 1120:1 1162:1 1163:1 1165:1 1182:1 1191:1 1204:1 1282:1 1384:1 1386:1 1431:1 1445:1 1510:1 1535:1 1559:1 1666:1 1671:1 1694:1 1760:1 1796:1 1824:1 1838:1 1847:1 1893:1 1895:1 
6.1883371702696648 11:1 89:1 103:1 142:1 165:1 174:1 298:1 393:1 487:1 530:1 531:1 572:1 620:1 666:1 669:1 681:1 688:1 735:1 756:1 799:1 825:1 840:1 867:1 876:1 960:1 961:1 977:1 995:1 1117:1 1120:1 1179:1 1228:1 1338:1 1373:1 1539:1 1610:1 1622:1 1676:1 1699:1 1744:1 1758:1 1773:1 1827:1 1860:1 1867:1 1893:1 1895:1 
10 156:1 219:1 227:1 277:1 320:1 354:1 481:1 530:1 531:1 538:1 619:1 736:1 799:1 816:1 825:1 877:1 880:1 883:1 886:1 902:1 1095:1 1102:1 1120:1 1123:1 1257:1 1262:1 1369:1 1501:1 1572:1 1662:1 1666:1 1676:1 1694:1 1722:1 1741:1 1871:1 
10 74:1 103:1 105:1 227:1 242:1 311:1 440:1 445:1 474:1 540:1 550:1 666:1 739:1 743:1 775:1 825:1 877:1 902:1 924:1 966:1 1015:1 1025:1 1064:1 1077:1 1120:1 1162:1 1163:1 1175:1 1191:1 1218:1 1334:1 1374:1 1444:1 1526:1 1665:1 1666:1 1667:1 1668:1 1699:1 1860:1 1865:1 1871:1 1893:1 1895:1 
2.952050172621203 12:1 13:1 16:1 19:1 53:1 54:1 70:1 74:1 75:1 103:1 116:1 124:1 162:1 166:1 176:1 207:1 213:1 224:1 227:1 238:1 277:1 309:1 321:1 328:1 350:1 351:1 352:1 354:1 365:1 367:1 370:1 381:1 385:1 388:1 389:1 398:1 425:1 445:1 474:1 477:1 479:1 486:1 499:1 506:1 517:1 531:1 538:1 546:1 553:1 577:1 589:1 607:1 623:1 631:1 640:1 648:1 651:1 652:1 666:1 676:1 677:1 681:1 688:1 697:1 698:1 708:1 712:1 713:1 719:1 738:1 751:1 753:1 771:1 790:1 794:1 797:1 799:1 803:1 810:1 822:1 825:1 826:1 838:1 840:1 859:1 863:1 877:1 880:1 883:1 888:1 902:1 904:1 931:1 937:1 956:1 958:1 976:1 992:1 1014:1 1032:1 1036:1 1043:1 1062:1 1063:1 1078:1 1079:1 1089:1 1093:1 1099:1 1113:1 1120:1 1125:1 1146:1 1162:1 1164:1 1171:1 1181:1 1182:1 1183:1 1189:1 1191:1 1192:1 1203:1 1218:1 1220:1 1255:1 1257:1 1262:1 1264:1 1289:1 1307:1 1315:1 1316:1 1317:1 1319:1 1322:1 1334:1 1341:1 1349:1 1353:1 1373:1 1386:1 1391:1 1400:1 1408:1 1416:1 1425:1 1473:1 1475:1 1492:1 1493:1 1495:1 1498:1 1507:1 1519:1 1523:1 1541:1 1543:1 1582:1 1584:1 1593:1 1594:1 1607:1 1612:1 1616:1 1623:1 1631:1 1633:1 1646:1 1648:1 1649:1 1662:1 1665:1 1666:1 1669:1 1671:1 1676:1 1699:1 1704:1 1710:1 1716:1 1722:1 1741:1 1755:1 1758:1 1760:1 1766:1 1788:1 1791:1 1804:1 1809:1 1819:1 1822:1 1824:1 1840:1 1841:1 1844:1 1852:1 1860:1 1869:1 1876:1 1878:1 1882:1 1893:1 1895:1 
10 145:1 227:1 260:1 391:1 471:1 663:1 699:1 718:1 799:1 816:1 959:1 961:1 1106:1 1120:1 1171:1 1284:1 1299:1 1441:1 1461:1 1666:1 1699:1 1758:1 
10 21:1 25:1 41:1 53:1 64:1 71:1 74:1 75:1 103:1 147:1 165:1 175:1 204:1 213:1 224:1 238:1 299:1 352:1 354:1 381:1 440:1 458:1 461:1 481:1 525:1 530:1 531:1 544:1 584:1 622:1 631:1 666:1 676:1 681:1 688:1 724:1 756:1 763:1 771:1 780:1 799:1 810:1 825:1 829:1 860:1 877:1 902:1 916:1 947:1 956:1 959:1 965:1 976:1 1018:1 1064:1 1084:1 1113:1 1120:1 1162:1 1164:1 1172:1 1173:1 1180:1 1182:1 1184:1 1264:1 1280:1 1324:1 1372:1 1390:1 1393:1 1400:1 1405:1 1421:1 1462:1 1477:1 1493:1 1520:1 1523:1 1538:1 1545:1 1665:1 1666:1 1668:1 1669:1 1676:1 1694:1 1699:1 1719:1 1804:1 1809:1 1816:1 1822:1 1852:1 1860:1 1876:1 1886:1 1893:1 1895:1 
0.64177875597282807 4:1 5:1 6:1 7:1 11:1 13:1 16:1 17:1 20:1 21:1 23:1 25:1 27:1 30:1 31:1 36:1 39:1 41:1 46:1 48:1 53:1 54:1 55:1 56:1 57:1 58:1 60:1 63:1 64:1 65:1 66:1 67:1 68:1 69:1 70:1 71:1 74:1 75:1 77:1 80:1 81:1 86:1 87:1 88:1 89:1 95:1 103:1 106:1 114:1 116:1 118:1 124:1 129:1 135:1 138:1 139:1 140:1 141:1 142:1 146:1 147:1 148:1 157:1 162:1 165:1 166:1 167:1 168:1 169:1 173:1 174:1 175:1 176:1 178:1 179:1 181:1 189:1 194:1 195:1 197:1 198:1 201:1 204:1 210:1 211:1 213:1 218:1 219:1 222:1 224:1 225:1 227:1 238:1 240:1 244:1 245:1 246:1 247:1 251:1 253:1 256:1 263:1 266:1 268:1 271:1 272:1 276:1 277:1 280:1 283:1 290:1 292:1 296:1 298:1 307:1 309:1 311:1 314:1 315:1 316:1 320:1 322:1 326:1 328:1 334:1 343:1 345:1 346:1 352:1 353:1 354:1 355:1 356:1 364:1 365:1 370:1 371:1 373:1 376:1 381:1 383:1 387:1 388:1 393:1 412:1 424:1 425:1 434:1 436:1 437:1 440:1 450:1 452:1 455:1 461:1 471:1 474:1 476:1 479:1 481:1 485:1 486:1 489:1 496:1 501:1 502:1 504:1 506:1 508:1 518:1 519:1 522:1 525:1 529:1 530:1 531:1 539:1 540:1 547:1 550:1 553:1 554:1 561:1 563:1 567:1 571:1 574:1 575:1 576:1 577:1 580:1 581:1 582:1 589:1 592:1 597:1 602:1 605:1 608:1 609:1 614:1 616:1 617:1 618:1 626:1 631:1 633:1 636:1 640:1 643:1 646:1 648:1 649:1 652:1 653:1 658:1 660:1 662:1 663:1 666:1 667:1 670:1 672:1 677:1 679:1 681:1 688:1 692:1 697:1 698:1 707:1 708:1 710:1 711:1 712:1 718:1 719:1 721:1 724:1 726:1 732:1 735:1 739:1 743:1 745:1 749:1 752:1 756:1 758:1 761:1 763:1 764:1 771:1 775:1 778:1 779:1 782:1 784:1 785:1 786:1 787:1 792:1 794:1 797:1 799:1 801:1 802:1 805:1 810:1 819:1 822:1 823:1 824:1 825:1 827:1 828:1 829:1 837:1 838:1 840:1 846:1 850:1 852:1 857:1 860:1 863:1 865:1 873:1 877:1 879:1 880:1 881:1 882:1 883:1 884:1 889:1 894:1 901:1 902:1 904:1 906:1 910:1 915:1 916:1 918:1 921:1 922:1 924:1 926:1 928:1 930:1 932:1 933:1 936:1 939:1 940:1 944:1 945:1 946:1 947:1 948:1 953:1 956:1 957:1 958:1 959:1 961:1 963:1 964:1 965:1 974:1 975:1 976:1 977:1 980:1 981:1 982:1 985:1 989:1 991:1 992:1 994:1 997:1 1002:1 1003:1 1009:1 1012:1 1013:1 1015:1 1017:1 1018:1 1019:1 1024:1 1025:1 1026:1 1028:1 1029:1 1032:1 1033:1 1038:1 1042:1 1044:1 1048:1 1049:1 1060:1 1062:1 1064:1 1067:1 1077:1 1080:1 1083:1 1084:1 1086:1 1089:1 1093:1 1095:1 1098:1 1099:1 1100:1 1101:1 1106:1 1113:1 1117:1 1120:1 1126:1 1157:1 1158:1 1162:1 1163:1 1164:1 1167:1 1168:1 1170:1 1171:1 1172:1 1173:1 1174:1 1175:1 1176:1 1178:1 1182:1 1183:1 1186:1 1189:1 1191:1 1192:1 1196:1 1197:1 1203:1 1210:1 1212:1 1216:1 1230:1 1231:1 1234:1 1236:1 1242:1 1244:1 1247:1 1249:1 1250:1 1255:1 1257:1 1264:1 1269:1 1271:1 1273:1 1279:1 1280:1 1281:1 1282:1 1284:1 1299:1 1304:1 1308:1 1309:1 1311:1 1314:1 1315:1 1318:1 1319:1 1325:1 1334:1 1337:1 1338:1 1340:1 1341:1 1347:1 1349:1 1351:1 1359:1 1360:1 1361:1 1364:1 1365:1 1366:1 1367:1 1368:1 1369:1 1370:1 1371:1 1372:1 1373:1 1381:1 1390:1 1392:1 1395:1 1396:1 1398:1 1400:1 1405:1 1406:1 1408:1 1410:1 1411:1 1412:1 1413:1 1414:1 1415:1 1420:1 1425:1 1426:1 1427:1 1431:1 1439:1 1440:1 1442:1 1443:1 1444:1 1445:1 1446:1 1456:1 1460:1 1464:1 1465:1 1466:1 1467:1 1468:1 1471:1 1473:1 1475:1 1477:1 1480:1 1481:1 1483:1 1485:1 1491:1 1493:1 1494:1 1498:1 1503:1 1504:1 1508:1 1509:1 1510:1 1511:1 1512:1 1513:1 1515:1 1517:1 1518:1 1519:1 1521:1 1522:1 1523:1 1535:1 1538:1 1544:1 1545:1 1546:1 1547:1 1552:1 1555:1 1558:1 1564:1 1566:1 1567:1 1570:1 1571:1 1572:1 1581:1 1584:1 1588:1 1590:1 1592:1 1594:1 1595:1 1596:1 1604:1 1605:1 1607:1 1608:1 1609:1 1610:1 1612:1 1615:1 1619:1 1625:1 1631:1 1633:1 1635:1 1636:1 1638:1 1640:1 1646:1 1647:1 1652:1 1660:1 1662:1 1663:1 1665:1 1666:1 1667:1 1668:1 1669:1 1670:1 1671:1 1673:1 1675:1 1676:1 1677:1 1678:1 1681:1 1683:1 1684:1 1688:1 1694:1 1695:1 1696:1 1699:1 1700:1 1701:1 1703:1 1708:1 1711:1 1713:1 1715:1 1717:1 1719:1 1723:1 1725:1 1731:1 1734:1 1735:1 1740:1 1741:1 1746:1 1748:1 1751:1 1753:1 1758:1 1760:1 1766:1 1777:1 1779:1 1780:1 1785:1 1788:1 1790:1 1793:1 1796:1 1799:1 1803:1 1804:1 1805:1 1809:1 1818:1 1819:1 1820:1 1822:1 1824:1 1827:1 1828:1 1829:1 1831:1 1833:1 1835:1 1837:1 1840:1 1841:1 1844:1 1847:1 1851:1 1852:1 1854:1 1857:1 1860:1 1861:1 1862:1 1865:1 1866:1 1868:1 1869:1 1871:1 1872:1 1873:1 1876:1 1877:1 1878:1 1879:1 1880:1 1881:1 1882:1 1886:1 1887:1 1889:1 1893:1 1895:1 1896:1 
3.6496445565953883 53:1 69:1 74:1 75:1 143:1 163:1 229:1 234:1 306:1 352:1 367:1 378:1 383:1 393:1 471:1 491:1 530:1 531:1 557:1 582:1 587:1 611:1 623:1 724:1 787:1 793:1 799:1 899:1 929:1 952:1 956:1 968:1 1066:1 1086:1 1089:1 1106:1 1120:1 1151:1 1162:1 1165:1 1171:1 1178:1 1182:1 1244:1 1273:1 1304:1 1324:1 1353:1 1359:1 1398:1 1405:1 1545:1 1585:1 1656:1 1699:1 1766:1 1779:1 1819:1 1835:1 1852:1 1876:1 1893:1 
3.7074900844199665 5:1 6:1 7:1 12:1 18:1 23:1 24:1 29:1 31:1 43:1 44:1 53:1 55:1 57:1 58:1 60:1 61:1 68:1 69:1 71:1 74:1 75:1 84:1 89:1 97:1 98:1 103:1 108:1 116:1 121:1 124:1 134:1 136:1 139:1 157:1 162:1 165:1 166:1 167:1 168:1 175:1 176:1 183:1 195:1 224:1 225:1 227:1 232:1 238:1 249:1 251:1 256:1 267:1 272:1 277:1 299:1 306:1 308:1 310:1 316:1 320:1 321:1 322:1 328:1 330:1 332:1 333:1 337:1 346:1 350:1 352:1 354:1 360:1 361:1 368:1 370:1 371:1 376:1 381:1 387:1 393:1 394:1 401:1 408:1 409:1 412:1 422:1 428:1 433:1 436:1 440:1 445:1 452:1 453:1 456:1 468:1 474:1 477:1 482:1 485:1 486:1 493:1 495:1 499:1 503:1 505:1 514:1 523:1 525:1 530:1 531:1 538:1 540:1 544:1 546:1 549:1 553:1 562:1 565:1 567:1 571:1 575:1 589:1 592:1 593:1 596:1 597:1 607:1 609:1 616:1 631:1 633:1 638:1 639:1 645:1 654:1 655:1 663:1 664:1 666:1 669:1 676:1 687:1 688:1 697:1 698:1 707:1 708:1 712:1 727:1 730:1 735:1 743:1 746:1 750:1 756:1 759:1 763:1 765:1 771:1 778:1 789:1 792:1 795:1 797:1 799:1 801:1 805:1 810:1 811:1 812:1 819:1 821:1 822:1 825:1 827:1 829:1 832:1 837:1 838:1 843:1 847:1 853:1 860:1 867:1 871:1 873:1 877:1 880:1 883:1 885:1 904:1 912:1 918:1 924:1 933:1 939:1 945:1 949:1 952:1 953:1 956:1 958:1 961:1 964:1 976:1 978:1 979:1 982:1 983:1 991:1 992:1 996:1 997:1 1004:1 1009:1 1020:1 1032:1 1033:1 1042:1 1048:1 1050:1 1052:1 1055:1 1060:1 1062:1 1064:1 1067:1 1080:1 1086:1 1087:1 1090:1 1093:1 1099:1 1101:1 1102:1 1106:1 1108:1 1113:1 1114:1 1120:1 1125:1 1158:1 1162:1 1163:1 1171:1 1173:1 1175:1 1176:1 1181:1 1182:1 1189:1 1191:1 1192:1 1196:1 1223:1 1227:1 1230:1 1231:1 1232:1 1233:1 1238:1 1242:1 1248:1 1251:1 1255:1 1256:1 1264:1 1269:1 1278:1 1281:1 1284:1 1286:1 1287:1 1292:1 1296:1 1299:1 1305:1 1309:1 1311:1 1315:1 1318:1 1322:1 1326:1 1330:1 1334:1 1358:1 1359:1 1364:1 1370:1 1372:1 1373:1 1378:1 1380:1 1381:1 1384:1 1388:1 1389:1 1390:1 1406:1 1415:1 1425:1 1427:1 1433:1 1436:1 1439:1 1445:1 1452:1 1464:1 1468:1 1477:1 1483:1 1493:1 1494:1 1503:1 1508:1 1510:1 1520:1 1526:1 1538:1 1545:1 1567:1 1584:1 1588:1 1603:1 1611:1 1613:1 1614:1 1617:1 1623:1 1625:1 1631:1 1636:1 1646:1 1648:1 1655:1 1656:1 1662:1 1663:1 1664:1 1665:1 1666:1 1667:1 1668:1 1669:1 1671:1 1673:1 1674:1 1676:1 1677:1 1681:1 1687:1 1694:1 1699:1 1700:1 1715:1 1720:1 1722:1 1723:1 1726:1 1740:1 1741:1 1745:1 1766:1 1773:1 1776:1 1779:1 1782:1 1787:1 1788:1 1804:1 1819:1 1824:1 1837:1 1840:1 1844:1 1852:1 1859:1 1860:1 1862:1 1869:1 1871:1 1872:1 1875:1 1889:1 1893:1 1895:1 
5.4654496777113684 61:1 156:1 207:1 277:1 354:1 538:1 673:1 797:1 825:1 877:1 1032:1 1043:1 1078:1 1079:1 1102:1 1212:1 1537:1 1662:1 1676:1 1722:1 1741:1 
0.05348588441736523 19:1 41:1 53:1 58:1 71:1 74:1 75:1 78:1 103:1 116:1 121:1 131:1 135:1 136:1 140:1 155:1 162:1 175:1 198:1 216:1 218:1 224:1 225:1 227:1 238:1 240:1 259:1 286:1 298:1 321:1 324:1 328:1 345:1 354:1 364:1 365:1 367:1 370:1 381:1 387:1 388:1 389:1 428:1 436:1 438:1 454:1 458:1 464:1 465:1 468:1 473:1 487:1 491:1 495:1 501:1 506:1 508:1 518:1 520:1 530:1 537:1 539:1 540:1 549:1 567:1 571:1 604:1 617:1 618:1 626:1 631:1 639:1 650:1 653:1 666:1 673:1 681:1 731:1 742:1 745:1 753:1 756:1 775:1 779:1 793:1 794:1 799:1 804:1 810:1 817:1 818:1 822:1 825:1 827:1 830:1 837:1 840:1 859:1 861:1 862:1 863:1 877:1 883:1 930:1 938:1 953:1 956:1 957:1 958:1 959:1 976:1 987:1 990:1 992:1 996:1 1003:1 1009:1 1014:1 1018:1 1022:1 1025:1 1030:1 1044:1 1047:1 1048:1 1062:1 1064:1 1077:1 1089:1 1095:1 1099:1 1100:1 1106:1 1108:1 1109:1 1113:1 1117:1 1118:1 1120:1 1134:1 1162:1 1163:1 1164:1 1171:1 1173:1 1175:1 1178:1 1181:1 1182:1 1189:1 1191:1 1192:1 1195:1 1197:1 1203:1 1218:1 1219:1 1221:1 1228:1 1230:1 1240:1 1245:1 1264:1 1266:1 1279:1 1292:1 1301:1 1302:1 1312:1 1314:1 1315:1 1316:1 1317:1 1324:1 1334:1 1337:1 1341:1 1351:1 1361:1 1366:1 1369:1 1371:1 1375:1 1376:1 1381:1 1401:1 1406:1 1432:1 1445:1 1447:1 1452:1 1459:1 1467:1 1468:1 1477:1 1483:1 1492:1 1494:1 1498:1 1507:1 1511:1 1523:1 1526:1 1533:1 1540:1 1541:1 1552:1 1558:1 1568:1 1581:1 1594:1 1631:1 1663:1 1665:1 1666:1 1668:1 1673:1 1676:1 1688:1 1694:1 1699:1 1700:1 1710:1 1717:1 1718:1 1719:1 1730:1 1738:1 1740:1 1751:1 1758:1 1766:1 1773:1 1788:1 1791:1 1792:1 1793:1 1794:1 1822:1 1827:1 1841:1 1847:1 1852:1 1855:1 1860:1 1861:1 1862:1 1867:1 1869:1 1885:1 1891:1 1893:1 1895:1 
5.1288284360556515 24:1 74:1 75:1 167:1 174:1 298:1 341:1 345:1 352:1 440:1 455:1 471:1 531:1 554:1 640:1 663:1 666:1 694:1 756:1 792:1 799:1 810:1 959:1 1018:1 1113:1 1120:1 1162:1 1171:1 1182:1 1202:1 1228:1 1264:1 1290:1 1346:1 1349:1 1421:1 1473:1 1510:1 1523:1 1566:1 1666:1 1676:1 1699:1 1777:1 1859:1 1860:1 1861:1 1893:1 1895:1 
0.33310192454938331 5:1 38:1 74:1 75:1 165:1 216:1 233:1 239:1 264:1 284:1 298:1 309:1 389:1 526:1 530:1 560:1 663:1 680:1 756:1 775:1 799:1 810:1 825:1 834:1 865:1 875:1 878:1 914:1 938:1 956:1 959:1 994:1 1000:1 1009:1 1032:1 1064:1 1098:1 1099:1 1104:1 1112:1 1162:1 1171:1 1182:1 1191:1 1204:1 1218:1 1221:1 1264:1 1373:1 1404:1 1416:1 1448:1 1483:1 1557:1 1559:1 1585:1 1609:1 1661:1 1666:1 1671:1 1676:1 1688:1 1699:1 1750:1 1758:1 1796:1 1803:1 1814:1 1822:1 1824:1 1834:1 1864:1 1876:1 1882:1 1892:1 1893:1 
10 5:1 8:1 13:1 39:1 42:1 45:1 49:1 53:1 57:1 60:1 67:1 71:1 74:1 82:1 103:1 109:1 113:1 116:1 118:1 124:1 127:1 162:1 165:1 166:1 169:1 174:1 184:1 204:1 227:1 234:1 244:1 251:1 259:1 272:1 276:1 284:1 296:1 297:1 298:1 305:1 311:1 317:1 356:1 367:1 374:1 389:1 396:1 397:1 419:1 429:1 433:1 461:1 471:1 481:1 486:1 518:1 530:1 531:1 540:1 574:1 584:1 595:1 598:1 649:1 662:1 663:1 666:1 667:1 677:1 688:1 700:1 706:1 727:1 734:1 740:1 743:1 745:1 754:1 756:1 758:1 766:1 767:1 773:1 775:1 789:1 792:1 799:1 810:1 822:1 824:1 825:1 829:1 865:1 871:1 877:1 882:1 883:1 893:1 916:1 921:1 930:1 947:1 959:1 973:1 991:1 996:1 997:1 1009:1 1032:1 1064:1 1067:1 1086:1 1087:1 1095:1 1099:1 1100:1 1112:1 1113:1 1117:1 1118:1 1120:1 1134:1 1162:1 1171:1 1172:1 1174:1 1177:1 1182:1 1213:1 1220:1 1221:1 1230:1 1251:1 1271:1 1272:1 1289:1 1291:1 1292:1 1300:1 1311:1 1323:1 1326:1 1334:1 1349:1 1366:1 1373:1 1378:1 1385:1 1386:1 1387:1 1392:1 1394:1 1395:1 1403:1 1418:1 1439:1 1443:1 1461:1 1469:1 1470:1 1486:1 1498:1 1500:1 1501:1 1506:1 1513:1 1572:1 1577:1 1585:1 1588:1 1590:1 1591:1 1619:1 1631:1 1636:1 1640:1 1642:1 1649:1 1652:1 1658:1 1663:1 1665:1 1666:1 1667:1 1676:1 1679:1 1694:1 1699:1 1750:1 1758:1 1763:1 1766:1 1773:1 1775:1 1796:1 1808:1 1810:1 1814:1 1821:1 1822:1 1827:1 1830:1 1831:1 1835:1 1840:1 1841:1 1848:1 1852:1 1860:1 1869:1 1874:1 1876:1 1878:1 1889:1 1893:1 1895:1 
10 156:1 354:1 538:1 1102:1 1120:1 1126:1 1257:1 1662:1 1722:1 1741:1 
10 227:1 261:1 477:1 530:1 531:1 623:1 666:1 681:1 708:1 775:1 797:1 799:1 825:1 877:1 935:1 961:1 992:1 1075:1 1089:1 1095:1 1099:1 1120:1 1162:1 1170:1 1188:1 1244:1 1446:1 1501:1 1572:1 1638:1 1665:1 1676:1 1696:1 1698:1 1822:1 1855:1 1868:1 1887:1 
2.7340620099681749 5:1 7:1 10:1 19:1 25:1 30:1 39:1 53:1 57:1 62:1 64:1 71:1 74:1 75:1 81:1 87:1 92:1 109:1 116:1 124:1 155:1 162:1 167:1 168:1 173:1 181:1 225:1 238:1 271:1 310:1 311:1 328:1 353:1 375:1 393:1 398:1 412:1 421:1 424:1 453:1 461:1 462:1 471:1 481:1 491:1 502:1 530:1 531:1 540:1 574:1 575:1 576:1 583:1 585:1 598:1 605:1 626:1 629:1 631:1 640:1 652:1 666:1 681:1 688:1 708:1 712:1 713:1 718:1 726:1 739:1 752:1 756:1 759:1 763:1 775:1 785:1 789:1 795:1 800:1 810:1 819:1 825:1 827:1 828:1 837:1 840:1 841:1 843:1 846:1 860:1 863:1 873:1 877:1 879:1 883:1 902:1 916:1 928:1 932:1 949:1 956:1 958:1 959:1 961:1 976:1 980:1 989:1 992:1 997:1 1009:1 1011:1 1018:1 1019:1 1032:1 1049:1 1064:1 1067:1 1078:1 1084:1 1086:1 1093:1 1097:1 1099:1 1106:1 1113:1 1120:1 1156:1 1162:1 1164:1 1171:1 1172:1 1173:1 1174:1 1178:1 1181:1 1182:1 1189:1 1192:1 1230:1 1264:1 1278:1 1281:1 1309:1 1316:1 1319:1 1324:1 1334:1 1341:1 1360:1 1364:1 1373:1 1398:1 1412:1 1414:1 1415:1 1418:1 1426:1 1468:1 1477:1 1510:1 1517:1 1533:1 1538:1 1541:1 1543:1 1547:1 1552:1 1555:1 1560:1 1566:1 1607:1 1612:1 1613:1 1622:1 1631:1 1636:1 1652:1 1660:1 1663:1 1664:1 1665:1 1666:1 1668:1 1671:1 1673:1 1675:1 1676:1 1677:1 1681:1 1694:1 1699:1 1700:1 1724:1 1728:1 1734:1 1748:1 1760:1 1766:1 1778:1 1785:1 1788:1 1803:1 1805:1 1809:1 1819:1 1835:1 1837:1 1840:1 1844:1 1847:1 1852:1 1857:1 1860:1 1862:1 1869:1 1871:1 1876:1 1878:1 1893:1 1895:1 
10 28:1 116:1 124:1 146:1 165:1 246:1 356:1 393:1 530:1 621:1 688:1 708:1 724:1 743:1 751:1 787:1 799:1 825:1 961:1 981:1 991:1 992:1 1069:1 1089:1 1099:1 1160:1 1162:1 1171:1 1182:1 1213:1 1264:1 1373:1 1398:1 1400:1 1484:1 1513:1 1552:1 1607:1 1664:1 1665:1 1666:1 1676:1 1678:1 1699:1 1758:1 1760:1 1824:1 1831:1 1860:1 1889:1 1893:1 
3.8344681647141563 4:1 11:1 25:1 64:1 74:1 75:1 86:1 103:1 124:1 141:1 147:1 152:1 162:1 165:1 167:1 175:1 201:1 218:1 219:1 225:1 227:1 238:1 259:1 271:1 298:1 307:1 320:1 321:1 328:1 348:1 357:1 440:1 471:1 474:1 481:1 486:1 530:1 541:1 571:1 617:1 631:1 646:1 647:1 666:1 682:1 687:1 688:1 697:1 708:1 712:1 752:1 756:1 759:1 794:1 799:1 806:1 810:1 819:1 825:1 840:1 863:1 870:1 883:1 897:1 902:1 928:1 938:1 961:1 965:1 969:1 976:1 991:1 992:1 997:1 1017:1 1018:1 1032:1 1048:1 1064:1 1077:1 1083:1 1084:1 1093:1 1095:1 1098:1 1099:1 1101:1 1106:1 1113:1 1158:1 1162:1 1164:1 1170:1 1171:1 1174:1 1182:1 1183:1 1191:1 1213:1 1241:1 1264:1 1284:1 1299:1 1309:1 1315:1 1324:1 1334:1 1373:1 1384:1 1398:1 1425:1 1443:1 1475:1 1477:1 1538:1 1540:1 1545:1 1560:1 1566:1 1590:1 1592:1 1625:1 1642:1 1665:1 1666:1 1667:1 1669:1 1673:1 1675:1 1676:1 1680:1 1699:1 1716:1 1741:1 1753:1 1760:1 1765:1 1766:1 1808:1 1809:1 1819:1 1844:1 1847:1 1851:1 1852:1 1859:1 1860:1 1893:1 1895:1 
1.553459618926331 5:1 25:1 39:1 53:1 58:1 74:1 103:1 116:1 123:1 124:1 138:1 147:1 169:1 174:1 176:1 181:1 227:1 235:1 238:1 271:1 298:1 309:1 341:1 355:1 365:1 370:1 393:1 471:1 476:1 479:1 481:1 507:1 525:1 530:1 531:1 550:1 554:1 585:1 593:1 666:1 681:1 688:1 706:1 708:1 724:1 739:1 756:1 758:1 766:1 775:1 778:1 799:1 802:1 810:1 825:1 829:1 863:1 865:1 877:1 883:1 904:1 941:1 942:1 958:1 961:1 965:1 991:1 992:1 997:1 1025:1 1032:1 1033:1 1035:1 1095:1 1097:1 1099:1 1120:1 1162:1 1171:1 1172:1 1173:1 1174:1 1182:1 1189:1 1191:1 1196:1 1203:1 1204:1 1306:1 1319:1 1320:1 1343:1 1353:1 1364:1 1366:1 1373:1 1374:1 1390:1 1398:1 1400:1 1439:1 1483:1 1493:1 1494:1 1501:1 1521:1 1522:1 1538:1 1572:1 1581:1 1592:1 1607:1 1631:1 1652:1 1665:1 1666:1 1668:1 1676:1 1679:1 1681:1 1692:1 1694:1 1699:1 1700:1 1738:1 1759:1 1760:1 1766:1 1767:1 1775:1 1785:1 1803:1 1809:1 1817:1 1819:1 1830:1 1835:1 1840:1 1844:1 1852:1 1854:1 1860:1 1868:1 1881:1 1893:1 1895:1 1896:1 
10 
10 11:1 53:1 64:1 71:1 74:1 146:1 162:1 254:1 271:1 278:1 298:1 471:1 531:1 572:1 666:1 687:1 688:1 694:1 708:1 711:1 718:1 735:1 756:1 770:1 787:1 799:1 840:1 857:1 876:1 877:1 930:1 956:1 960:1 961:1 964:1 981:1 995:1 1018:1 1067:1 1084:1 1086:1 1105:1 1115:1 1120:1 1170:1 1171:1 1192:1 1539:1 1610:1 1699:1 1744:1 1773:1 1805:1 1837:1 1860:1 1889:1 1893:1 1894:1 
10 238:1 708:1 743:1 771:1 966:1 1106:1 1164:1 1468:1 1699:1 1819:1 1835:1 1860:1 1893:1 
5.8714560027431659 25:1 53:1 55:1 60:1 65:1 71:1 74:1 103:1 105:1 139:1 188:1 218:1 221:1 224:1 227:1 259:1 280:1 295:1 305:1 306:1 327:1 393:1 425:1 436:1 458:1 481:1 530:1 531:1 575:1 666:1 708:1 724:1 762:1 775:1 787:1 825:1 869:1 883:1 956:1 961:1 992:1 1002:1 1009:1 1042:1 1064:1 1089:1 1093:1 1099:1 1117:1 1120:1 1162:1 1171:1 1172:1 1179:1 1191:1 1192:1 1203:1 1269:1 1323:1 1373:1 1377:1 1464:1 1477:1 1521:1 1545:1 1585:1 1592:1 1640:1 1665:1 1666:1 1667:1 1669:1 1675:1 1676:1 1688:1 1696:1 1699:1 1700:1 1723:1 1760:1 1765:1 1785:1 1819:1 1822:1 1824:1 1831:1 1833:1 1835:1 1852:1 1861:1 1893:1 1895:1 
5.5918385540625035 21:1 53:1 60:1 65:1 71:1 74:1 116:1 124:1 142:1 197:1 224:1 246:1 280:1 286:1 311:1 388:1 393:1 471:1 479:1 567:1 585:1 640:1 641:1 652:1 663:1 666:1 681:1 694:1 710:1 712:1 771:1 787:1 799:1 825:1 827:1 839:1 877:1 919:1 953:1 956:1 997:1 1002:1 1049:1 1060:1 1064:1 1077:1 1105:1 1113:1 1120:1 1162:1 1163:1 1171:1 1189:1 1191:1 1192:1 1196:1 1197:1 1202:1 1315:1 1324:1 1373:1 1468:1 1513:1 1666:1 1675:1 1676:1 1687:1 1699:1 1723:1 1740:1 1760:1 1766:1 1767:1 1777:1 1779:1 1796:1 1824:1 1838:1 1844:1 1852:1 1860:1 1869:1 1875:1 1893:1 1895:1 
1.3440911095338097 11:1 41:1 64:1 74:1 75:1 104:1 114:1 120:1 121:1 124:1 162:1 175:1 176:1 211:1 227:1 238:1 306:1 309:1 314:1 352:1 353:1 387:1 394:1 408:1 430:1 525:1 530:1 531:1 584:1 631:1 676:1 677:1 681:1 756:1 761:1 799:1 810:1 822:1 840:1 877:1 902:1 961:1 992:1 1001:1 1002:1 1009:1 1084:1 1086:1 1093:1 1099:1 1120:1 1162:1 1164:1 1172:1 1182:1 1189:1 1242:1 1264:1 1349:1 1359:1 1384:1 1398:1 1400:1 1493:1 1513:1 1518:1 1609:1 1610:1 1666:1 1676:1 1699:1 1700:1 1708:1 1727:1 1760:1 1761:1 1766:1 1852:1 1878:1 1882:1 1893:1 1895:1 
8.9520156405516715 13:1 17:1 25:1 39:1 41:1 53:1 66:1 68:1 74:1 75:1 77:1 78:1 83:1 101:1 103:1 116:1 118:1 126:1 141:1 144:1 162:1 167:1 169:1 183:1 193:1 227:1 252:1 255:1 272:1 286:1 292:1 321:1 330:1 338:1 352:1 369:1 383:1 401:1 405:1 423:1 430:1 432:1 436:1 457:1 471:1 484:1 495:1 531:1 540:1 569:1 575:1 623:1 639:1 643:1 644:1 666:1 668:1 688:1 696:1 735:1 743:1 756:1 769:1 779:1 789:1 793:1 799:1 819:1 825:1 840:1 853:1 862:1 876:1 877:1 899:1 904:1 930:1 960:1 961:1 992:1 995:1 1001:1 1060:1 1083:1 1086:1 1095:1 1099:1 1106:1 1112:1 1113:1 1114:1 1116:1 1117:1 1120:1 1152:1 1162:1 1165:1 1171:1 1182:1 1183:1 1191:1 1192:1 1204:1 1212:1 1214:1 1264:1 1279:1 1306:1 1311:1 1319:1 1324:1 1331:1 1337:1 1353:1 1381:1 1396:1 1400:1 1415:1 1417:1 1467:1 1473:1 1486:1 1493:1 1503:1 1510:1 1520:1 1545:1 1552:1 1579:1 1610:1 1617:1 1631:1 1649:1 1663:1 1664:1 1665:1 1666:1 1673:1 1674:1 1676:1 1688:1 1692:1 1699:1 1700:1 1713:1 1744:1 1759:1 1760:1 1771:1 1773:1 1819:1 1833:1 1840:1 1852:1 1857:1 1860:1 1866:1 1882:1 1889:1 1893:1 1895:1 
0.92330298431439772 5:1 16:1 37:1 53:1 61:1 66:1 74:1 166:1 167:1 175:1 191:1 296:1 298:1 474:1 486:1 522:1 546:1 626:1 666:1 743:1 771:1 775:1 825:1 829:1 860:1 883:1 916:1 920:1 938:1 983:1 1028:1 1080:1 1088:1 1094:1 1099:1 1106:1 1113:1 1120:1 1162:1 1164:1 1171:1 1182:1 1185:1 1191:1 1196:1 1299:1 1309:1 1354:1 1371:1 1413:1 1499:1 1500:1 1512:1 1523:1 1538:1 1566:1 1711:1 1739:1 1760:1 1788:1 1796:1 1819:1 1822:1 1847:1 1869:1 
10 156:1 277:1 354:1 538:1 797:1 880:1 1102:1 1120:1 1131:1 1662:1 1722:1 1741:1 
5.2875332517842644 37:1 40:1 53:1 71:1 238:1 272:1 298:1 364:1 435:1 479:1 481:1 614:1 632:1 688:1 712:1 775:1 825:1 849:1 853:1 883:1 929:1 949:1 953:1 961:1 992:1 999:1 1063:1 1089:1 1106:1 1120:1 1171:1 1191:1 1264:1 1290:1 1408:1 1425:1 1452:1 1467:1 1656:1 1666:1 1667:1 1699:1 1700:1 1708:1 1758:1 1759:1 1760:1 1805:1 1860:1 1889:1 1895:1 
10 25:1 27:1 53:1 77:1 124:1 162:1 174:1 311:1 681:1 688:1 711:1 743:1 778:1 799:1 810:1 825:1 840:1 852:1 877:1 883:1 894:1 961:1 992:1 1032:1 1050:1 1067:1 1113:1 1120:1 1170:1 1172:1 1182:1 1203:1 1221:1 1240:1 1264:1 1289:1 1373:1 1398:1 1405:1 1468:1 1523:1 1560:1 1629:1 1666:1 1671:1 1676:1 1699:1 1757:1 1796:1 1822:1 1827:1 1876:1 1889:1 1893:1 
7.4160352837223735 25:1 74:1 201:1 298:1 364:1 529:1 649:1 666:1 681:1 775:1 794:1 992:1 997:1 1086:1 1089:1 1120:1 1162:1 1353:1 1443:1 1477:1 1546:1 1639:1 1643:1 1666:1 1696:1 1699:1 1758:1 1869:1 1893:1 1895:1 
6.2837729648356406 5:1 53:1 60:1 71:1 74:1 98:1 103:1 112:1 116:1 124:1 126:1 135:1 149:1 156:1 162:1 176:1 207:1 208:1 218:1 225:1 246:1 259:1 268:1 277:1 286:1 288:1 308:1 354:1 364:1 383:1 388:1 440:1 452:1 466:1 479:1 481:1 486:1 538:1 574:1 580:1 581:1 582:1 626:1 633:1 643:1 666:1 688:1 698:1 701:1 708:1 718:1 724:1 726:1 741:1 745:1 751:1 756:1 792:1 797:1 810:1 825:1 840:1 865:1 877:1 880:1 883:1 893:1 902:1 904:1 918:1 947:1 958:1 963:1 965:1 1003:1 1008:1 1032:1 1039:1 1043:1 1064:1 1067:1 1075:1 1079:1 1084:1 1086:1 1089:1 1093:1 1098:1 1106:1 1109:1 1113:1 1117:1 1120:1 1125:1 1162:1 1163:1 1165:1 1171:1 1173:1 1175:1 1183:1 1191:1 1196:1 1219:1 1264:1 1276:1 1299:1 1307:1 1311:1 1323:1 1368:1 1392:1 1400:1 1405:1 1413:1 1416:1 1446:1 1452:1 1464:1 1467:1 1472:1 1475:1 1477:1 1492:1 1493:1 1494:1 1506:1 1507:1 1523:1 1541:1 1545:1 1546:1 1570:1 1597:1 1604:1 1662:1 1664:1 1665:1 1666:1 1667:1 1676:1 1688:1 1699:1 1711:1 1722:1 1741:1 1760:1 1766:1 1788:1 1803:1 1809:1 1819:1 1822:1 1837:1 1840:1 1852:1 1855:1 1869:1 1872:1 1873:1 1880:1 1885:1 1893:1 1895:1 
2.0399216096855608 11:1 25:1 26:1 71:1 74:1 101:1 103:1 116:1 124:1 131:1 139:1 162:1 175:1 210:1 227:1 238:1 298:1 309:1 321:1 358:1 376:1 387:1 460:1 479:1 480:1 506:1 507:1 530:1 531:1 576:1 585:1 601:1 628:1 643:1 666:1 688:1 692:1 697:1 698:1 707:1 735:1 756:1 775:1 799:1 825:1 827:1 839:1 840:1 876:1 877:1 883:1 902:1 960:1 961:1 992:1 995:1 1001:1 1064:1 1077:1 1086:1 1095:1 1099:1 1117:1 1120:1 1162:1 1171:1 1173:1 1182:1 1186:1 1208:1 1299:1 1324:1 1337:1 1374:1 1386:1 1396:1 1398:1 1425:1 1446:1 1520:1 1610:1 1665:1 1666:1 1675:1 1676:1 1699:1 1700:1 1744:1 1766:1 1773:1 1796:1 1831:1 1833:1 1852:1 1893:1 1895:1 
10 41:1 60:1 70:1 71:1 74:1 75:1 124:1 179:1 221:1 241:1 250:1 256:1 326:1 330:1 351:1 352:1 436:1 460:1 481:1 531:1 582:1 666:1 688:1 710:1 712:1 731:1 739:1 787:1 799:1 800:1 902:1 927:1 955:1 965:1 992:1 1049:1 1089:1 1117:1 1120:1 1162:1 1164:1 1171:1 1182:1 1183:1 1191:1 1192:1 1250:1 1264:1 1299:1 1301:1 1303:1 1334:1 1343:1 1358:1 1452:1 1477:1 1493:1 1523:1 1566:1 1591:1 1631:1 1669:1 1699:1 1706:1 1717:1 1758:1 1766:1 1796:1 1819:1 1825:1 1830:1 1893:1 
5.4051010581702945 5:1 6:1 10:1 13:1 20:1 38:1 39:1 46:1 53:1 64:1 74:1 103:1 109:1 116:1 120:1 123:1 124:1 129:1 134:1 139:1 153:1 162:1 165:1 176:1 204:1 208:1 218:1 224:1 225:1 227:1 304:1 318:1 321:1 337:1 352:1 369:1 373:1 393:1 405:1 407:1 412:1 429:1 437:1 449:1 455:1 477:1 531:1 540:1 549:1 566:1 569:1 571:1 587:1 621:1 623:1 643:1 651:1 654:1 666:1 668:1 676:1 681:1 687:1 696:1 713:1 735:1 743:1 756:1 758:1 778:1 783:1 799:1 810:1 819:1 825:1 840:1 865:1 873:1 876:1 877:1 883:1 904:1 918:1 929:1 937:1 960:1 961:1 976:1 992:1 995:1 1018:1 1024:1 1042:1 1045:1 1060:1 1084:1 1088:1 1113:1 1120:1 1152:1 1162:1 1171:1 1176:1 1182:1 1204:1 1213:1 1221:1 1242:1 1272:1 1292:1 1293:1 1327:1 1330:1 1334:1 1372:1 1373:1 1384:1 1393:1 1400:1 1404:1 1405:1 1406:1 1426:1 1461:1 1464:1 1465:1 1467:1 1470:1 1496:1 1510:1 1538:1 1545:1 1549:1 1556:1 1557:1 1587:1 1610:1 1612:1 1617:1 1651:1 1664:1 1665:1 1666:1 1676:1 1684:1 1688:1 1699:1 1713:1 1721:1 1737:1 1744:1 1764:1 1766:1 1773:1 1803:1 1819:1 1835:1 1837:1 1840:1 1844:1 1852:1 1860:1 1861:1 1869:1 1893:1 1895:1 
6.8574168793977925 5:1 17:1 24:1 32:1 47:1 53:1 54:1 57:1 58:1 71:1 74:1 75:1 86:1 103:1 116:1 130:1 139:1 162:1 167:1 173:1 179:1 181:1 183:1 189:1 215:1 218:1 219:1 227:1 249:1 267:1 272:1 293:1 321:1 328:1 346:1 353:1 358:1 371:1 398:1 401:1 412:1 422:1 445:1 471:1 477:1 479:1 504:1 527:1 550:1 586:1 589:1 592:1 598:1 604:1 645:1 666:1 672:1 676:1 677:1 688:1 697:1 700:1 719:1 739:1 743:1 756:1 757:1 769:1 779:1 781:1 786:1 791:1 800:1 807:1 810:1 817:1 825:1 826:1 832:1 837:1 838:1 840:1 858:1 860:1 865:1 869:1 871:1 873:1 877:1 883:1 926:1 937:1 938:1 952:1 976:1 978:1 989:1 991:1 996:1 997:1 1019:1 1042:1 1051:1 1060:1 1100:1 1101:1 1106:1 1113:1 1116:1 1120:1 1162:1 1164:1 1171:1 1173:1 1177:1 1182:1 1183:1 1196:1 1197:1 1204:1 1205:1 1213:1 1214:1 1218:1 1249:1 1255:1 1263:1 1269:1 1292:1 1305:1 1314:1 1315:1 1317:1 1334:1 1337:1 1338:1 1341:1 1342:1 1343:1 1360:1 1366:1 1376:1 1384:1 1385:1 1386:1 1407:1 1417:1 1425:1 1426:1 1431:1 1467:1 1475:1 1490:1 1493:1 1494:1 1505:1 1510:1 1515:1 1516:1 1524:1 1542:1 1545:1 1566:1 1584:1 1585:1 1586:1 1591:1 1607:1 1613:1 1640:1 1656:1 1665:1 1666:1 1667:1 1668:1 1669:1 1671:1 1675:1 1676:1 1680:1 1699:1 1760:1 1764:1 1766:1 1779:1 1780:1 1787:1 1803:1 1810:1 1813:1 1819:1 1820:1 1827:1 1838:1 1844:1 1852:1 1860:1 1861:1 1862:1 1869:1 1871:1 1875:1 1889:1 1895:1 
10 29:1 53:1 74:1 162:1 272:1 280:1 307:1 371:1 374:1 435:1 449:1 471:1 490:1 530:1 531:1 666:1 672:1 681:1 688:1 698:1 745:1 756:1 799:1 810:1 824:1 825:1 869:1 877:1 883:1 902:1 916:1 953:1 956:1 981:1 992:1 1048:1 1098:1 1117:1 1120:1 1162:1 1163:1 1171:1 1178:1 1192:1 1204:1 1230:1 1398:1 1425:1 1477:1 1523:1 1612:1 1636:1 1666:1 1667:1 1676:1 1699:1 1753:1 1822:1 1824:1 1852:1 1876:1 1893:1 1895:1 
3.590706026959563 5:1 6:1 8:1 10:1 11:1 12:1 13:1 14:1 17:1 18:1 19:1 20:1 21:1 23:1 25:1 26:1 28:1 30:1 31:1 32:1 35:1 39:1 40:1 41:1 42:1 43:1 44:1 45:1 46:1 47:1 49:1 50:1 53:1 54:1 55:1 57:1 60:1 64:1 66:1 67:1 68:1 69:1 71:1 74:1 75:1 77:1 80:1 81:1 84:1 85:1 86:1 87:1 89:1 92:1 94:1 95:1 97:1 99:1 100:1 103:1 104:1 105:1 109:1 110:1 112:1 114:1 116:1 118:1 120:1 121:1 122:1 123:1 124:1 125:1 127:1 128:1 129:1 130:1 131:1 133:1 135:1 139:1 142:1 143:1 147:1 148:1 153:1 155:1 157:1 160:1 162:1 165:1 166:1 167:1 168:1 169:1 170:1 172:1 173:1 174:1 175:1 176:1 179:1 182:1 186:1 187:1 195:1 199:1 204:1 207:1 210:1 213:1 214:1 219:1 224:1 225:1 227:1 230:1 234:1 235:1 237:1 238:1 240:1 251:1 253:1 256:1 263:1 264:1 265:1 267:1 268:1 270:1 272:1 276:1 280:1 282:1 284:1 286:1 287:1 290:1 291:1 292:1 293:1 297:1 298:1 300:1 304:1 305:1 308:1 311:1 313:1 314:1 315:1 316:1 317:1 318:1 319:1 320:1 321:1 322:1 325:1 328:1 333:1 334:1 341:1 342:1 344:1 346:1 348:1 349:1 352:1 353:1 354:1 355:1 358:1 359:1 360:1 363:1 364:1 368:1 369:1 371:1 374:1 376:1 377:1 378:1 381:1 384:1 386:1 387:1 388:1 393:1 394:1 401:1 404:1 409:1 410:1 411:1 412:1 413:1 414:1 417:1 419:1 420:1 421:1 422:1 423:1 428:1 429:1 430:1 436:1 437:1 439:1 440:1 442:1 445:1 447:1 449:1 454:1 455:1 456:1 461:1 463:1 465:1 471:1 473:1 474:1 476:1 477:1 481:1 489:1 490:1 492:1 494:1 495:1 496:1 501:1 502:1 503:1 514:1 519:1 520:1 522:1 524:1 525:1 529:1 531:1 532:1 536:1 539:1 540:1 542:1 550:1 551:1 553:1 556:1 557:1 560:1 563:1 569:1 570:1 571:1 572:1 574:1 575:1 576:1 578:1 581:1 583:1 586:1 587:1 588:1 589:1 592:1 597:1 598:1 600:1 604:1 608:1 609:1 610:1 611:1 613:1 614:1 621:1 623:1 627:1 629:1 631:1 633:1 637:1 638:1 639:1 643:1 645:1 646:1 649:1 652:1 654:1 655:1 656:1 660:1 663:1 665:1 666:1 667:1 668:1 672:1 673:1 674:1 676:1 677:1 678:1 679:1 680:1 681:1 687:1 688:1 692:1 693:1 696:1 697:1 698:1 700:1 704:1 707:1 708:1 712:1 713:1 714:1 718:1 719:1 720:1 722:1 724:1 727:1 730:1 734:1 735:1 743:1 745:1 746:1 748:1 750:1 751:1 752:1 754:1 756:1 758:1 759:1 761:1 764:1 769:1 771:1 773:1 775:1 776:1 778:1 779:1 783:1 784:1 786:1 787:1 788:1 789:1 794:1 795:1 799:1 801:1 802:1 806:1 810:1 811:1 812:1 815:1 818:1 819:1 820:1 821:1 824:1 825:1 827:1 828:1 831:1 832:1 836:1 837:1 840:1 841:1 847:1 849:1 852:1 855:1 858:1 860:1 862:1 863:1 865:1 869:1 870:1 871:1 873:1 877:1 878:1 882:1 883:1 885:1 895:1 898:1 899:1 901:1 902:1 904:1 906:1 912:1 913:1 914:1 915:1 916:1 917:1 918:1 920:1 921:1 929:1 930:1 931:1 932:1 933:1 937:1 939:1 940:1 941:1 942:1 945:1 947:1 948:1 952:1 953:1 955:1 957:1 958:1 959:1 961:1 963:1 964:1 969:1 970:1 974:1 975:1 976:1 979:1 981:1 989:1 990:1 991:1 992:1 995:1 996:1 997:1 1000:1 1001:1 1002:1 1006:1 1008:1 1009:1 1010:1 1015:1 1018:1 1019:1 1020:1 1022:1 1024:1 1025:1 1027:1 1029:1 1032:1 1038:1 1040:1 1041:1 1042:1 1044:1 1058:1 1060:1 1062:1 1064:1 1067:1 1068:1 1070:1 1071:1 1074:1 1077:1 1080:1 1084:1 1086:1 1087:1 1088:1 1090:1 1091:1 1092:1 1093:1 1098:1 1099:1 1101:1 1106:1 1108:1 1110:1 1112:1 1113:1 1114:1 1115:1 1116:1 1117:1 1120:1 1122:1 1149:1 1151:1 1152:1 1155:1 1156:1 1161:1 1162:1 1163:1 1164:1 1165:1 1166:1 1170:1 1171:1 1172:1 1173:1 1176:1 1182:1 1183:1 1185:1 1189:1 1190:1 1191:1 1192:1 1195:1 1196:1 1197:1 1198:1 1200:1 1203:1 1204:1 1209:1 1210:1 1212:1 1213:1 1214:1 1215:1 1219:1 1221:1 1223:1 1227:1 1229:1 1230:1 1231:1 1234:1 1237:1 1238:1 1242:1 1244:1 1255:1 1256:1 1258:1 1262:1 1264:1 1269:1 1271:1 1272:1 1278:1 1279:1 1280:1 1281:1 1284:1 1286:1 1287:1 1292:1 1293:1 1294:1 1297:1 1299:1 1300:1 1301:1 1305:1 1311:1 1314:1 1319:1 1322:1 1323:1 1324:1 1326:1 1327:1 1329:1 1330:1 1332:1 1334:1 1337:1 1338:1 1341:1 1342:1 1343:1 1346:1 1349:1 1353:1 1364:1 1365:1 1367:1 1369:1 1372:1 1373:1 1374:1 1377:1 1381:1 1384:1 1385:1 1388:1 1389:1 1390:1 1392:1 1393:1 1394:1 1395:1 1397:1 1398:1 1400:1 1401:1 1403:1 1404:1 1405:1 1406:1 1407:1 1408:1 1409:1 1410:1 1411:1 1412:1 1413:1 1414:1 1417:1 1418:1 1421:1 1425:1 1428:1 1430:1 1435:1 1439:1 1442:1 1443:1 1444:1 1445:1 1446:1 1450:1 1463:1 1464:1 1466:1 1467:1 1468:1 1470:1 1471:1 1472:1 1473:1 1474:1 1475:1 1481:1 1483:1 1484:1 1485:1 1486:1 1490:1 1491:1 1493:1 1494:1 1496:1 1498:1 1503:1 1509:1 1510:1 1511:1 1512:1 1513:1 1515:1 1516:1 1517:1 1518:1 1519:1 1523:1 1530:1 1533:1 1538:1 1540:1 1545:1 1554:1 1556:1 1557:1 1558:1 1559:1 1564:1 1566:1 1567:1 1579:1 1581:1 1582:1 1583:1 1584:1 1585:1 1586:1 1587:1 1588:1 1590:1 1591:1 1595:1 1596:1 1602:1 1607:1 1608:1 1609:1 1611:1 1612:1 1613:1 1614:1 1615:1 1618:1 1623:1 1625:1 1631:1 1633:1 1636:1 1637:1 1640:1 1642:1 1647:1 1648:1 1656:1 1657:1 1659:1 1660:1 1662:1 1663:1 1664:1 1665:1 1666:1 1667:1 1668:1 1669:1 1670:1 1671:1 1672:1 1673:1 1674:1 1675:1 1676:1 1681:1 1682:1 1683:1 1684:1 1686:1 1687:1 1688:1 1689:1 1691:1 1694:1 1697:1 1699:1 1700:1 1708:1 1709:1 1710:1 1711:1 1712:1 1717:1 1718:1 1721:1 1722:1 1726:1 1731:1 1732:1 1733:1 1734:1 1736:1 1738:1 1740:1 1741:1 1744:1 1745:1 1746:1 1750:1 1751:1 1753:1 1759:1 1760:1 1763:1 1766:1 1767:1 1771:1 1776:1 1777:1 1778:1 1779:1 1788:1 1789:1 1790:1 1791:1 1793:1 1794:1 1796:1 1803:1 1804:1 1805:1 1806:1 1809:1 1810:1 1811:1 1812:1 1814:1 1816:1 1818:1 1819:1 1821:1 1822:1 1827:1 1828:1 1831:1 1832:1 1833:1 1835:1 1836:1 1837:1 1838:1 1840:1 1841:1 1844:1 1846:1 1847:1 1852:1 1859:1 1860:1 1861:1 1862:1 1868:1 1869:1 1871:1 1875:1 1876:1 1879:1 1880:1 1889:1 1893:1 1895:1 1896:1 
7.5682929463944069 5:1 13:1 39:1 42:1 53:1 58:1 60:1 63:1 67:1 71:1 74:1 80:1 81:1 86:1 103:1 119:1 121:1 124:1 139:1 153:1 162:1 165:1 166:1 167:1 179:1 181:1 183:1 219:1 224:1 225:1 227:1 234:1 238:1 252:1 287:1 306:1 358:1 367:1 370:1 376:1 377:1 393:1 442:1 471:1 474:1 477:1 479:1 483:1 486:1 490:1 504:1 524:1 525:1 534:1 535:1 564:1 567:1 571:1 574:1 575:1 583:1 593:1 608:1 639:1 645:1 646:1 652:1 666:1 675:1 682:1 688:1 692:1 698:1 708:1 712:1 718:1 726:1 732:1 740:1 743:1 750:1 752:1 756:1 758:1 771:1 775:1 778:1 779:1 787:1 792:1 794:1 805:1 810:1 825:1 828:1 850:1 864:1 865:1 870:1 877:1 883:1 894:1 897:1 902:1 916:1 933:1 938:1 945:1 947:1 974:1 976:1 989:1 991:1 997:1 1002:1 1038:1 1042:1 1050:1 1057:1 1064:1 1067:1 1077:1 1083:1 1093:1 1099:1 1106:1 1113:1 1117:1 1120:1 1156:1 1162:1 1164:1 1171:1 1178:1 1182:1 1185:1 1186:1 1189:1 1191:1 1192:1 1196:1 1204:1 1205:1 1209:1 1212:1 1230:1 1231:1 1242:1 1244:1 1251:1 1255:1 1281:1 1305:1 1311:1 1330:1 1349:1 1350:1 1369:1 1371:1 1406:1 1424:1 1425:1 1465:1 1470:1 1512:1 1522:1 1533:1 1538:1 1547:1 1552:1 1571:1 1584:1 1585:1 1588:1 1591:1 1611:1 1616:1 1636:1 1638:1 1647:1 1652:1 1665:1 1666:1 1667:1 1668:1 1669:1 1671:1 1673:1 1675:1 1676:1 1682:1 1688:1 1692:1 1694:1 1699:1 1700:1 1708:1 1720:1 1735:1 1738:1 1750:1 1760:1 1766:1 1772:1 1785:1 1788:1 1809:1 1819:1 1831:1 1835:1 1837:1 1844:1 1852:1 1854:1 1857:1 1860:1 1862:1 1866:1 1869:1 1889:1 1893:1 1895:1 
10 298:1 681:1 775:1 860:1 1089:1 1113:1 1164:1 1566:1 1727:1 
10 227:1 530:1 531:1 706:1 766:1 799:1 877:1 1095:1 1501:1 1572:1 1676:1 1679:1 1699:1 1830:1 
10 74:1 105:1 162:1 229:1 233:1 247:1 262:1 381:1 401:1 407:1 479:1 666:1 745:1 825:1 877:1 902:1 958:1 969:1 997:1 1024:1 1083:1 1106:1 1120:1 1171:1 1182:1 1191:1 1231:1 1276:1 1287:1 1369:1 1377:1 1409:1 1500:1 1538:1 1566:1 1631:1 1638:1 1666:1 1669:1 1676:1 1699:1 1735:1 1766:1 1809:1 1819:1 1837:1 1844:1 1860:1 1895:1 
6.1884853265881246 5:1 21:1 60:1 74:1 75:1 103:1 116:1 124:1 162:1 165:1 176:1 195:1 206:1 227:1 234:1 298:1 305:1 309:1 321:1 369:1 455:1 530:1 531:1 583:1 710:1 712:1 775:1 799:1 825:1 827:1 852:1 958:1 992:1 1025:1 1029:1 1032:1 1083:1 1113:1 1120:1 1162:1 1171:1 1182:1 1183:1 1244:1 1289:1 1315:1 1373:1 1398:1 1400:1 1452:1 1483:1 1493:1 1510:1 1607:1 1609:1 1666:1 1675:1 1676:1 1699:1 1757:1 1758:1 1803:1 1860:1 1893:1 
4.3224160981815345 29:1 53:1 74:1 162:1 176:1 227:1 321:1 365:1 471:1 530:1 550:1 614:1 633:1 666:1 688:1 698:1 708:1 750:1 775:1 794:1 810:1 826:1 853:1 877:1 883:1 916:1 953:1 954:1 997:1 1044:1 1048:1 1087:1 1093:1 1116:1 1117:1 1162:1 1164:1 1171:1 1173:1 1229:1 1258:1 1264:1 1330:1 1353:1 1407:1 1415:1 1462:1 1468:1 1517:1 1547:1 1636:1 1656:1 1665:1 1666:1 1676:1 1684:1 1687:1 1699:1 1796:1 1819:1 1852:1 1893:1 1895:1 
0.30639006903105287 13:1 17:1 41:1 53:1 55:1 74:1 103:1 110:1 116:1 124:1 142:1 162:1 165:1 167:1 174:1 176:1 181:1 187:1 215:1 218:1 225:1 238:1 276:1 298:1 311:1 355:1 359:1 370:1 376:1 407:1 411:1 421:1 423:1 442:1 481:1 506:1 508:1 531:1 574:1 575:1 580:1 589:1 594:1 614:1 622:1 633:1 666:1 681:1 698:1 708:1 710:1 732:1 739:1 751:1 756:1 757:1 771:1 775:1 787:1 794:1 799:1 805:1 810:1 825:1 826:1 860:1 877:1 883:1 947:1 959:1 965:1 968:1 971:1 982:1 984:1 991:1 992:1 997:1 1008:1 1024:1 1048:1 1049:1 1060:1 1064:1 1066:1 1087:1 1092:1 1093:1 1096:1 1098:1 1099:1 1106:1 1109:1 1113:1 1117:1 1120:1 1156:1 1162:1 1164:1 1171:1 1172:1 1173:1 1174:1 1178:1 1182:1 1189:1 1197:1 1204:1 1242:1 1279:1 1292:1 1334:1 1353:1 1359:1 1364:1 1399:1 1452:1 1467:1 1468:1 1481:1 1503:1 1507:1 1510:1 1511:1 1518:1 1520:1 1538:1 1545:1 1566:1 1594:1 1613:1 1636:1 1637:1 1656:1 1663:1 1665:1 1666:1 1667:1 1673:1 1676:1 1681:1 1687:1 1688:1 1694:1 1699:1 1700:1 1710:1 1746:1 1766:1 1819:1 1831:1 1842:1 1847:1 1852:1 1860:1 1868:1 1869:1 1889:1 1891:1 1893:1 1895:1 
10 195:1 531:1 799:1 825:1 992:1 1032:1 1162:1 1349:1 1477:1 1666:1 1699:1 1758:1 1860:1 
10 531:1 799:1 992:1 1089:1 1120:1 
0.6532813542169339 5:1 6:1 15:1 20:1 25:1 31:1 41:1 45:1 53:1 54:1 56:1 57:1 60:1 64:1 70:1 71:1 74:1 75:1 81:1 86:1 87:1 89:1 95:1 97:1 98:1 103:1 116:1 118:1 121:1 124:1 135:1 139:1 150:1 161:1 162:1 165:1 166:1 167:1 178:1 208:1 212:1 222:1 224:1 225:1 226:1 227:1 232:1 233:1 234:1 238:1 239:1 245:1 249:1 253:1 262:1 272:1 277:1 293:1 298:1 299:1 305:1 309:1 311:1 316:1 321:1 322:1 328:1 345:1 352:1 353:1 354:1 357:1 364:1 365:1 371:1 378:1 388:1 393:1 398:1 421:1 431:1 436:1 449:1 452:1 456:1 471:1 474:1 476:1 479:1 481:1 484:1 516:1 522:1 523:1 530:1 531:1 538:1 540:1 547:1 557:1 558:1 561:1 567:1 571:1 573:1 595:1 611:1 616:1 617:1 631:1 646:1 649:1 666:1 667:1 681:1 687:1 688:1 692:1 696:1 699:1 701:1 708:1 712:1 718:1 736:1 743:1 748:1 752:1 756:1 757:1 771:1 775:1 785:1 793:1 794:1 797:1 799:1 810:1 811:1 812:1 825:1 827:1 837:1 838:1 840:1 847:1 860:1 862:1 863:1 877:1 879:1 880:1 882:1 883:1 891:1 893:1 902:1 904:1 916:1 932:1 936:1 938:1 947:1 953:1 955:1 956:1 957:1 961:1 964:1 970:1 974:1 976:1 977:1 978:1 980:1 988:1 989:1 990:1 992:1 997:1 1000:1 1002:1 1004:1 1008:1 1009:1 1014:1 1017:1 1020:1 1024:1 1025:1 1032:1 1038:1 1048:1 1049:1 1060:1 1062:1 1064:1 1067:1 1077:1 1084:1 1086:1 1089:1 1093:1 1098:1 1099:1 1102:1 1106:1 1113:1 1117:1 1120:1 1124:1 1125:1 1162:1 1167:1 1171:1 1173:1 1174:1 1182:1 1189:1 1191:1 1192:1 1196:1 1197:1 1203:1 1216:1 1230:1 1234:1 1236:1 1244:1 1250:1 1264:1 1271:1 1279:1 1280:1 1297:1 1299:1 1304:1 1311:1 1315:1 1322:1 1324:1 1326:1 1330:1 1332:1 1337:1 1343:1 1349:1 1359:1 1364:1 1366:1 1369:1 1372:1 1381:1 1387:1 1398:1 1400:1 1401:1 1403:1 1406:1 1408:1 1415:1 1425:1 1439:1 1443:1 1445:1 1468:1 1474:1 1475:1 1477:1 1481:1 1493:1 1494:1 1495:1 1507:1 1510:1 1511:1 1518:1 1521:1 1523:1 1524:1 1533:1 1535:1 1538:1 1546:1 1547:1 1557:1 1558:1 1564:1 1568:1 1572:1 1581:1 1582:1 1584:1 1586:1 1590:1 1605:1 1607:1 1608:1 1613:1 1623:1 1625:1 1631:1 1636:1 1638:1 1648:1 1660:1 1662:1 1663:1 1664:1 1665:1 1666:1 1667:1 1668:1 1669:1 1671:1 1673:1 1676:1 1677:1 1678:1 1681:1 1694:1 1695:1 1699:1 1704:1 1708:1 1713:1 1720:1 1722:1 1735:1 1738:1 1741:1 1745:1 1758:1 1760:1 1766:1 1779:1 1784:1 1788:1 1791:1 1796:1 1809:1 1819:1 1822:1 1830:1 1835:1 1837:1 1844:1 1852:1 1853:1 1859:1 1860:1 1862:1 1869:1 1876:1 1878:1 1882:1 1889:1 1893:1 1895:1 
1.0814490260191134 5:1 40:1 53:1 71:1 74:1 103:1 116:1 124:1 218:1 229:1 272:1 298:1 461:1 516:1 530:1 531:1 606:1 688:1 770:1 775:1 825:1 902:1 935:1 938:1 950:1 966:1 1011:1 1099:1 1162:1 1172:1 1179:1 1187:1 1191:1 1364:1 1390:1 1461:1 1474:1 1529:1 1577:1 1666:1 1676:1 1678:1 1699:1 1785:1 1796:1 1804:1 1819:1 1822:1 1841:1 1893:1 1895:1 
10 156:1 277:1 354:1 538:1 797:1 880:1 1102:1 1120:1 1131:1 1662:1 1722:1 1741:1 
10 83:1 219:1 227:1 320:1 481:1 530:1 531:1 606:1 619:1 736:1 799:1 816:1 825:1 877:1 883:1 886:1 902:1 1095:1 1262:1 1369:1 1501:1 1572:1 1666:1 1676:1 1694:1 1871:1 
7.6040895538447133 17:1 19:1 53:1 70:1 71:1 74:1 75:1 86:1 116:1 147:1 162:1 165:1 175:1 201:1 204:1 216:1 231:1 238:1 278:1 283:1 295:1 298:1 311:1 330:1 371:1 399:1 406:1 408:1 424:1 449:1 464:1 471:1 487:1 506:1 508:1 528:1 529:1 547:1 571:1 574:1 575:1 577:1 578:1 581:1 608:1 621:1 631:1 639:1 646:1 666:1 669:1 687:1 688:1 752:1 756:1 775:1 784:1 794:1 810:1 825:1 840:1 863:1 877:1 883:1 904:1 910:1 916:1 930:1 953:1 958:1 973:1 989:1 992:1 997:1 1002:1 1022:1 1030:1 1069:1 1072:1 1089:1 1099:1 1106:1 1113:1 1117:1 1120:1 1162:1 1163:1 1171:1 1174:1 1182:1 1192:1 1197:1 1203:1 1228:1 1240:1 1250:1 1304:1 1309:1 1316:1 1330:1 1333:1 1337:1 1353:1 1364:1 1377:1 1398:1 1468:1 1490:1 1541:1 1544:1 1555:1 1558:1 1570:1 1584:1 1592:1 1594:1 1665:1 1666:1 1667:1 1668:1 1675:1 1676:1 1699:1 1716:1 1726:1 1730:1 1760:1 1766:1 1768:1 1773:1 1792:1 1793:1 1822:1 1835:1 1851:1 1852:1 1855:1 1861:1 1876:1 1889:1 1893:1 1895:1 
2.7124144003929929 6:1 11:1 17:1 19:1 25:1 30:1 43:1 44:1 53:1 71:1 74:1 86:1 103:1 123:1 124:1 162:1 195:1 227:1 229:1 238:1 248:1 280:1 299:1 316:1 328:1 352:1 356:1 378:1 399:1 437:1 457:1 471:1 479:1 529:1 552:1 593:1 594:1 607:1 608:1 663:1 666:1 687:1 688:1 689:1 692:1 708:1 712:1 740:1 756:1 771:1 802:1 825:1 826:1 838:1 840:1 865:1 869:1 877:1 883:1 891:1 902:1 942:1 961:1 963:1 976:1 992:1 997:1 1022:1 1053:1 1060:1 1064:1 1082:1 1092:1 1093:1 1099:1 1106:1 1113:1 1120:1 1162:1 1163:1 1167:1 1171:1 1172:1 1173:1 1181:1 1182:1 1183:1 1189:1 1191:1 1196:1 1205:1 1245:1 1255:1 1264:1 1286:1 1301:1 1314:1 1316:1 1343:1 1358:1 1403:1 1414:1 1465:1 1470:1 1509:1 1545:1 1566:1 1583:1 1595:1 1616:1 1636:1 1651:1 1665:1 1666:1 1673:1 1676:1 1681:1 1684:1 1694:1 1699:1 1700:1 1719:1 1739:1 1753:1 1766:1 1792:1 1804:1 1809:1 1819:1 1835:1 1837:1 1847:1 1852:1 1860:1 1869:1 1871:1 1893:1 1895:1 1896:1 
5.9618524390221639 24:1 40:1 74:1 103:1 162:1 168:1 238:1 244:1 272:1 374:1 479:1 514:1 515:1 531:1 568:1 570:1 571:1 645:1 646:1 666:1 681:1 708:1 735:1 743:1 756:1 784:1 794:1 799:1 800:1 810:1 822:1 825:1 840:1 869:1 876:1 883:1 902:1 938:1 956:1 960:1 961:1 995:1 1002:1 1009:1 1019:1 1047:1 1098:1 1099:1 1117:1 1120:1 1151:1 1162:1 1171:1 1173:1 1179:1 1181:1 1191:1 1192:1 1196:1 1202:1 1251:1 1264:1 1278:1 1281:1 1284:1 1318:1 1373:1 1401:1 1405:1 1426:1 1477:1 1510:1 1521:1 1523:1 1533:1 1538:1 1545:1 1610:1 1613:1 1665:1 1666:1 1676:1 1699:1 1717:1 1744:1 1750:1 1766:1 1773:1 1796:1 1819:1 1852:1 1860:1 1871:1 1876:1 1893:1 1895:1 
10 391:1 754:1 799:1 992:1 1538:1 1744:1 1803:1 1852:1 
8.5914876393756376 10:1 20:1 23:1 25:1 53:1 55:1 60:1 61:1 63:1 64:1 71:1 74:1 75:1 88:1 103:1 116:1 124:1 140:1 162:1 168:1 175:1 186:1 238:1 251:1 299:1 309:1 320:1 321:1 350:1 352:1 354:1 363:1 368:1 370:1 371:1 389:1 393:1 436:1 440:1 445:1 449:1 471:1 479:1 486:1 501:1 515:1 531:1 565:1 567:1 569:1 589:1 594:1 615:1 626:1 646:1 657:1 666:1 688:1 708:1 724:1 731:1 743:1 748:1 751:1 756:1 770:1 773:1 775:1 789:1 792:1 794:1 797:1 799:1 805:1 810:1 825:1 849:1 850:1 860:1 863:1 877:1 883:1 902:1 916:1 945:1 947:1 959:1 964:1 969:1 982:1 991:1 1001:1 1002:1 1018:1 1024:1 1064:1 1067:1 1077:1 1084:1 1086:1 1093:1 1113:1 1117:1 1162:1 1172:1 1173:1 1174:1 1182:1 1183:1 1189:1 1192:1 1204:1 1221:1 1230:1 1249:1 1264:1 1279:1 1316:1 1319:1 1322:1 1343:1 1347:1 1352:1 1370:1 1394:1 1417:1 1425:1 1447:1 1453:1 1468:1 1470:1 1503:1 1523:1 1532:1 1538:1 1577:1 1585:1 1625:1 1636:1 1663:1 1664:1 1665:1 1666:1 1667:1 1668:1 1671:1 1676:1 1677:1 1678:1 1683:1 1694:1 1699:1 1708:1 1714:1 1741:1 1745:1 1767:1 1788:1 1803:1 1819:1 1822:1 1835:1 1844:1 1852:1 1860:1 1869:1 1878:1 1882:1 1893:1 1895:1 1896:1 
10 74:1 75:1 86:1 227:1 238:1 506:1 531:1 544:1 617:1 699:1 739:1 799:1 824:1 829:1 847:1 883:1 1120:1 1171:1 1236:1 1660:1 1869:1 1895:1 
10 5:1 13:1 21:1 31:1 46:1 64:1 71:1 74:1 75:1 103:1 116:1 117:1 118:1 162:1 167:1 168:1 195:1 225:1 238:1 239:1 277:1 317:1 354:1 383:1 432:1 463:1 471:1 666:1 681:1 696:1 708:1 743:1 756:1 763:1 778:1 797:1 799:1 805:1 810:1 825:1 862:1 877:1 883:1 904:1 956:1 975:1 1018:1 1084:1 1089:1 1098:1 1106:1 1117:1 1120:1 1165:1 1171:1 1182:1 1233:1 1242:1 1257:1 1264:1 1280:1 1443:1 1474:1 1493:1 1538:1 1552:1 1662:1 1664:1 1665:1 1666:1 1676:1 1678:1 1699:1 1722:1 1733:1 1741:1 1764:1 1766:1 1803:1 1809:1 1840:1 1844:1 1847:1 1852:1 1886:1 1893:1 1895:1 
9.6337812662399287 5:1 25:1 53:1 61:1 69:1 71:1 74:1 105:1 116:1 162:1 176:1 200:1 207:1 238:1 248:1 277:1 280:1 309:1 328:1 338:1 345:1 352:1 354:1 468:1 471:1 501:1 506:1 530:1 531:1 538:1 544:1 561:1 571:1 583:1 594:1 646:1 666:1 681:1 688:1 708:1 718:1 732:1 735:1 743:1 756:1 771:1 795:1 797:1 799:1 800:1 810:1 825:1 877:1 880:1 883:1 891:1 902:1 921:1 947:1 961:1 974:1 991:1 1002:1 1009:1 1048:1 1079:1 1089:1 1097:1 1099:1 1113:1 1120:1 1162:1 1171:1 1183:1 1189:1 1192:1 1230:1 1257:1 1279:1 1302:1 1311:1 1347:1 1351:1 1353:1 1360:1 1373:1 1421:1 1446:1 1462:1 1473:1 1477:1 1493:1 1494:1 1519:1 1520:1 1528:1 1566:1 1579:1 1581:1 1589:1 1640:1 1655:1 1662:1 1665:1 1666:1 1668:1 1669:1 1675:1 1676:1 1694:1 1695:1 1699:1 1710:1 1722:1 1741:1 1766:1 1804:1 1844:1 1845:1 1847:1 1860:1 1869:1 1889:1 1893:1 1895:1 
10 103:1 162:1 219:1 227:1 238:1 320:1 393:1 434:1 479:1 481:1 530:1 531:1 592:1 619:1 666:1 688:1 718:1 732:1 736:1 756:1 770:1 787:1 792:1 799:1 816:1 825:1 860:1 873:1 877:1 883:1 886:1 891:1 902:1 976:1 991:1 992:1 997:1 1038:1 1095:1 1120:1 1171:1 1230:1 1231:1 1262:1 1278:1 1369:1 1468:1 1501:1 1572:1 1666:1 1676:1 1694:1 1699:1 1819:1 1827:1 1844:1 1869:1 1871:1 1893:1 
10 5:1 11:1 27:1 238:1 254:1 280:1 354:1 663:1 666:1 681:1 708:1 791:1 865:1 902:1 918:1 963:1 965:1 1106:1 1120:1 1162:1 1192:1 1204:1 1220:1 1465:1 1511:1 1517:1 1523:1 1527:1 1588:1 1590:1 1592:1 1666:1 1675:1 1699:1 1711:1 1741:1 1819:1 1893:1 
2.6699040397219975 64:1 187:1 277:1 309:1 352:1 354:1 405:1 455:1 509:1 536:1 538:1 555:1 566:1 694:1 711:1 797:1 799:1 880:1 902:1 919:1 935:1 991:1 992:1 1032:1 1089:1 1102:1 1105:1 1120:1 1171:1 1173:1 1245:1 1257:1 1265:1 1302:1 1353:1 1364:1 1461:1 1662:1 1722:1 1741:1 1744:1 
10 
6.7662132555396353 6:1 15:1 25:1 38:1 53:1 57:1 60:1 64:1 74:1 103:1 116:1 120:1 124:1 153:1 162:1 165:1 170:1 178:1 183:1 225:1 227:1 238:1 272:1 283:1 292:1 305:1 321:1 337:1 338:1 346:1 352:1 374:1 387:1 406:1 408:1 412:1 428:1 429:1 432:1 447:1 463:1 471:1 477:1 488:1 495:1 530:1 531:1 570:1 572:1 614:1 623:1 666:1 672:1 680:1 683:1 687:1 696:1 708:1 724:1 727:1 735:1 743:1 745:1 756:1 759:1 779:1 789:1 795:1 799:1 806:1 810:1 825:1 836:1 840:1 865:1 867:1 869:1 876:1 877:1 887:1 904:1 918:1 921:1 929:1 930:1 948:1 949:1 956:1 960:1 961:1 982:1 989:1 991:1 992:1 995:1 1042:1 1060:1 1067:1 1071:1 1074:1 1078:1 1084:1 1087:1 1099:1 1108:1 1113:1 1117:1 1120:1 1162:1 1171:1 1189:1 1191:1 1192:1 1196:1 1242:1 1269:1 1292:1 1293:1 1322:1 1326:1 1342:1 1369:1 1372:1 1373:1 1384:1 1404:1 1418:1 1442:1 1444:1 1467:1 1474:1 1493:1 1520:1 1524:1 1538:1 1539:1 1545:1 1549:1 1585:1 1591:1 1603:1 1610:1 1613:1 1617:1 1636:1 1651:1 1652:1 1665:1 1666:1 1676:1 1677:1 1699:1 1733:1 1740:1 1744:1 1750:1 1766:1 1771:1 1773:1 1778:1 1803:1 1809:1 1819:1 1835:1 1837:1 1838:1 1840:1 1841:1 1844:1 1852:1 1860:1 1878:1 1893:1 1895:1 
4.7853153123481436 74:1 90:1 124:1 174:1 176:1 227:1 245:1 272:1 280:1 298:1 322:1 370:1 467:1 506:1 530:1 531:1 565:1 640:1 672:1 681:1 687:1 688:1 706:1 708:1 766:1 775:1 782:1 787:1 799:1 877:1 883:1 959:1 969:1 974:1 1071:1 1080:1 1095:1 1097:1 1117:1 1120:1 1162:1 1171:1 1181:1 1182:1 1191:1 1192:1 1290:1 1316:1 1353:1 1359:1 1384:1 1405:1 1425:1 1452:1 1474:1 1493:1 1501:1 1506:1 1533:1 1556:1 1572:1 1584:1 1608:1 1609:1 1666:1 1676:1 1679:1 1699:1 1758:1 1760:1 1773:1 1830:1 1871:1 1895:1 
10 11:1 479:1 504:1 666:1 718:1 799:1 863:1 869:1 945:1 1009:1 1062:1 1093:1 1106:1 1120:1 1173:1 1182:1 1231:1 1290:1 1609:1 1699:1 
10 227:1 261:1 477:1 530:1 531:1 623:1 666:1 681:1 708:1 775:1 797:1 799:1 825:1 877:1 935:1 961:1 992:1 1075:1 1089:1 1095:1 1099:1 1120:1 1162:1 1170:1 1188:1 1244:1 1446:1 1501:1 1572:1 1638:1 1665:1 1676:1 1696:1 1698:1 1822:1 1855:1 1868:1 1887:1 
9.6509209019667228 61:1 156:1 207:1 277:1 354:1 538:1 673:1 797:1 825:1 877:1 1032:1 1043:1 1078:1 1079:1 1102:1 1212:1 1537:1 1662:1 1676:1 1722:1 1741:1 
4.3443976952533783 17:1 18:1 21:1 71:1 74:1 86:1 103:1 162:1 227:1 238:1 293:1 309:1 486:1 530:1 603:1 646:1 647:1 688:1 708:1 771:1 787:1 794:1 810:1 840:1 860:1 863:1 877:1 902:1 933:1 956:1 992:1 1032:1 1162:1 1183:1 1189:1 1192:1 1198:1 1204:1 1213:1 1242:1 1304:1 1319:1 1384:1 1400:1 1454:1 1468:1 1477:1 1616:1 1666:1 1676:1 1699:1 1715:1 1819:1 1840:1 1852:1 1860:1 1862:1 1869:1 1876:1 1893:1 1895:1 
10 5:1 10:1 21:1 28:1 30:1 53:1 74:1 75:1 101:1 103:1 116:1 121:1 124:1 126:1 139:1 155:1 157:1 162:1 167:1 174:1 206:1 227:1 238:1 246:1 255:1 280:1 286:1 309:1 311:1 321:1 341:1 352:1 370:1 383:1 387:1 388:1 393:1 420:1 431:1 434:1 440:1 445:1 455:1 460:1 479:1 487:1 493:1 495:1 501:1 522:1 525:1 531:1 540:1 562:1 567:1 575:1 586:1 639:1 652:1 663:1 666:1 672:1 688:1 708:1 713:1 731:1 756:1 787:1 794:1 799:1 810:1 817:1 825:1 827:1 837:1 840:1 845:1 865:1 877:1 883:1 884:1 901:1 941:1 956:1 959:1 973:1 989:1 991:1 992:1 1018:1 1032:1 1047:1 1056:1 1062:1 1063:1 1064:1 1083:1 1084:1 1086:1 1093:1 1099:1 1106:1 1120:1 1144:1 1152:1 1162:1 1164:1 1171:1 1173:1 1178:1 1181:1 1182:1 1183:1 1185:1 1187:1 1191:1 1192:1 1203:1 1204:1 1207:1 1220:1 1221:1 1227:1 1231:1 1238:1 1244:1 1255:1 1264:1 1287:1 1299:1 1301:1 1311:1 1315:1 1341:1 1343:1 1349:1 1365:1 1372:1 1373:1 1381:1 1384:1 1390:1 1405:1 1408:1 1413:1 1425:1 1462:1 1466:1 1477:1 1483:1 1491:1 1492:1 1506:1 1508:1 1513:1 1526:1 1541:1 1542:1 1556:1 1558:1 1567:1 1592:1 1594:1 1609:1 1642:1 1662:1 1663:1 1665:1 1666:1 1667:1 1668:1 1669:1 1671:1 1673:1 1675:1 1676:1 1681:1 1688:1 1694:1 1695:1 1699:1 1708:1 1711:1 1717:1 1728:1 1760:1 1761:1 1763:1 1765:1 1773:1 1791:1 1819:1 1822:1 1852:1 1860:1 1869:1 1876:1 1882:1 1893:1 1895:1 
10 20:1 53:1 74:1 103:1 162:1 181:1 278:1 298:1 352:1 396:1 487:1 646:1 688:1 698:1 792:1 799:1 849:1 877:1 910:1 959:1 992:1 1117:1 1171:1 1174:1 1183:1 1192:1 1230:1 1264:1 1468:1 1541:1 1638:1 1667:1 1676:1 1681:1 1699:1 1796:1 1844:1 1860:1 1895:1 
10 75:1 124:1 174:1 227:1 246:1 309:1 383:1 531:1 553:1 630:1 672:1 681:1 711:1 877:1 883:1 989:1 991:1 1064:1 1106:1 1120:1 1162:1 1171:1 1173:1 1189:1 1192:1 1196:1 1250:1 1415:1 1523:1 1608:1 1663:1 1665:1 1666:1 1673:1 1737:1 1742:1 1760:1 1803:1 1882:1 1895:1 
10 
10 799:1 1171:1 1256:1 1264:1 1699:1 1796:1 1895:1 
10 19:1 74:1 309:1 352:1 388:1 732:1 799:1 1075:1 1120:1 1162:1 1182:1 1191:1 1507:1 1636:1 1794:1 1872:1 1882:1 
2.1520330947720905 4:1 11:1 13:1 21:1 31:1 48:1 53:1 56:1 60:1 64:1 74:1 75:1 116:1 121:1 123:1 162:1 167:1 168:1 173:1 182:1 218:1 224:1 237:1 300:1 317:1 318:1 321:1 352:1 412:1 432:1 440:1 477:1 495:1 531:1 564:1 593:1 614:1 651:1 654:1 666:1 688:1 696:1 698:1 708:1 732:1 746:1 756:1 799:1 800:1 825:1 837:1 860:1 865:1 867:1 869:1 877:1 883:1 912:1 928:1 974:1 976:1 992:1 1018:1 1042:1 1060:1 1071:1 1074:1 1084:1 1086:1 1090:1 1106:1 1114:1 1120:1 1146:1 1162:1 1164:1 1165:1 1171:1 1182:1 1189:1 1197:1 1212:1 1213:1 1242:1 1265:1 1278:1 1289:1 1292:1 1293:1 1318:1 1322:1 1326:1 1334:1 1364:1 1369:1 1384:1 1405:1 1409:1 1414:1 1425:1 1426:1 1428:1 1467:1 1474:1 1503:1 1552:1 1581:1 1585:1 1612:1 1617:1 1649:1 1651:1 1665:1 1666:1 1673:1 1676:1 1699:1 1713:1 1723:1 1732:1 1745:1 1750:1 1771:1 1787:1 1803:1 1831:1 1838:1 1840:1 1852:1 1860:1 1893:1 1895:1 
10 156:1 277:1 354:1 538:1 880:1 1102:1 1120:1 1131:1 1257:1 1662:1 1722:1 1741:1 
10 53:1 74:1 75:1 124:1 174:1 227:1 261:1 287:1 298:1 352:1 407:1 530:1 531:1 560:1 630:1 666:1 672:1 681:1 735:1 756:1 799:1 810:1 825:1 840:1 876:1 877:1 883:1 899:1 931:1 959:1 960:1 961:1 995:1 1002:1 1032:1 1064:1 1120:1 1162:1 1171:1 1244:1 1258:1 1264:1 1373:1 1398:1 1415:1 1607:1 1608:1 1610:1 1666:1 1676:1 1699:1 1744:1 1773:1 1803:1 1819:1 1860:1 1893:1 1895:1 
10 5:1 71:1 74:1 116:1 213:1 246:1 296:1 298:1 355:1 461:1 628:1 775:1 799:1 810:1 822:1 825:1 840:1 860:1 1032:1 1067:1 1164:1 1171:1 1179:1 1189:1 1264:1 1315:1 1383:1 1468:1 1483:1 1493:1 1609:1 1665:1 1666:1 1699:1 1758:1 1780:1 1803:1 1819:1 1852:1 1859:1 1893:1 
2.6607527884555178 5:1 40:1 53:1 74:1 103:1 124:1 219:1 272:1 298:1 462:1 608:1 737:1 775:1 801:1 824:1 829:1 977:1 978:1 1011:1 1027:1 1089:1 1099:1 1162:1 1172:1 1191:1 1420:1 1523:1 1529:1 1666:1 1678:1 1796:1 1804:1 1819:1 1822:1 1829:1 1841:1 
10 53:1 574:1 708:1 756:1 826:1 984:1 1018:1 1036:1 1089:1 1120:1 1165:1 1173:1 1202:1 1299:1 1307:1 1445:1 1468:1 1541:1 1666:1 1667:1 1676:1 1697:1 1779:1 1827:1 1852:1 1855:1 1893:1 
10 53:1 64:1 71:1 91:1 126:1 145:1 156:1 162:1 277:1 354:1 391:1 466:1 470:1 471:1 474:1 488:1 538:1 555:1 659:1 673:1 796:1 799:1 817:1 839:1 868:1 877:1 880:1 991:1 992:1 1032:1 1034:1 1043:1 1079:1 1100:1 1113:1 1120:1 1121:1 1124:1 1125:1 1126:1 1144:1 1145:1 1147:1 1162:1 1182:1 1257:1 1309:1 1367:1 1499:1 1519:1 1537:1 1545:1 1662:1 1676:1 1722:1 1741:1 1742:1 1746:1 1798:1 1801:1 1803:1 1895:1 
9.8313555996382362 4:1 5:1 21:1 39:1 41:1 53:1 60:1 63:1 74:1 103:1 105:1 121:1 138:1 162:1 165:1 181:1 182:1 188:1 218:1 225:1 227:1 238:1 245:1 283:1 287:1 352:1 374:1 393:1 407:1 410:1 471:1 481:1 486:1 490:1 491:1 520:1 525:1 529:1 530:1 531:1 585:1 652:1 666:1 687:1 688:1 692:1 707:1 708:1 718:1 755:1 756:1 758:1 763:1 770:1 787:1 792:1 793:1 794:1 805:1 810:1 825:1 828:1 877:1 883:1 916:1 928:1 938:1 945:1 956:1 961:1 976:1 981:1 992:1 997:1 1001:1 1017:1 1038:1 1060:1 1064:1 1065:1 1099:1 1106:1 1113:1 1115:1 1120:1 1162:1 1171:1 1172:1 1173:1 1182:1 1189:1 1192:1 1197:1 1205:1 1230:1 1242:1 1255:1 1256:1 1264:1 1371:1 1398:1 1424:1 1431:1 1443:1 1466:1 1468:1 1477:1 1483:1 1504:1 1518:1 1531:1 1538:1 1545:1 1571:1 1597:1 1607:1 1619:1 1652:1 1663:1 1664:1 1665:1 1666:1 1667:1 1668:1 1669:1 1671:1 1673:1 1675:1 1676:1 1678:1 1683:1 1688:1 1697:1 1699:1 1723:1 1732:1 1741:1 1753:1 1760:1 1766:1 1777:1 1809:1 1819:1 1835:1 1837:1 1841:1 1847:1 1851:1 1852:1 1860:1 1862:1 1868:1 1869:1 1871:1 1876:1 1893:1 1895:1 1896:1 
1.2837989329460682 75:1 101:1 103:1 136:1 165:1 174:1 246:1 292:1 298:1 309:1 383:1 393:1 479:1 530:1 531:1 572:1 617:1 646:1 666:1 688:1 710:1 735:1 756:1 799:1 825:1 840:1 853:1 876:1 960:1 961:1 968:1 995:1 1077:1 1120:1 1179:1 1192:1 1204:1 1338:1 1373:1 1539:1 1610:1 1676:1 1699:1 1708:1 1744:1 1758:1 1773:1 1867:1 1893:1 1895:1 
10 10:1 17:1 18:1 20:1 24:1 39:1 42:1 47:1 53:1 71:1 73:1 74:1 75:1 80:1 103:1 116:1 122:1 124:1 128:1 142:1 152:1 162:1 166:1 167:1 170:1 218:1 225:1 227:1 238:1 272:1 319:1 321:1 326:1 333:1 334:1 353:1 364:1 377:1 378:1 381:1 387:1 388:1 401:1 420:1 428:1 445:1 473:1 474:1 479:1 487:1 514:1 522:1 527:1 539:1 550:1 558:1 572:1 608:1 627:1 631:1 645:1 646:1 666:1 673:1 676:1 688:1 692:1 698:1 701:1 707:1 714:1 719:1 727:1 735:1 743:1 775:1 778:1 786:1 787:1 799:1 820:1 825:1 826:1 827:1 838:1 840:1 863:1 865:1 877:1 882:1 883:1 897:1 899:1 902:1 919:1 924:1 942:1 952:1 957:1 964:1 966:1 970:1 976:1 978:1 989:1 991:1 996:1 1002:1 1009:1 1019:1 1033:1 1035:1 1064:1 1067:1 1097:1 1099:1 1106:1 1113:1 1120:1 1155:1 1156:1 1157:1 1162:1 1171:1 1173:1 1174:1 1177:1 1178:1 1182:1 1189:1 1223:1 1236:1 1248:1 1258:1 1263:1 1292:1 1299:1 1305:1 1309:1 1315:1 1318:1 1346:1 1369:1 1372:1 1374:1 1376:1 1387:1 1392:1 1397:1 1401:1 1407:1 1410:1 1419:1 1426:1 1467:1 1475:1 1493:1 1508:1 1523:1 1556:1 1572:1 1573:1 1580:1 1586:1 1591:1 1592:1 1596:1 1601:1 1603:1 1607:1 1613:1 1640:1 1646:1 1648:1 1656:1 1663:1 1665:1 1666:1 1667:1 1668:1 1673:1 1674:1 1675:1 1676:1 1684:1 1687:1 1694:1 1699:1 1711:1 1721:1 1735:1 1761:1 1819:1 1827:1 1835:1 1840:1 1844:1 1847:1 1852:1 1854:1 1860:1 1866:1 1871:1 1872:1 1876:1 
10 227:1 246:1 261:1 530:1 531:1 666:1 681:1 695:1 708:1 718:1 775:1 797:1 799:1 877:1 961:1 992:1 1095:1 1099:1 1120:1 1121:1 1124:1 1126:1 1134:1 1136:1 1137:1 1138:1 1162:1 1170:1 1188:1 1244:1 1337:1 1446:1 1501:1 1572:1 1638:1 1665:1 1676:1 1696:1 1855:1 
5.6223576388687819 74:1 162:1 298:1 410:1 471:1 756:1 771:1 775:1 810:1 947:1 956:1 961:1 983:1 1060:1 1063:1 1077:1 1163:1 1191:1 1227:1 1452:1 1637:1 1699:1 1708:1 1766:1 1876:1 1893:1 1895:1 
2.1520658857813055 5:1 7:1 10:1 11:1 13:1 25:1 38:1 53:1 64:1 71:1 74:1 75:1 99:1 101:1 116:1 120:1 123:1 124:1 128:1 151:1 153:1 162:1 165:1 167:1 170:1 178:1 227:1 238:1 252:1 256:1 286:1 292:1 300:1 338:1 352:1 356:1 367:1 376:1 387:1 430:1 456:1 471:1 477:1 479:1 531:1 535:1 549:1 593:1 597:1 633:1 639:1 654:1 666:1 688:1 712:1 735:1 739:1 743:1 756:1 771:1 778:1 799:1 802:1 810:1 819:1 825:1 840:1 860:1 865:1 867:1 869:1 873:1 876:1 877:1 883:1 904:1 916:1 928:1 947:1 948:1 956:1 960:1 961:1 989:1 992:1 995:1 1006:1 1015:1 1018:1 1042:1 1045:1 1060:1 1062:1 1074:1 1084:1 1085:1 1086:1 1088:1 1106:1 1115:1 1117:1 1120:1 1162:1 1171:1 1173:1 1183:1 1191:1 1192:1 1205:1 1218:1 1235:1 1264:1 1327:1 1341:1 1365:1 1389:1 1390:1 1405:1 1410:1 1413:1 1426:1 1442:1 1444:1 1467:1 1480:1 1494:1 1498:1 1503:1 1519:1 1538:1 1557:1 1585:1 1610:1 1612:1 1665:1 1666:1 1673:1 1676:1 1684:1 1699:1 1713:1 1720:1 1721:1 1722:1 1732:1 1744:1 1766:1 1773:1 1779:1 1803:1 1804:1 1819:1 1831:1 1837:1 1841:1 1846:1 1852:1 1860:1 1862:1 1873:1 1878:1 1889:1 1893:1 1895:1 
10 71:1 74:1 103:1 162:1 183:1 227:1 238:1 242:1 312:1 455:1 479:1 511:1 663:1 675:1 688:1 698:1 718:1 732:1 756:1 775:1 787:1 810:1 825:1 828:1 860:1 902:1 938:1 956:1 989:1 997:1 1044:1 1070:1 1089:1 1099:1 1113:1 1117:1 1120:1 1162:1 1164:1 1171:1 1175:1 1197:1 1230:1 1425:1 1465:1 1475:1 1517:1 1542:1 1612:1 1666:1 1668:1 1671:1 1676:1 1708:1 1766:1 1796:1 1803:1 1893:1 1895:1 
10 405:1 799:1 1073:1 1154:1 1785:1 
10 227:1 303:1 308:1 530:1 531:1 706:1 766:1 796:1 799:1 812:1 813:1 877:1 992:1 1058:1 1095:1 1120:1 1121:1 1126:1 1145:1 1147:1 1165:1 1245:1 1265:1 1307:1 1454:1 1501:1 1534:1 1572:1 1676:1 1679:1 1699:1 1830:1 
10 50:1 477:1 479:1 531:1 799:1 992:1 1120:1 
3.6699840841095521 61:1 156:1 207:1 277:1 354:1 538:1 673:1 797:1 825:1 877:1 1032:1 1043:1 1078:1 1079:1 1102:1 1212:1 1662:1 1676:1 1722:1 1741:1 
10 227:1 303:1 308:1 530:1 531:1 706:1 766:1 796:1 799:1 812:1 813:1 877:1 992:1 1058:1 1095:1 1120:1 1121:1 1126:1 1145:1 1147:1 1165:1 1245:1 1265:1 1307:1 1454:1 1501:1 1534:1 1572:1 1676:1 1679:1 1699:1 1830:1 
4.9103435223819245 74:1 103:1 178:1 227:1 311:1 482:1 548:1 558:1 612:1 708:1 739:1 756:1 775:1 794:1 825:1 829:1 877:1 883:1 891:1 1000:1 1033:1 1064:1 1120:1 1182:1 1191:1 1360:1 1468:1 1508:1 1518:1 1526:1 1663:1 1666:1 1699:1 1713:1 1760:1 1860:1 1876:1 1893:1 
0.24149509929168284 4:1 64:1 74:1 87:1 103:1 120:1 139:1 142:1 162:1 227:1 240:1 261:1 311:1 346:1 471:1 490:1 530:1 577:1 631:1 646:1 652:1 666:1 674:1 676:1 687:1 688:1 708:1 712:1 724:1 726:1 732:1 756:1 773:1 775:1 783:1 787:1 794:1 810:1 819:1 825:1 860:1 877:1 883:1 928:1 947:1 966:1 974:1 976:1 979:1 981:1 991:1 996:1 997:1 1038:1 1071:1 1083:1 1087:1 1093:1 1097:1 1099:1 1101:1 1113:1 1120:1 1162:1 1171:1 1173:1 1178:1 1192:1 1204:1 1221:1 1244:1 1264:1 1314:1 1364:1 1365:1 1366:1 1371:1 1396:1 1400:1 1445:1 1453:1 1470:1 1477:1 1503:1 1520:1 1521:1 1538:1 1552:1 1566:1 1567:1 1595:1 1652:1 1665:1 1666:1 1667:1 1669:1 1671:1 1676:1 1683:1 1687:1 1694:1 1699:1 1700:1 1723:1 1731:1 1739:1 1741:1 1766:1 1804:1 1809:1 1819:1 1833:1 1835:1 1838:1 1844:1 1847:1 1852:1 1862:1 1869:1 1893:1 1895:1 
9.2045194030594981 20:1 40:1 53:1 74:1 103:1 116:1 167:1 191:1 195:1 219:1 222:1 227:1 229:1 246:1 257:1 260:1 298:1 308:1 461:1 462:1 516:1 530:1 531:1 536:1 566:1 571:1 588:1 620:1 666:1 669:1 681:1 688:1 708:1 743:1 762:1 770:1 775:1 824:1 825:1 839:1 877:1 883:1 902:1 983:1 1018:1 1058:1 1062:1 1120:1 1162:1 1171:1 1179:1 1182:1 1192:1 1194:1 1287:1 1307:1 1317:1 1364:1 1378:1 1390:1 1401:1 1461:1 1474:1 1531:1 1577:1 1622:1 1625:1 1665:1 1666:1 1676:1 1694:1 1699:1 1738:1 1768:1 1785:1 1841:1 1860:1 1889:1 1893:1 1895:1 
8.8631110925129732 5:1 6:1 7:1 14:1 23:1 24:1 43:1 53:1 58:1 60:1 63:1 71:1 74:1 75:1 78:1 103:1 110:1 116:1 121:1 124:1 134:1 143:1 147:1 155:1 162:1 165:1 166:1 167:1 173:1 176:1 210:1 219:1 225:1 227:1 238:1 264:1 267:1 293:1 310:1 311:1 314:1 320:1 321:1 346:1 352:1 354:1 366:1 379:1 386:1 408:1 413:1 433:1 436:1 445:1 452:1 463:1 471:1 474:1 501:1 504:1 519:1 522:1 524:1 530:1 531:1 537:1 538:1 545:1 546:1 552:1 555:1 561:1 572:1 577:1 585:1 586:1 600:1 638:1 646:1 652:1 666:1 680:1 688:1 692:1 706:1 708:1 712:1 722:1 724:1 735:1 743:1 745:1 756:1 759:1 766:1 769:1 794:1 799:1 804:1 817:1 824:1 825:1 855:1 860:1 862:1 864:1 869:1 873:1 877:1 882:1 883:1 899:1 905:1 912:1 913:1 918:1 924:1 926:1 928:1 932:1 956:1 969:1 976:1 986:1 990:1 994:1 996:1 997:1 1001:1 1008:1 1009:1 1013:1 1020:1 1022:1 1043:1 1062:1 1064:1 1067:1 1069:1 1086:1 1087:1 1095:1 1113:1 1120:1 1125:1 1155:1 1162:1 1164:1 1165:1 1171:1 1173:1 1176:1 1178:1 1185:1 1191:1 1196:1 1197:1 1218:1 1230:1 1231:1 1234:1 1257:1 1264:1 1278:1 1294:1 1302:1 1307:1 1311:1 1320:1 1353:1 1359:1 1366:1 1367:1 1369:1 1390:1 1392:1 1393:1 1417:1 1418:1 1430:1 1439:1 1443:1 1459:1 1463:1 1470:1 1481:1 1486:1 1501:1 1515:1 1516:1 1521:1 1538:1 1539:1 1564:1 1566:1 1571:1 1572:1 1573:1 1580:1 1587:1 1596:1 1612:1 1613:1 1619:1 1623:1 1640:1 1652:1 1662:1 1665:1 1666:1 1668:1 1675:1 1676:1 1679:1 1681:1 1688:1 1694:1 1699:1 1710:1 1718:1 1721:1 1722:1 1741:1 1742:1 1766:1 1775:1 1779:1 1780:1 1785:1 1819:1 1830:1 1834:1 1835:1 1836:1 1838:1 1840:1 1847:1 1852:1 1859:1 1860:1 1861:1 1862:1 1868:1 1871:1 1876:1 1889:1 1893:1 1895:1 
10 531:1 666:1 735:1 799:1 840:1 876:1 960:1 961:1 995:1 1120:1 1124:1 1610:1 1649:1 1744:1 1773:1 1848:1 
3.045409343778084 156:1 277:1 354:1 538:1 880:1 1102:1 1120:1 1137:1 1257:1 1662:1 1722:1 1741:1 
2.1110360128126007 60:1 74:1 162:1 238:1 350:1 393:1 666:1 681:1 688:1 732:1 756:1 771:1 799:1 825:1 827:1 852:1 860:1 961:1 1026:1 1086:1 1120:1 1162:1 1182:1 1264:1 1398:1 1400:1 1475:1 1518:1 1607:1 1651:1 1666:1 1676:1 1699:1 1714:1 1777:1 1819:1 1852:1 1860:1 1893:1 1895:1 
10 61:1 156:1 207:1 277:1 354:1 538:1 673:1 797:1 825:1 877:1 1032:1 1043:1 1078:1 1079:1 1102:1 1212:1 1662:1 1676:1 1722:1 1741:1 
0.12765049430002734 20:1 40:1 66:1 74:1 103:1 116:1 167:1 195:1 222:1 227:1 257:1 272:1 298:1 451:1 462:1 530:1 531:1 543:1 571:1 588:1 620:1 669:1 670:1 688:1 698:1 739:1 743:1 762:1 775:1 799:1 824:1 825:1 883:1 895:1 902:1 949:1 953:1 956:1 961:1 977:1 978:1 992:1 1027:1 1099:1 1106:1 1120:1 1162:1 1164:1 1171:1 1179:1 1182:1 1206:1 1333:1 1373:1 1401:1 1420:1 1472:1 1500:1 1531:1 1609:1 1665:1 1666:1 1676:1 1699:1 1758:1 1829:1 1841:1 1862:1 1876:1 1893:1 1895:1 
10 5:1 74:1 124:1 163:1 165:1 216:1 298:1 309:1 389:1 530:1 560:1 663:1 756:1 775:1 793:1 799:1 810:1 825:1 865:1 938:1 956:1 959:1 1009:1 1032:1 1064:1 1098:1 1162:1 1171:1 1174:1 1182:1 1191:1 1204:1 1218:1 1221:1 1264:1 1373:1 1416:1 1483:1 1609:1 1666:1 1671:1 1676:1 1688:1 1699:1 1758:1 1796:1 1803:1 1822:1 1824:1 1876:1 1882:1 1893:1 
10 216:1 225:1 227:1 476:1 530:1 531:1 706:1 766:1 799:1 877:1 1095:1 1099:1 1120:1 1203:1 1501:1 1572:1 1623:1 1669:1 1676:1 1679:1 1699:1 1766:1 1830:1 1895:1 
4.2530241407758007 25:1 124:1 162:1 173:1 182:1 208:1 210:1 227:1 238:1 370:1 471:1 479:1 504:1 530:1 531:1 617:1 681:1 697:1 708:1 825:1 839:1 877:1 958:1 991:1 992:1 1032:1 1099:1 1106:1 1117:1 1120:1 1162:1 1174:1 1210:1 1231:1 1327:1 1369:1 1398:1 1399:1 1400:1 1466:1 1477:1 1478:1 1483:1 1517:1 1547:1 1584:1 1590:1 1592:1 1607:1 1631:1 1641:1 1665:1 1666:1 1676:1 1699:1 1741:1 1760:1 1827:1 1860:1 1868:1 1869:1 1893:1 
6.8902224005400479 5:1 11:1 24:1 39:1 41:1 53:1 74:1 75:1 103:1 105:1 118:1 124:1 142:1 162:1 174:1 227:1 234:1 246:1 251:1 262:1 298:1 305:1 309:1 352:1 393:1 401:1 436:1 448:1 454:1 467:1 507:1 525:1 546:1 550:1 581:1 628:1 643:1 663:1 666:1 677:1 681:1 688:1 732:1 756:1 763:1 770:1 792:1 799:1 810:1 825:1 840:1 862:1 865:1 877:1 956:1 961:1 962:1 969:1 974:1 992:1 997:1 1009:1 1048:1 1063:1 1064:1 1083:1 1093:1 1097:1 1098:1 1106:1 1120:1 1162:1 1164:1 1171:1 1176:1 1182:1 1183:1 1189:1 1203:1 1204:1 1231:1 1264:1 1315:1 1319:1 1324:1 1349:1 1359:1 1376:1 1493:1 1494:1 1513:1 1538:1 1570:1 1630:1 1642:1 1651:1 1663:1 1666:1 1668:1 1673:1 1676:1 1689:1 1694:1 1699:1 1704:1 1708:1 1710:1 1727:1 1735:1 1755:1 1758:1 1760:1 1766:1 1775:1 1796:1 1799:1 1804:1 1822:1 1837:1 1840:1 1852:1 1860:1 1861:1 1869:1 1876:1 1882:1 1893:1 1895:1 
5.1019938548826396 5:1 36:1 44:1 55:1 64:1 71:1 74:1 75:1 101:1 103:1 124:1 141:1 150:1 155:1 162:1 165:1 167:1 176:1 195:1 204:1 225:1 238:1 251:1 252:1 300:1 309:1 317:1 352:1 376:1 407:1 479:1 481:1 524:1 530:1 531:1 564:1 571:1 574:1 575:1 576:1 608:1 651:1 666:1 672:1 688:1 692:1 696:1 708:1 739:1 756:1 787:1 793:1 795:1 810:1 823:1 825:1 840:1 860:1 869:1 871:1 877:1 879:1 882:1 902:1 916:1 952:1 956:1 965:1 968:1 974:1 976:1 980:1 992:1 997:1 1009:1 1017:1 1018:1 1019:1 1032:1 1060:1 1066:1 1067:1 1077:1 1084:1 1086:1 1093:1 1108:1 1110:1 1113:1 1120:1 1162:1 1171:1 1173:1 1182:1 1191:1 1192:1 1196:1 1198:1 1204:1 1244:1 1264:1 1277:1 1287:1 1299:1 1305:1 1322:1 1326:1 1341:1 1346:1 1364:1 1369:1 1371:1 1372:1 1416:1 1417:1 1475:1 1477:1 1538:1 1548:1 1625:1 1652:1 1665:1 1666:1 1667:1 1673:1 1681:1 1694:1 1699:1 1745:1 1758:1 1760:1 1766:1 1779:1 1785:1 1804:1 1809:1 1816:1 1819:1 1827:1 1833:1 1835:1 1839:1 1840:1 1852:1 1859:1 1860:1 1869:1 1876:1 1882:1 1893:1 1895:1 
10 156:1 277:1 354:1 538:1 880:1 1102:1 1120:1 1131:1 1257:1 1662:1 1722:1 1741:1 
10 74:1 103:1 105:1 227:1 242:1 311:1 440:1 445:1 474:1 540:1 550:1 666:1 739:1 743:1 775:1 825:1 877:1 902:1 924:1 966:1 1015:1 1064:1 1077:1 1120:1 1162:1 1163:1 1175:1 1191:1 1218:1 1334:1 1374:1 1444:1 1526:1 1665:1 1666:1 1667:1 1668:1 1699:1 1860:1 1865:1 1871:1 1893:1 1895:1 
10 41:1 74:1 86:1 103:1 165:1 174:1 225:1 234:1 238:1 272:1 298:1 471:1 530:1 547:1 646:1 688:1 739:1 743:1 763:1 775:1 789:1 794:1 799:1 810:1 825:1 883:1 953:1 959:1 975:1 976:1 997:1 1086:1 1106:1 1113:1 1117:1 1171:1 1182:1 1191:1 1192:1 1278:1 1364:1 1373:1 1547:1 1666:1 1671:1 1676:1 1699:1 1766:1 1819:1 1852:1 1859:1 1893:1 1895:1 
10 20:1 53:1 74:1 103:1 162:1 181:1 278:1 298:1 352:1 396:1 487:1 646:1 688:1 698:1 792:1 799:1 849:1 877:1 910:1 959:1 992:1 1117:1 1171:1 1174:1 1183:1 1192:1 1230:1 1264:1 1468:1 1541:1 1638:1 1667:1 1676:1 1681:1 1699:1 1796:1 1844:1 1860:1 1895:1 
10 74:1 116:1 162:1 167:1 238:1 298:1 312:1 330:1 371:1 383:1 394:1 655:1 666:1 688:1 708:1 775:1 825:1 840:1 883:1 884:1 935:1 1048:1 1064:1 1089:1 1093:1 1094:1 1120:1 1162:1 1174:1 1309:1 1351:1 1369:1 1398:1 1401:1 1644:1 1663:1 1664:1 1666:1 1693:1 1698:1 1699:1 1761:1 1785:1 1805:1 1817:1 1822:1 1893:1 1895:1 
10 852:1 961:1 
10 74:1 103:1 178:1 227:1 311:1 482:1 548:1 558:1 612:1 708:1 739:1 756:1 775:1 794:1 825:1 829:1 877:1 883:1 891:1 1000:1 1033:1 1064:1 1120:1 1182:1 1191:1 1360:1 1468:1 1508:1 1518:1 1526:1 1663:1 1666:1 1699:1 1713:1 1760:1 1860:1 1876:1 1893:1 
10 227:1 530:1 531:1 555:1 706:1 766:1 799:1 877:1 1095:1 1501:1 1572:1 1676:1 1679:1 1699:1 1830:1 
10 103:1 162:1 234:1 280:1 309:1 471:1 666:1 677:1 756:1 758:1 778:1 783:1 883:1 928:1 947:1 976:1 1018:1 1072:1 1101:1 1192:1 1510:1 1665:1 1666:1 1819:1 1827:1 1852:1 1882:1 1893:1 
10 156:1 277:1 354:1 538:1 880:1 1102:1 1120:1 1257:1 1662:1 1722:1 1741:1 
0.97007984810775161 5:1 21:1 60:1 74:1 75:1 103:1 162:1 165:1 195:1 298:1 309:1 321:1 369:1 455:1 530:1 531:1 775:1 799:1 825:1 827:1 958:1 992:1 1025:1 1032:1 1083:1 1162:1 1182:1 1315:1 1373:1 1398:1 1400:1 1493:1 1510:1 1607:1 1609:1 1666:1 1676:1 1699:1 1758:1 1860:1 1893:1 
10 5:1 64:1 74:1 75:1 124:1 182:1 225:1 234:1 238:1 309:1 311:1 490:1 666:1 681:1 770:1 791:1 799:1 818:1 825:1 877:1 883:1 947:1 953:1 976:1 981:1 992:1 997:1 1015:1 1018:1 1044:1 1067:1 1084:1 1113:1 1120:1 1162:1 1171:1 1175:1 1197:1 1242:1 1244:1 1256:1 1368:1 1499:1 1513:1 1607:1 1638:1 1665:1 1666:1 1699:1 1704:1 1731:1 1743:1 1760:1 1788:1 1799:1 1804:1 1860:1 1893:1 1895:1 
10 41:1 74:1 167:1 457:1 530:1 666:1 677:1 688:1 756:1 763:1 799:1 804:1 810:1 825:1 902:1 956:1 1000:1 1018:1 1106:1 1400:1 1699:1 1809:1 1893:1 1895:1 
10 11:1 74:1 298:1 681:1 752:1 775:1 883:1 1026:1 1106:1 1114:1 1115:1 1120:1 1343:1 1406:1 1660:1 1666:1 1675:1 1699:1 
10 20:1 50:1 71:1 116:1 155:1 195:1 211:1 277:1 309:1 354:1 358:1 367:1 405:1 473:1 481:1 526:1 527:1 531:1 536:1 538:1 623:1 673:1 714:1 797:1 799:1 810:1 825:1 836:1 840:1 877:1 880:1 883:1 919:1 935:1 966:1 970:1 986:1 992:1 1003:1 1014:1 1032:1 1043:1 1078:1 1089:1 1102:1 1106:1 1120:1 1162:1 1191:1 1212:1 1242:1 1257:1 1258:1 1302:1 1347:1 1353:1 1373:1 1401:1 1461:1 1477:1 1551:1 1662:1 1666:1 1676:1 1699:1 1720:1 1722:1 1741:1 1744:1 1758:1 1766:1 1809:1 1860:1 1878:1 1882:1 1893:1 
10 50:1 477:1 479:1 531:1 799:1 992:1 1120:1 
10 20:1 471:1 574:1 681:1 711:1 741:1 756:1 757:1 773:1 799:1 863:1 883:1 1067:1 1072:1 1106:1 1120:1 1162:1 1171:1 1295:1 1343:1 1453:1 1468:1 1472:1 1504:1 1545:1 1666:1 1675:1 1678:1 1699:1 1760:1 1844:1 1860:1 1893:1 
10 246:1 681:1 1099:1 1164:1 1398:1 1462:1 1520:1 1579:1 1895:1 
2.8213805502402103 5:1 11:1 20:1 25:1 29:1 30:1 38:1 39:1 53:1 60:1 65:1 66:1 70:1 71:1 74:1 80:1 83:1 99:1 103:1 104:1 110:1 116:1 124:1 147:1 162:1 165:1 167:1 169:1 173:1 174:1 179:1 186:1 192:1 198:1 206:1 219:1 224:1 225:1 226:1 227:1 238:1 239:1 240:1 242:1 255:1 263:1 271:1 272:1 277:1 304:1 309:1 321:1 326:1 341:1 354:1 388:1 399:1 405:1 421:1 436:1 452:1 456:1 458:1 471:1 473:1 474:1 476:1 495:1 513:1 517:1 522:1 531:1 538:1 540:1 544:1 548:1 562:1 564:1 575:1 585:1 599:1 608:1 631:1 633:1 646:1 654:1 666:1 673:1 676:1 677:1 680:1 688:1 689:1 692:1 708:1 712:1 718:1 725:1 739:1 742:1 750:1 756:1 785:1 787:1 790:1 792:1 794:1 797:1 799:1 810:1 822:1 825:1 829:1 833:1 834:1 839:1 840:1 862:1 863:1 875:1 877:1 880:1 883:1 902:1 905:1 916:1 924:1 925:1 935:1 951:1 956:1 961:1 976:1 977:1 990:1 991:1 992:1 997:1 1002:1 1022:1 1032:1 1033:1 1037:1 1043:1 1060:1 1062:1 1064:1 1067:1 1071:1 1078:1 1083:1 1084:1 1089:1 1090:1 1093:1 1095:1 1098:1 1099:1 1101:1 1102:1 1106:1 1112:1 1113:1 1115:1 1117:1 1120:1 1162:1 1163:1 1164:1 1171:1 1172:1 1173:1 1174:1 1182:1 1190:1 1191:1 1192:1 1196:1 1200:1 1203:1 1212:1 1230:1 1238:1 1257:1 1265:1 1279:1 1294:1 1302:1 1309:1 1315:1 1316:1 1340:1 1343:1 1353:1 1357:1 1368:1 1369:1 1373:1 1376:1 1385:1 1396:1 1397:1 1404:1 1410:1 1413:1 1414:1 1415:1 1425:1 1431:1 1439:1 1440:1 1444:1 1446:1 1462:1 1465:1 1468:1 1472:1 1481:1 1493:1 1507:1 1518:1 1521:1 1523:1 1526:1 1533:1 1538:1 1545:1 1554:1 1557:1 1559:1 1566:1 1567:1 1580:1 1584:1 1608:1 1613:1 1635:1 1636:1 1637:1 1650:1 1662:1 1665:1 1666:1 1667:1 1668:1 1669:1 1671:1 1673:1 1675:1 1676:1 1678:1 1681:1 1684:1 1687:1 1692:1 1697:1 1699:1 1700:1 1711:1 1722:1 1732:1 1739:1 1741:1 1742:1 1746:1 1753:1 1754:1 1759:1 1760:1 1766:1 1792:1 1803:1 1804:1 1805:1 1817:1 1819:1 1821:1 1822:1 1835:1 1837:1 1841:1 1844:1 1847:1 1849:1 1852:1 1855:1 1860:1 1861:1 1868:1 1869:1 1871:1 1875:1 1880:1 1887:1 1889:1 1893:1 1895:1 
9.938452367330969 11:1 13:1 74:1 75:1 95:1 124:1 147:1 153:1 227:1 246:1 305:1 328:1 352:1 358:1 359:1 367:1 370:1 440:1 515:1 530:1 602:1 673:1 692:1 708:1 724:1 727:1 756:1 799:1 810:1 827:1 838:1 863:1 877:1 905:1 970:1 988:1 1092:1 1093:1 1106:1 1113:1 1120:1 1173:1 1196:1 1242:1 1264:1 1305:1 1330:1 1349:1 1465:1 1467:1 1578:1 1582:1 1613:1 1666:1 1676:1 1700:1 1745:1 1757:1 1766:1 1849:1 1860:1 1871:1 1893:1 
10 60:1 75:1 101:1 123:1 124:1 249:1 276:1 326:1 338:1 350:1 426:1 488:1 599:1 609:1 666:1 688:1 714:1 739:1 792:1 799:1 822:1 877:1 952:1 978:1 984:1 1097:1 1106:1 1113:1 1120:1 1155:1 1162:1 1173:1 1174:1 1183:1 1189:1 1191:1 1279:1 1299:1 1315:1 1334:1 1372:1 1494:1 1517:1 1518:1 1545:1 1665:1 1666:1 1699:1 1763:1 1766:1 1809:1 1819:1 1829:1 1830:1 1872:1 1893:1 
10 53:1 74:1 116:1 176:1 197:1 278:1 481:1 666:1 681:1 708:1 773:1 775:1 825:1 883:1 894:1 964:1 1049:1 1117:1 1120:1 1162:1 1191:1 1192:1 1468:1 1584:1 1595:1 1600:1 1666:1 1676:1 1817:1 1827:1 
10 40:1 71:1 74:1 101:1 116:1 139:1 162:1 227:1 238:1 247:1 329:1 494:1 522:1 531:1 603:1 652:1 666:1 681:1 688:1 698:1 762:1 771:1 799:1 825:1 827:1 852:1 877:1 904:1 945:1 952:1 977:1 978:1 992:1 999:1 1001:1 1002:1 1023:1 1064:1 1077:1 1120:1 1162:1 1163:1 1173:1 1189:1 1212:1 1225:1 1230:1 1316:1 1319:1 1334:1 1380:1 1463:1 1513:1 1535:1 1592:1 1663:1 1665:1 1666:1 1676:1 1699:1 1724:1 1766:1 1829:1 1831:1 1893:1 1895:1 
10 74:1 124:1 168:1 277:1 311:1 354:1 424:1 538:1 617:1 687:1 711:1 778:1 791:1 799:1 880:1 1018:1 1084:1 1099:1 1120:1 1125:1 1191:1 1203:1 1257:1 1456:1 1468:1 1523:1 1662:1 1676:1 1699:1 1722:1 1741:1 1822:1 
4.7434006912602111 20:1 40:1 66:1 74:1 103:1 116:1 167:1 195:1 222:1 227:1 257:1 272:1 298:1 451:1 462:1 530:1 531:1 543:1 571:1 588:1 620:1 669:1 670:1 688:1 698:1 739:1 743:1 762:1 775:1 799:1 824:1 825:1 883:1 895:1 902:1 949:1 953:1 956:1 961:1 977:1 978:1 992:1 1027:1 1099:1 1106:1 1120:1 1162:1 1164:1 1171:1 1179:1 1182:1 1206:1 1333:1 1373:1 1401:1 1420:1 1472:1 1500:1 1531:1 1609:1 1665:1 1666:1 1676:1 1699:1 1758:1 1829:1 1841:1 1862:1 1876:1 1893:1 1895:1 
10 156:1 354:1 538:1 1102:1 1120:1 1124:1 1257:1 1662:1 1722:1 1741:1 
1.5722470706065559 13:1 23:1 53:1 74:1 80:1 162:1 165:1 298:1 530:1 547:1 550:1 666:1 681:1 688:1 718:1 775:1 799:1 825:1 877:1 889:1 958:1 959:1 1022:1 1084:1 1098:1 1113:1 1171:1 1242:1 1264:1 1353:1 1373:1 1386:1 1398:1 1405:1 1483:1 1523:1 1560:1 1607:1 1609:1 1666:1 1676:1 1699:1 1766:1 1803:1 1824:1 1852:1 1893:1 1895:1 
5.81983956833942 4:1 5:1 7:1 13:1 30:1 39:1 53:1 58:1 64:1 66:1 71:1 74:1 101:1 124:1 136:1 139:1 157:1 162:1 167:1 176:1 178:1 208:1 224:1 225:1 229:1 238:1 252:1 280:1 317:1 330:1 351:1 383:1 393:1 394:1 402:1 407:1 410:1 424:1 449:1 471:1 479:1 482:1 486:1 487:1 501:1 504:1 506:1 508:1 530:1 531:1 553:1 571:1 574:1 575:1 580:1 585:1 586:1 592:1 602:1 605:1 623:1 644:1 645:1 652:1 666:1 681:1 687:1 688:1 692:1 708:1 712:1 720:1 726:1 732:1 741:1 745:1 751:1 752:1 756:1 757:1 794:1 800:1 810:1 818:1 825:1 828:1 830:1 839:1 865:1 877:1 883:1 894:1 902:1 928:1 936:1 956:1 958:1 961:1 965:1 966:1 976:1 988:1 989:1 992:1 997:1 1009:1 1018:1 1032:1 1060:1 1062:1 1064:1 1077:1 1084:1 1093:1 1106:1 1113:1 1117:1 1120:1 1162:1 1163:1 1165:1 1168:1 1169:1 1171:1 1173:1 1178:1 1191:1 1192:1 1202:1 1204:1 1230:1 1242:1 1244:1 1266:1 1315:1 1319:1 1329:1 1333:1 1334:1 1343:1 1366:1 1369:1 1373:1 1384:1 1398:1 1410:1 1428:1 1444:1 1445:1 1452:1 1464:1 1475:1 1477:1 1511:1 1513:1 1516:1 1538:1 1541:1 1546:1 1547:1 1584:1 1607:1 1612:1 1623:1 1631:1 1644:1 1645:1 1663:1 1664:1 1665:1 1666:1 1667:1 1669:1 1671:1 1676:1 1677:1 1678:1 1688:1 1694:1 1699:1 1700:1 1703:1 1709:1 1710:1 1713:1 1731:1 1732:1 1735:1 1740:1 1758:1 1760:1 1766:1 1785:1 1788:1 1795:1 1803:1 1809:1 1819:1 1822:1 1827:1 1835:1 1837:1 1852:1 1860:1 1876:1 1893:1 1895:1 
10 11:1 74:1 150:1 238:1 296:1 383:1 394:1 471:1 724:1 756:1 799:1 824:1 1117:1 1174:1 1369:1 1694:1 1699:1 1760:1 1761:1 1809:1 1817:1 1860:1 1893:1 1895:1 
10 5:1 53:1 74:1 98:1 103:1 144:1 162:1 176:1 197:1 225:1 238:1 280:1 286:1 304:1 371:1 383:1 449:1 471:1 479:1 480:1 516:1 520:1 534:1 557:1 571:1 633:1 645:1 666:1 681:1 688:1 730:1 780:1 784:1 810:1 825:1 828:1 840:1 877:1 883:1 916:1 956:1 957:1 975:1 1067:1 1106:1 1113:1 1117:1 1120:1 1162:1 1164:1 1182:1 1230:1 1319:1 1346:1 1406:1 1468:1 1528:1 1566:1 1665:1 1666:1 1667:1 1676:1 1677:1 1681:1 1699:1 1724:1 1760:1 1766:1 1852:1 1893:1 
10 5:1 11:1 23:1 53:1 64:1 74:1 103:1 110:1 162:1 167:1 178:1 179:1 181:1 204:1 211:1 219:1 225:1 227:1 238:1 265:1 320:1 471:1 474:1 481:1 522:1 530:1 531:1 537:1 575:1 619:1 643:1 666:1 708:1 736:1 741:1 748:1 755:1 756:1 771:1 778:1 794:1 799:1 816:1 825:1 826:1 829:1 865:1 877:1 883:1 886:1 902:1 944:1 947:1 956:1 1000:1 1015:1 1018:1 1028:1 1033:1 1064:1 1067:1 1088:1 1095:1 1120:1 1151:1 1162:1 1171:1 1173:1 1174:1 1182:1 1189:1 1191:1 1206:1 1259:1 1262:1 1364:1 1369:1 1418:1 1442:1 1457:1 1465:1 1501:1 1511:1 1526:1 1545:1 1567:1 1572:1 1636:1 1638:1 1647:1 1665:1 1666:1 1668:1 1675:1 1676:1 1677:1 1678:1 1694:1 1699:1 1804:1 1819:1 1835:1 1837:1 1850:1 1862:1 1865:1 1866:1 1871:1 1876:1 1893:1 1895:1 
10 188:1 531:1 992:1 1264:1 1477:1 1699:1 1758:1 
10 74:1 75:1 162:1 168:1 188:1 197:1 238:1 399:1 401:1 501:1 530:1 531:1 550:1 631:1 632:1 688:1 775:1 799:1 825:1 877:1 942:1 961:1 981:1 999:1 1014:1 1064:1 1077:1 1117:1 1120:1 1162:1 1163:1 1171:1 1189:1 1245:1 1337:1 1369:1 1398:1 1477:1 1583:1 1620:1 1639:1 1666:1 1678:1 1699:1 1760:1 1792:1 1893:1 
0.04048475402607192 225:1 238:1 280:1 311:1 328:1 477:1 506:1 666:1 718:1 750:1 794:1 799:1 838:1 840:1 841:1 869:1 877:1 883:1 916:1 938:1 1062:1 1063:1 1078:1 1120:1 1163:1 1171:1 1179:1 1182:1 1191:1 1192:1 1196:1 1205:1 1264:1 1373:1 1417:1 1555:1 1671:1 1676:1 1699:1 1700:1 1759:1 1819:1 1824:1 1889:1 1893:1 1895:1 
10 24:1 74:1 75:1 167:1 174:1 298:1 341:1 345:1 352:1 440:1 455:1 471:1 531:1 554:1 640:1 663:1 666:1 694:1 756:1 792:1 799:1 810:1 959:1 1018:1 1113:1 1120:1 1162:1 1171:1 1182:1 1202:1 1228:1 1264:1 1290:1 1346:1 1349:1 1421:1 1473:1 1510:1 1523:1 1566:1 1666:1 1676:1 1699:1 1777:1 1859:1 1860:1 1861:1 1893:1 1895:1 
10 74:1 205:1 531:1 546:1 666:1 732:1 739:1 762:1 799:1 825:1 1028:1 1162:1 1171:1 1192:1 1299:1 1445:1 1499:1 1666:1 1699:1 1740:1 1865:1 1896:1 
10 29:1 71:1 74:1 123:1 141:1 162:1 234:1 238:1 280:1 338:1 377:1 393:1 413:1 491:1 492:1 520:1 647:1 666:1 704:1 792:1 804:1 806:1 825:1 827:1 862:1 952:1 1002:1 1087:1 1093:1 1098:1 1099:1 1117:1 1120:1 1162:1 1171:1 1182:1 1183:1 1189:1 1269:1 1304:1 1330:1 1422:1 1425:1 1427:1 1486:1 1496:1 1636:1 1665:1 1666:1 1692:1 1699:1 1708:1 1719:1 1730:1 1750:1 1778:1 1809:1 1819:1 1827:1 1871:1 1893:1 1895:1 
1.8748076944728744 7:1 53:1 74:1 162:1 172:1 238:1 252:1 298:1 479:1 482:1 486:1 608:1 666:1 681:1 708:1 726:1 743:1 756:1 825:1 877:1 883:1 902:1 916:1 943:1 963:1 1048:1 1066:1 1117:1 1120:1 1162:1 1171:1 1173:1 1181:1 1191:1 1268:1 1309:1 1319:1 1343:1 1359:1 1425:1 1462:1 1509:1 1523:1 1538:1 1544:1 1652:1 1666:1 1684:1 1699:1 1700:1 1734:1 1735:1 1740:1 1766:1 1796:1 1819:1 1844:1 1854:1 1873:1 1893:1 1895:1 
10 18:1 298:1 530:1 550:1 688:1 775:1 799:1 825:1 877:1 959:1 961:1 1072:1 1120:1 1174:1 1191:1 1523:1 1666:1 1676:1 1699:1 1758:1 1800:1 1809:1 1817:1 1893:1 
0.38794062784407424 3:1 4:1 5:1 11:1 12:1 17:1 20:1 24:1 29:1 42:1 47:1 56:1 58:1 68:1 70:1 71:1 74:1 75:1 78:1 80:1 86:1 90:1 103:1 110:1 116:1 119:1 120:1 122:1 123:1 124:1 139:1 140:1 144:1 151:1 155:1 162:1 167:1 169:1 173:1 174:1 183:1 194:1 198:1 210:1 218:1 219:1 224:1 227:1 234:1 237:1 238:1 242:1 244:1 256:1 270:1 280:1 298:1 304:1 309:1 319:1 321:1 326:1 345:1 353:1 355:1 371:1 387:1 388:1 393:1 394:1 398:1 401:1 408:1 410:1 428:1 438:1 445:1 452:1 454:1 457:1 463:1 471:1 474:1 477:1 479:1 489:1 504:1 520:1 530:1 531:1 546:1 551:1 561:1 565:1 571:1 574:1 583:1 592:1 595:1 607:1 608:1 617:1 618:1 645:1 657:1 666:1 672:1 676:1 688:1 697:1 698:1 701:1 706:1 707:1 708:1 712:1 724:1 736:1 737:1 743:1 756:1 766:1 775:1 786:1 799:1 807:1 810:1 824:1 825:1 826:1 827:1 832:1 839:1 840:1 850:1 858:1 860:1 862:1 863:1 865:1 869:1 871:1 873:1 877:1 878:1 879:1 883:1 884:1 885:1 888:1 899:1 918:1 923:1 932:1 948:1 952:1 956:1 958:1 967:1 976:1 989:1 991:1 992:1 997:1 1009:1 1012:1 1014:1 1018:1 1019:1 1025:1 1032:1 1042:1 1064:1 1071:1 1089:1 1095:1 1098:1 1099:1 1100:1 1101:1 1106:1 1113:1 1117:1 1120:1 1144:1 1145:1 1157:1 1162:1 1165:1 1171:1 1174:1 1176:1 1178:1 1182:1 1189:1 1190:1 1191:1 1192:1 1196:1 1197:1 1203:1 1228:1 1231:1 1236:1 1237:1 1238:1 1242:1 1255:1 1256:1 1258:1 1262:1 1263:1 1264:1 1268:1 1276:1 1278:1 1292:1 1299:1 1305:1 1306:1 1315:1 1317:1 1318:1 1319:1 1322:1 1332:1 1348:1 1353:1 1358:1 1366:1 1373:1 1374:1 1385:1 1390:1 1401:1 1407:1 1414:1 1415:1 1419:1 1426:1 1442:1 1443:1 1444:1 1446:1 1452:1 1467:1 1477:1 1493:1 1501:1 1503:1 1513:1 1516:1 1523:1 1532:1 1533:1 1541:1 1560:1 1572:1 1573:1 1582:1 1586:1 1591:1 1601:1 1606:1 1609:1 1611:1 1613:1 1615:1 1616:1 1636:1 1645:1 1648:1 1656:1 1663:1 1665:1 1666:1 1667:1 1669:1 1675:1 1676:1 1677:1 1679:1 1688:1 1699:1 1713:1 1717:1 1718:1 1741:1 1745:1 1753:1 1755:1 1760:1 1766:1 1779:1 1787:1 1788:1 1792:1 1793:1 1794:1 1804:1 1809:1 1819:1 1822:1 1824:1 1827:1 1830:1 1831:1 1835:1 1840:1 1844:1 1852:1 1859:1 1860:1 1868:1 1876:1 1882:1 1889:1 1893:1 1895:1 
10 227:1 530:1 531:1 706:1 766:1 799:1 877:1 961:1 992:1 1095:1 1501:1 1572:1 1638:1 1676:1 1679:1 1699:1 1830:1 
6.9738410997836926 5:1 25:1 74:1 75:1 103:1 116:1 141:1 155:1 162:1 218:1 227:1 298:1 310:1 316:1 320:1 349:1 399:1 423:1 424:1 471:1 474:1 531:1 560:1 571:1 663:1 666:1 688:1 698:1 735:1 739:1 753:1 771:1 787:1 795:1 799:1 825:1 826:1 840:1 860:1 863:1 876:1 959:1 960:1 961:1 992:1 995:1 998:1 1002:1 1009:1 1038:1 1088:1 1113:1 1162:1 1171:1 1182:1 1189:1 1191:1 1209:1 1240:1 1264:1 1370:1 1373:1 1398:1 1410:1 1445:1 1503:1 1510:1 1520:1 1523:1 1571:1 1607:1 1610:1 1613:1 1648:1 1665:1 1666:1 1670:1 1681:1 1682:1 1684:1 1699:1 1744:1 1766:1 1767:1 1773:1 1780:1 1819:1 1822:1 1844:1 1852:1 1859:1 1860:1 1871:1 1893:1 1895:1 
10 657:1 799:1 1120:1 
6.974723559954584 11:1 50:1 74:1 150:1 238:1 296:1 298:1 312:1 330:1 383:1 394:1 456:1 666:1 688:1 708:1 775:1 840:1 884:1 1064:1 1089:1 1093:1 1094:1 1117:1 1162:1 1174:1 1351:1 1364:1 1398:1 1401:1 1425:1 1644:1 1665:1 1666:1 1694:1 1698:1 1699:1 1760:1 1761:1 1817:1 1822:1 1860:1 1893:1 1895:1 
10 74:1 174:1 181:1 225:1 238:1 298:1 476:1 574:1 591:1 711:1 752:1 756:1 794:1 799:1 800:1 825:1 902:1 959:1 963:1 992:1 997:1 1064:1 1106:1 1117:1 1162:1 1168:1 1171:1 1175:1 1472:1 1613:1 1665:1 1666:1 1667:1 1668:1 1669:1 1675:1 1699:1 1809:1 1831:1 1849:1 1860:1 1867:1 1893:1 1895:1 
10 50:1 145:1 227:1 391:1 405:1 470:1 530:1 531:1 536:1 555:1 623:1 625:1 659:1 706:1 766:1 799:1 877:1 992:1 1095:1 1120:1 1441:1 1461:1 1501:1 1572:1 1649:1 1676:1 1679:1 1699:1 1785:1 1830:1 
6.79234434535869 5:1 37:1 57:1 64:1 71:1 74:1 75:1 77:1 103:1 116:1 124:1 140:1 162:1 167:1 168:1 204:1 215:1 218:1 227:1 238:1 244:1 278:1 300:1 314:1 321:1 353:1 371:1 393:1 413:1 471:1 474:1 479:1 481:1 482:1 486:1 520:1 530:1 531:1 535:1 544:1 571:1 574:1 575:1 581:1 602:1 609:1 623:1 663:1 666:1 677:1 682:1 686:1 688:1 693:1 696:1 698:1 700:1 718:1 724:1 732:1 739:1 741:1 743:1 750:1 756:1 758:1 769:1 771:1 778:1 779:1 783:1 794:1 799:1 810:1 819:1 825:1 827:1 836:1 840:1 869:1 877:1 883:1 891:1 894:1 902:1 916:1 918:1 924:1 938:1 956:1 963:1 974:1 977:1 978:1 980:1 989:1 997:1 1009:1 1018:1 1025:1 1033:1 1060:1 1062:1 1064:1 1074:1 1084:1 1098:1 1103:1 1106:1 1113:1 1120:1 1162:1 1164:1 1165:1 1171:1 1173:1 1178:1 1182:1 1191:1 1197:1 1198:1 1221:1 1230:1 1231:1 1236:1 1242:1 1249:1 1264:1 1267:1 1269:1 1314:1 1318:1 1334:1 1342:1 1376:1 1398:1 1426:1 1442:1 1446:1 1462:1 1464:1 1467:1 1475:1 1477:1 1492:1 1493:1 1503:1 1504:1 1508:1 1510:1 1541:1 1542:1 1545:1 1584:1 1590:1 1591:1 1609:1 1613:1 1631:1 1635:1 1636:1 1652:1 1664:1 1665:1 1666:1 1667:1 1673:1 1676:1 1678:1 1699:1 1700:1 1717:1 1740:1 1741:1 1745:1 1746:1 1759:1 1760:1 1766:1 1775:1 1776:1 1779:1 1803:1 1809:1 1817:1 1819:1 1827:1 1832:1 1833:1 1835:1 1837:1 1840:1 1841:1 1844:1 1852:1 1860:1 1861:1 1876:1 1893:1 1895:1 
0.011394464187885922 25:1 53:1 71:1 74:1 95:1 105:1 162:1 169:1 170:1 224:1 247:1 251:1 298:1 350:1 356:1 377:1 378:1 383:1 393:1 440:1 473:1 530:1 550:1 601:1 614:1 651:1 666:1 681:1 688:1 692:1 708:1 732:1 775:1 793:1 794:1 799:1 825:1 852:1 877:1 883:1 902:1 933:1 942:1 956:1 961:1 1162:1 1171:1 1173:1 1182:1 1191:1 1244:1 1309:1 1359:1 1398:1 1421:1 1493:1 1517:1 1518:1 1570:1 1631:1 1636:1 1665:1 1666:1 1676:1 1692:1 1699:1 1711:1 1755:1 1758:1 1796:1 1819:1 1839:1 1869:1 1876:1 1893:1 1895:1 
10 65:1 86:1 89:1 101:1 139:1 176:1 224:1 238:1 321:1 325:1 326:1 374:1 383:1 474:1 481:1 486:1 666:1 712:1 724:1 739:1 756:1 770:1 799:1 810:1 825:1 838:1 877:1 883:1 943:1 947:1 1015:1 1066:1 1067:1 1113:1 1117:1 1162:1 1191:1 1273:1 1343:1 1359:1 1382:1 1545:1 1590:1 1666:1 1694:1 1699:1 1711:1 1766:1 1819:1 1852:1 1860:1 1869:1 1873:1 1878:1 1893:1 1895:1 
0.16523078068224117 11:1 53:1 162:1 238:1 298:1 471:1 531:1 681:1 749:1 799:1 1018:1 1117:1 1179:1 1192:1 1220:1 1398:1 1400:1 1666:1 1699:1 1809:1 1852:1 1866:1 1893:1 
5.9043878675695387 4:1 5:1 25:1 38:1 39:1 42:1 45:1 58:1 60:1 64:1 66:1 71:1 74:1 103:1 109:1 110:1 116:1 123:1 124:1 147:1 162:1 165:1 166:1 167:1 169:1 223:1 225:1 227:1 244:1 252:1 291:1 300:1 311:1 313:1 321:1 337:1 352:1 355:1 363:1 364:1 374:1 401:1 405:1 406:1 407:1 408:1 412:1 413:1 432:1 443:1 453:1 477:1 488:1 522:1 530:1 531:1 563:1 571:1 572:1 608:1 636:1 643:1 644:1 666:1 667:1 668:1 688:1 712:1 727:1 732:1 745:1 748:1 756:1 758:1 759:1 775:1 778:1 784:1 787:1 799:1 802:1 810:1 819:1 822:1 825:1 831:1 832:1 852:1 862:1 877:1 883:1 902:1 904:1 906:1 911:1 924:1 929:1 939:1 953:1 956:1 959:1 961:1 974:1 991:1 992:1 997:1 1018:1 1042:1 1045:1 1060:1 1067:1 1071:1 1074:1 1084:1 1087:1 1098:1 1099:1 1114:1 1117:1 1120:1 1162:1 1171:1 1182:1 1189:1 1190:1 1191:1 1192:1 1196:1 1216:1 1238:1 1264:1 1279:1 1340:1 1341:1 1342:1 1352:1 1368:1 1372:1 1373:1 1384:1 1385:1 1400:1 1414:1 1415:1 1430:1 1442:1 1443:1 1444:1 1467:1 1477:1 1483:1 1486:1 1514:1 1521:1 1538:1 1545:1 1552:1 1557:1 1581:1 1585:1 1590:1 1595:1 1613:1 1617:1 1625:1 1636:1 1637:1 1652:1 1665:1 1666:1 1669:1 1674:1 1676:1 1677:1 1688:1 1696:1 1699:1 1700:1 1713:1 1732:1 1733:1 1740:1 1747:1 1750:1 1759:1 1760:1 1766:1 1770:1 1788:1 1803:1 1809:1 1810:1 1827:1 1830:1 1831:1 1837:1 1840:1 1844:1 1845:1 1852:1 1859:1 1860:1 1862:1 1871:1 1876:1 1893:1 1895:1 
10 51:1 103:1 113:1 219:1 227:1 309:1 320:1 405:1 481:1 530:1 531:1 555:1 619:1 625:1 736:1 799:1 816:1 825:1 877:1 883:1 886:1 902:1 1073:1 1095:1 1262:1 1369:1 1501:1 1572:1 1666:1 1676:1 1694:1 1785:1 1871:1 
10 145:1 227:1 260:1 391:1 471:1 663:1 699:1 718:1 799:1 816:1 959:1 961:1 1106:1 1120:1 1171:1 1284:1 1299:1 1441:1 1461:1 1666:1 1699:1 1758:1 
10 195:1 531:1 799:1 825:1 992:1 1032:1 1162:1 1277:1 1477:1 1666:1 1699:1 1758:1 1860:1 
10 53:1 74:1 222:1 227:1 259:1 364:1 393:1 423:1 481:1 491:1 497:1 708:1 792:1 799:1 827:1 852:1 1072:1 1106:1 1120:1 1171:1 1179:1 1183:1 1192:1 1197:1 1406:1 1426:1 1506:1 1538:1 1541:1 1588:1 1699:1 1700:1 1727:1 1792:1 1819:1 1860:1 1861:1 1887:1 1895:1 
6.1468945621509326 27:1 28:1 58:1 71:1 74:1 97:1 103:1 116:1 121:1 123:1 135:1 155:1 162:1 165:1 181:1 211:1 227:1 234:1 238:1 248:1 256:1 293:1 307:1 338:1 355:1 371:1 387:1 393:1 422:1 428:1 435:1 449:1 474:1 486:1 504:1 534:1 535:1 537:1 571:1 589:1 594:1 636:1 666:1 688:1 712:1 722:1 737:1 756:1 779:1 789:1 792:1 794:1 810:1 825:1 827:1 877:1 882:1 891:1 902:1 916:1 917:1 940:1 953:1 961:1 991:1 1012:1 1024:1 1047:1 1060:1 1099:1 1106:1 1117:1 1120:1 1162:1 1163:1 1166:1 1171:1 1182:1 1189:1 1191:1 1209:1 1212:1 1242:1 1251:1 1290:1 1291:1 1296:1 1301:1 1316:1 1324:1 1334:1 1346:1 1356:1 1373:1 1398:1 1400:1 1405:1 1456:1 1470:1 1511:1 1528:1 1582:1 1607:1 1636:1 1637:1 1663:1 1665:1 1666:1 1667:1 1669:1 1676:1 1678:1 1687:1 1699:1 1738:1 1751:1 1776:1 1808:1 1819:1 1820:1 1827:1 1837:1 1841:1 1852:1 1860:1 1861:1 1862:1 1869:1 1878:1 1889:1 1893:1 1895:1 1898:1 
0.87323733143979065 40:1 53:1 74:1 75:1 103:1 124:1 139:1 162:1 176:1 227:1 328:1 338:1 383:1 408:1 571:1 617:1 646:1 663:1 666:1 672:1 681:1 771:1 787:1 799:1 802:1 824:1 825:1 840:1 860:1 877:1 902:1 906:1 939:1 943:1 945:1 968:1 984:1 1013:1 1048:1 1064:1 1066:1 1077:1 1083:1 1093:1 1099:1 1106:1 1120:1 1156:1 1162:1 1173:1 1179:1 1189:1 1192:1 1198:1 1234:1 1269:1 1359:1 1364:1 1382:1 1443:1 1464:1 1493:1 1524:1 1585:1 1636:1 1663:1 1666:1 1668:1 1673:1 1676:1 1699:1 1750:1 1819:1 1838:1 1860:1 1861:1 1862:1 1887:1 1889:1 1893:1 1895:1 
10 7:1 53:1 74:1 103:1 162:1 172:1 238:1 298:1 343:1 452:1 481:1 482:1 486:1 608:1 666:1 681:1 708:1 726:1 743:1 756:1 825:1 877:1 883:1 916:1 943:1 1048:1 1066:1 1117:1 1162:1 1171:1 1173:1 1181:1 1191:1 1309:1 1319:1 1343:1 1353:1 1425:1 1462:1 1509:1 1523:1 1538:1 1544:1 1652:1 1656:1 1666:1 1684:1 1700:1 1734:1 1740:1 1766:1 1796:1 1819:1 1844:1 1860:1 1873:1 1893:1 1895:1 
10 21:1 25:1 41:1 60:1 64:1 74:1 124:1 162:1 178:1 192:1 198:1 227:1 238:1 248:1 298:1 330:1 371:1 471:1 481:1 574:1 605:1 648:1 652:1 666:1 676:1 688:1 726:1 756:1 771:1 775:1 794:1 799:1 810:1 883:1 899:1 902:1 916:1 947:1 956:1 959:1 976:1 992:1 997:1 1018:1 1050:1 1053:1 1060:1 1064:1 1067:1 1084:1 1093:1 1113:1 1120:1 1162:1 1168:1 1171:1 1177:1 1250:1 1256:1 1264:1 1319:1 1374:1 1398:1 1477:1 1483:1 1494:1 1523:1 1538:1 1545:1 1546:1 1553:1 1625:1 1638:1 1664:1 1665:1 1666:1 1669:1 1673:1 1676:1 1678:1 1699:1 1735:1 1766:1 1809:1 1844:1 1852:1 1869:1 1876:1 1893:1 
10 156:1 277:1 354:1 538:1 880:1 1102:1 1120:1 1136:1 1257:1 1662:1 1722:1 1741:1 
6.8990402748679216 1:1 2:1 21:1 23:1 33:1 34:1 53:1 71:1 83:1 91:1 124:1 126:1 156:1 159:1 162:1 193:1 259:1 277:1 303:1 304:1 354:1 391:1 405:1 443:1 466:1 469:1 474:1 488:1 498:1 536:1 538:1 555:1 605:1 624:1 659:1 673:1 758:1 778:1 799:1 810:1 812:1 816:1 817:1 825:1 863:1 868:1 877:1 880:1 919:1 991:1 992:1 1032:1 1034:1 1043:1 1079:1 1100:1 1113:1 1118:1 1120:1 1121:1 1123:1 1125:1 1134:1 1138:1 1142:1 1147:1 1154:1 1162:1 1171:1 1182:1 1257:1 1345:1 1367:1 1423:1 1461:1 1499:1 1507:1 1519:1 1545:1 1577:1 1662:1 1676:1 1699:1 1722:1 1741:1 1746:1 1760:1 1766:1 1798:1 1803:1 1895:1 
1.7273515040112126 21:1 25:1 71:1 74:1 86:1 103:1 105:1 106:1 124:1 142:1 162:1 165:1 182:1 206:1 224:1 227:1 238:1 259:1 280:1 305:1 316:1 370:1 393:1 471:1 479:1 481:1 482:1 504:1 527:1 530:1 531:1 571:1 580:1 592:1 593:1 605:1 652:1 663:1 666:1 681:1 688:1 692:1 697:1 698:1 708:1 712:1 724:1 751:1 756:1 771:1 810:1 825:1 840:1 841:1 877:1 883:1 899:1 902:1 910:1 947:1 956:1 958:1 963:1 966:1 976:1 991:1 992:1 1018:1 1032:1 1062:1 1086:1 1101:1 1106:1 1117:1 1120:1 1162:1 1171:1 1174:1 1182:1 1186:1 1189:1 1191:1 1197:1 1230:1 1242:1 1244:1 1258:1 1264:1 1315:1 1364:1 1375:1 1398:1 1400:1 1447:1 1454:1 1466:1 1468:1 1477:1 1483:1 1584:1 1585:1 1586:1 1592:1 1607:1 1638:1 1652:1 1665:1 1666:1 1669:1 1671:1 1676:1 1677:1 1678:1 1694:1 1697:1 1699:1 1757:1 1766:1 1785:1 1788:1 1809:1 1819:1 1827:1 1835:1 1838:1 1840:1 1844:1 1860:1 1868:1 1869:1 1876:1 1893:1 1895:1 
10 162:1 298:1 775:1 1398:1 1699:1 
10 176:1 531:1 883:1 992:1 1089:1 1120:1 
